{{9.5803e-02,5.5239e-02,1.0288e-01,7.5048e-02,1.6195e-01,
5.1581e-03,2.3891e-01,2.9071e-01,7.2389e-02,3.2870e-02,
1.2892e-01,-2.4238e-02,2.2148e-02,4.4590e-02,-1.7992e-01,
-8.1017e-02,-2.2018e-01,-1.9814e-01,-1.4945e-01,-1.9766e-01,
4.8322e-02,-2.7193e-03,-1.1966e-01,-4.9346e-02,-1.5816e-02},
{-1.0290e-01,-2.5498e-02,-4.0403e-02,1.3622e-02,-5.6298e-02,
2.1140e-02,1.4635e-01,-1.2658e-02,9.6755e-02,8.4838e-03,
1.5997e-02,-3.9567e-02,-9.2227e-02,-1.3738e-01,-1.9495e-02,
-1.4476e-01,-2.8756e-02,-1.8236e-01,-6.7748e-02,-2.7482e-02,
-4.3342e-02,-9.1109e-02,7.4808e-02,3.6240e-02,8.8675e-02},
{-1.6678e-01,-2.8875e-03,-1.2045e-01,4.2056e-02,-1.0014e-01,
9.2429e-02,7.2163e-03,1.5210e-01,8.0952e-02,7.4164e-02,
6.2761e-02,1.4735e-01,-2.9008e-02,1.0105e-01,-1.2899e-02,
-1.0417e-01,-1.2973e-02,2.5826e-02,-8.4108e-02,-7.9515e-02,
-8.8542e-03,3.5951e-02,2.2815e-02,7.3007e-03,7.6190e-02}},
{{4.9647e-02,-4.7677e-02,-1.2556e-01,-1.8151e-02,-7.8757e-02,
5.8584e-05,-7.7284e-02,-6.3612e-02,4.0103e-02,-1.2191e-01,
-3.0743e-02,-8.4706e-02,3.4786e-02,-3.8942e-02,-1.6018e-01,
-8.4418e-02,-7.1694e-02,1.7575e-02,-4.6435e-02,-1.4714e-01,
4.7523e-02,5.0159e-02,1.0210e-01,-9.1299e-02,-5.0084e-02},
{-1.0582e-01,-7.7462e-02,6.0593e-02,2.0125e-02,2.8795e-02,
-1.0773e-01,-1.2952e-01,1.6829e-01,1.4312e-01,-8.9122e-02,
-2.8271e-01,-3.4598e-02,1.5175e-01,1.0764e-01,1.6088e-02,
-1.9024e-01,7.4350e-02,1.7280e-01,5.6751e-02,3.9461e-02,
-1.8794e-01,1.2338e-01,1.4396e-01,1.3006e-01,3.6663e-02},
{-2.3916e-02,-4.5440e-02,1.1811e-01,1.7259e-01,-2.3288e-02,
-1.2148e-01,-3.2976e-02,1.0471e-01,8.8208e-02,-4.3554e-02,
-1.4073e-01,6.6889e-02,1.6989e-01,9.7100e-02,-6.1072e-02,
-1.1653e-01,1.1394e-01,2.8006e-01,1.5553e-01,4.1521e-02,
-4.4889e-02,1.0738e-01,2.2284e-01,1.3241e-01,-1.0651e-01}},
{{3.1953e-02,1.2859e-02,-8.8607e-02,-3.0938e-02,-1.4722e-03,
8.6625e-02,-1.1958e-01,-3.2354e-02,2.6459e-03,-1.3761e-01,
-7.9353e-02,1.4028e-01,3.3619e-01,1.8456e-01,1.4955e-01,
-5.0379e-02,-2.5756e-01,-4.9816e-02,3.7318e-02,-8.2912e-02,
1.4634e-01,-9.3956e-02,-3.1258e-02,-1.6271e-01,-1.0545e-01},
{1.2560e-01,1.1684e-02,1.0592e-01,-1.5762e-01,-8.1934e-02,
-7.4475e-02,3.9156e-02,5.9724e-02,-1.4245e-01,-9.4990e-02,
-3.4771e-02,1.9542e-01,3.2132e-01,2.9961e-01,1.4171e-01,
-5.3335e-02,-2.6106e-01,5.7006e-02,6.0077e-02,7.7858e-02,
1.1198e-03,-5.3518e-02,-5.9059e-02,-1.4339e-01,1.3828e-02},
{-4.5425e-02,-3.1599e-02,3.4822e-02,-1.0609e-01,-1.2560e-01,
1.7046e-02,-1.1772e-01,-8.2456e-02,-8.0478e-02,1.2305e-02,
8.2801e-02,1.0143e-01,2.9479e-01,1.9318e-01,1.7778e-01,
-7.0018e-03,-2.0917e-01,-7.0045e-02,8.9782e-03,8.4122e-02,
1.0258e-01,-8.8231e-02,-1.3905e-01,-1.1975e-01,-1.3177e-01}},
{{4.2777e-02,-2.0269e-02,1.3800e-01,4.8678e-02,1.1970e-02,
-8.1434e-02,-3.7147e-02,-1.1105e-02,4.4299e-02,1.2428e-01,
-1.2737e-01,-1.4937e-01,-3.1536e-02,1.8532e-01,1.3202e-01,
-6.5383e-02,-1.2183e-01,-1.9605e-01,7.8508e-02,1.5383e-01,
1.7085e-01,-2.5043e-02,-1.2079e-01,-1.8399e-01,7.0624e-02},
{-1.4464e-01,4.9639e-02,-3.9810e-02,1.0839e-02,2.8719e-02,
-1.6410e-01,-1.6179e-01,4.2420e-02,2.1818e-02,8.2711e-02,
-1.2822e-01,-7.8243e-02,-1.0812e-01,3.0520e-02,2.0896e-01,
-5.5074e-02,-2.0557e-02,-1.6875e-01,4.4664e-02,2.4045e-01,
2.5290e-02,-5.1414e-02,-1.5861e-01,-2.6014e-02,9.9959e-02},
{4.3654e-02,-8.5283e-02,-6.3753e-02,1.1991e-01,3.8844e-02,
-1.6962e-01,-7.9448e-03,4.6369e-02,2.0730e-01,1.9803e-01,
-1.5917e-01,-8.8559e-02,-1.3847e-01,9.9058e-02,1.2738e-01,
-4.2794e-02,-1.5388e-01,-1.5834e-01,4.6760e-02,1.2047e-01,
9.1338e-02,6.7868e-02,-8.1804e-02,-7.0676e-02,3.0202e-02}},
{{1.3312e-02,1.4079e-01,2.5087e-01,8.1103e-02,1.6950e-01,
1.0786e-01,1.7824e-01,2.7203e-01,9.3942e-02,1.2405e-01,
1.0826e-02,2.7511e-02,-9.1513e-02,-9.9783e-02,-1.3080e-02,
-2.2523e-01,-2.2713e-01,-8.1947e-02,-1.3129e-01,-1.4084e-01,
-4.5307e-02,-1.6646e-01,-4.4348e-02,1.7349e-02,-1.0078e-01},
{2.6726e-02,-1.7169e-01,-1.6383e-01,-1.8250e-01,-1.6404e-01,
1.7530e-02,-7.7566e-02,-7.7973e-02,-1.9394e-02,-1.3872e-01,
7.2647e-02,4.9801e-02,1.6104e-01,1.1100e-01,9.0203e-02,
-1.4353e-01,-3.2779e-02,-1.3831e-01,-7.0129e-02,-4.1382e-02,
6.8734e-02,8.8810e-02,6.5021e-03,-4.4013e-02,9.1415e-02},
{-1.1312e-01,-1.6437e-01,-2.3270e-01,-4.8306e-02,-9.6409e-02,
-6.0106e-02,3.6109e-02,-3.8507e-02,8.7361e-02,2.4944e-02,
1.4002e-01,1.3229e-01,1.5342e-01,1.8267e-01,-4.5113e-02,
3.3311e-02,1.0345e-01,-2.9471e-02,2.2162e-03,3.8376e-02,
1.1552e-01,8.3342e-02,1.2815e-01,1.4261e-01,1.3839e-01}},
{{-1.4040e-01,-1.2970e-01,-1.4500e-01,-1.9904e-01,-7.5253e-02,
1.0405e-01,5.1298e-02,-7.6366e-02,-2.7801e-02,-3.9066e-02,
1.8688e-01,1.9924e-01,8.6583e-02,1.4037e-01,7.7057e-02,
4.6940e-02,1.7556e-01,2.1323e-01,6.7531e-02,8.3065e-02,
6.8241e-02,1.5556e-01,1.8880e-01,9.8486e-02,-1.2624e-01},
{1.0336e-01,1.5370e-01,9.4389e-02,6.5441e-02,-5.7226e-02,
-9.6188e-02,-4.2054e-02,-4.1764e-02,-7.3856e-02,-1.0512e-01,
-1.2318e-01,-1.0615e-01,-9.6899e-02,-5.3728e-02,-1.2307e-02,
-4.7536e-02,-4.1674e-02,-1.1719e-01,1.2136e-02,-4.7050e-02,
-4.8567e-02,-1.1115e-01,-9.9246e-02,-1.2321e-01,1.3704e-01},
{3.9257e-02,-4.6264e-02,4.9383e-02,1.4757e-01,1.4933e-01,
-3.1122e-02,1.7070e-02,1.0782e-01,6.9352e-02,1.6608e-01,
-5.6419e-02,-1.3422e-01,-8.7415e-03,-4.1291e-02,-2.5358e-02,
3.5611e-02,-1.4937e-01,-1.2480e-01,-1.3695e-01,2.3305e-02,
-2.2963e-02,-8.9617e-02,-1.7480e-01,2.1580e-02,-2.1220e-02}},
{{8.2225e-02,5.9992e-02,8.7392e-02,-1.0268e-02,-1.3174e-02,
-6.0502e-02,1.0727e-02,2.0813e-02,2.3054e-02,7.4924e-02,
1.8812e-02,1.0780e-01,9.7829e-02,3.7713e-02,1.9398e-02,
7.8905e-02,-2.2103e-02,-1.3383e-02,-5.2015e-02,4.6822e-02,
6.4746e-02,-9.2529e-02,-8.7445e-02,-4.3859e-02,6.9850e-02},
{-8.3680e-02,5.9384e-02,-9.3002e-02,-1.4040e-01,-1.5087e-01,
6.7420e-02,8.4064e-02,7.1579e-02,3.8255e-02,-1.4898e-01,
-2.0675e-02,4.0358e-02,-5.6264e-02,2.8310e-02,-6.4923e-02,
1.7677e-02,-1.0571e-01,7.7573e-02,9.4254e-02,-6.1627e-02,
-1.0630e-01,-2.4863e-02,-1.3893e-01,5.6885e-02,-2.4730e-02},
{2.7280e-02,4.4489e-02,1.0994e-01,-8.9280e-03,4.0668e-02,
5.1440e-02,1.6488e-01,2.0930e-01,5.7644e-02,-1.2695e-01,
-1.2129e-02,5.6330e-02,1.1654e-01,1.4577e-01,-3.5917e-02,
-4.8580e-02,6.2816e-02,1.6895e-02,9.3701e-03,1.1840e-01,
6.2324e-02,-8.4113e-02,3.2559e-02,-1.2571e-02,8.4963e-02}},
{{-5.4928e-02,-2.9489e-02,-7.2404e-02,1.1695e-02,1.1839e-01,
-2.6728e-02,-6.2514e-02,-1.0952e-01,1.2052e-01,4.0837e-02,
7.3606e-02,1.5518e-01,-3.5154e-01,1.1068e-01,6.9192e-02,
1.4999e-02,-2.6740e-02,-2.8886e-01,8.1416e-02,8.0128e-02,
-8.1689e-03,6.7167e-02,-1.6413e-01,1.3423e-01,1.6661e-01},
{-4.7899e-03,9.7224e-02,-6.3430e-02,5.7016e-02,-1.2207e-01,
1.1478e-01,-2.3766e-02,-1.9193e-01,1.5071e-01,-2.2616e-02,
1.4886e-01,1.1981e-01,-3.7080e-01,1.8131e-01,1.1519e-01,
1.3336e-01,3.0079e-02,-3.6796e-01,1.8968e-01,-2.3635e-04,
9.3832e-02,-3.9009e-03,-2.6451e-01,5.6952e-03,-6.2199e-05},
{6.8703e-02,1.5421e-02,-1.7832e-01,7.8641e-02,9.9903e-03,
8.4151e-02,4.6163e-02,-2.0958e-01,1.0328e-01,-8.1938e-02,
1.1914e-01,-2.7809e-03,-2.4264e-01,1.8988e-01,-3.3487e-02,
3.5502e-02,1.2955e-01,-2.5421e-01,5.2901e-02,5.1715e-02,
1.4702e-01,-4.9173e-02,-1.3285e-01,4.8001e-02,-3.0450e-02}},
{{5.1354e-02,3.9864e-02,2.4447e-03,-4.7000e-02,1.2665e-01,
-1.3225e-01,-1.0053e-01,1.3136e-01,1.7656e-02,-1.1362e-01,
-5.0939e-02,2.5053e-02,-4.2629e-02,-8.5383e-03,-7.4556e-02,
1.4038e-01,5.3574e-02,-1.0685e-01,-1.1367e-01,1.7974e-01,
-6.8925e-02,-9.8688e-02,-9.8673e-03,1.0056e-01,-8.2678e-02},
{-8.6920e-02,1.0328e-01,-1.2910e-01,4.7876e-02,1.2460e-01,
5.6960e-02,-1.1963e-02,9.6752e-02,1.8377e-01,-4.6047e-02,
4.8757e-02,3.8543e-02,1.9175e-01,3.4736e-02,-7.9238e-02,
-2.2548e-02,1.2502e-01,2.8660e-03,-1.5178e-01,1.2028e-02,
9.6728e-02,-1.5575e-01,-1.1771e-01,-3.9413e-02,-1.0167e-01},
{8.3806e-02,-3.8367e-03,-9.9750e-02,-5.9299e-02,1.5055e-01,
3.5923e-02,-1.2784e-01,8.1292e-02,2.4192e-01,-3.8939e-02,
-7.8523e-02,7.6095e-02,1.7919e-01,-2.9515e-02,-5.4579e-02,
4.9204e-02,2.9085e-03,-1.6332e-01,-1.1998e-01,9.8001e-02,
3.2562e-02,6.9885e-03,-1.2487e-02,-9.7542e-02,5.0686e-02}},
{{2.3223e-01,2.1978e-02,-1.9220e-01,-9.9248e-02,-6.4864e-02,
1.6877e-01,-1.9443e-01,-1.8309e-01,-2.2803e-02,1.7873e-01,
-2.2865e-01,-1.6846e-01,1.5448e-02,1.4800e-01,4.8721e-02,
-1.9337e-01,1.4777e-01,2.2746e-01,1.2884e-01,-9.6352e-02,
8.9985e-02,1.4156e-01,1.3345e-01,8.6994e-03,-7.9362e-02},
{2.2036e-01,8.6868e-02,-1.6813e-01,-1.5702e-01,5.5194e-02,
-2.2877e-02,-1.9764e-01,-2.3045e-01,-6.5258e-02,1.7575e-01,
-2.5608e-01,-1.7525e-01,2.3061e-01,2.0496e-01,-2.2920e-02,
-1.0295e-01,1.1758e-01,1.1531e-01,5.2951e-02,-6.3685e-02,
-2.0945e-02,3.3058e-02,7.3336e-02,-1.0027e-01,1.4071e-02},
{1.2486e-01,-2.1927e-02,-1.6196e-01,-1.4664e-01,1.2587e-01,
1.0719e-01,-1.3347e-01,-2.9013e-02,-3.0049e-02,-1.9721e-02,
-1.3476e-01,-1.1970e-01,1.4945e-01,7.1714e-02,-3.7166e-02,
-1.7923e-01,1.1795e-01,6.5524e-02,1.0858e-01,1.7524e-02,
1.0426e-01,1.4755e-01,-6.5633e-02,-8.7562e-02,-1.6126e-02}},
{{-5.7123e-02,-1.0712e-01,-8.2516e-02,-1.1852e-02,1.2723e-02,
-1.4119e-01,-3.8320e-02,-1.3820e-01,-1.3522e-01,-1.3899e-01,
-9.8031e-02,-1.6526e-01,-1.6244e-02,-9.4410e-03,6.2164e-03,
-1.7509e-01,-1.6072e-01,-1.3278e-01,-8.4313e-04,-3.5436e-02,
-8.2260e-02,3.7760e-02,3.8355e-02,2.2956e-02,4.8637e-02},
{-9.7674e-04,1.9195e-02,7.1905e-02,1.0636e-01,8.9925e-02,
9.0581e-02,3.0750e-02,-9.3452e-02,-3.5579e-02,-6.1461e-02,
6.1340e-02,1.0657e-01,3.6919e-02,4.4400e-02,1.0568e-01,
-1.1870e-01,2.1720e-02,-8.4489e-02,7.1425e-02,-1.4387e-01,
-3.5459e-02,2.0891e-02,3.1135e-02,-1.2606e-01,5.6968e-02},
{2.3310e-02,1.3771e-01,1.3907e-01,3.8731e-02,8.6733e-02,
1.4375e-01,-6.9465e-02,1.6950e-02,-9.0392e-02,-1.0520e-02,
1.0516e-01,1.4998e-01,1.2864e-01,1.4033e-01,-1.0329e-02,
1.4568e-01,5.8386e-02,1.0347e-01,4.9515e-02,6.3593e-02,
1.2418e-01,6.5897e-02,3.1692e-02,-6.5123e-02,-1.5406e-01}},
{{-4.7648e-03,-4.0303e-02,-8.2904e-02,8.2602e-02,-1.8991e-01,
5.5551e-02,-9.5008e-02,-1.2739e-01,8.9727e-02,-9.3669e-03,
3.8692e-02,-2.3383e-02,9.0782e-04,-6.3472e-03,7.4129e-02,
1.0219e-02,5.0235e-02,1.4837e-01,5.4218e-02,-4.7542e-02,
8.4668e-02,3.8318e-02,4.4678e-02,-1.1142e-01,1.2224e-02},
{-3.3303e-02,8.3508e-02,1.3210e-01,1.2235e-01,8.4388e-02,
1.2201e-01,8.7432e-02,-4.0656e-02,1.4277e-01,1.1539e-01,
-3.5899e-02,1.1078e-01,-3.5993e-02,-6.7832e-02,9.4905e-02,
-6.9068e-02,3.1999e-02,1.9940e-01,1.2004e-01,-3.9040e-02,
1.8565e-02,8.6062e-02,-1.3721e-02,-3.6130e-02,-4.6846e-02},
{-2.9248e-02,-1.1200e-01,-1.1852e-01,6.8350e-02,-1.4210e-01,
5.1600e-02,-8.5707e-02,-1.3199e-01,-5.3441e-02,-3.8022e-02,
8.7729e-02,-6.1939e-02,5.6659e-02,-1.1569e-01,7.3533e-02,
-2.0264e-03,-1.1462e-01,-8.7403e-02,-2.7811e-02,-1.6206e-02,
-4.3123e-02,-7.9467e-02,3.6729e-02,-1.4785e-01,-2.0350e-02}},
{{3.2174e-02,1.4747e-01,5.3599e-02,-7.4352e-02,-5.0319e-02,
3.3412e-02,-4.5559e-02,-1.4369e-01,-1.3687e-01,1.1971e-01,
5.1135e-02,-3.7159e-02,-2.7122e-01,2.0973e-01,6.6940e-02,
-5.5509e-03,-1.2138e-01,-3.5721e-02,2.3116e-01,-5.1426e-02,
-4.0683e-02,-6.9927e-02,2.6231e-01,1.7361e-03,-9.2863e-02},
{6.1739e-02,8.8814e-02,-4.6090e-02,-1.6985e-01,-4.2769e-02,
1.6959e-01,5.5005e-02,-8.4342e-02,-5.1771e-02,6.3868e-02,
4.4842e-02,-7.9850e-02,-1.1279e-01,5.2500e-02,-1.1024e-02,
-1.0227e-01,-3.7587e-02,5.0174e-02,5.6016e-02,-1.0736e-01,
-8.2151e-02,-6.9604e-02,2.6409e-01,-3.1577e-02,-1.5485e-01},
{-1.5198e-01,-2.8774e-02,2.1779e-02,-1.5258e-01,1.1519e-01,
6.0148e-02,-5.0183e-02,-1.3468e-01,2.0463e-02,1.5388e-02,
9.4488e-02,-1.7393e-01,-2.1619e-01,1.9336e-01,1.2450e-01,
-1.5900e-01,-1.1874e-01,1.5629e-01,2.2989e-01,6.7890e-02,
-5.1555e-02,-5.4645e-02,2.7532e-01,-7.6317e-02,6.5424e-02}},
{{-6.7704e-02,1.0544e-01,9.0556e-02,3.8557e-02,3.3487e-02,
1.1027e-01,8.1597e-02,5.9753e-02,3.6452e-02,-2.0252e-01,
3.6150e-02,2.1925e-01,5.4992e-02,-7.6318e-02,-2.0761e-01,
1.0464e-01,-4.1775e-02,-7.3388e-03,-1.6827e-02,-5.7933e-03,
8.2355e-02,8.0996e-03,7.5482e-03,-1.0173e-01,1.4617e-02},
{4.8142e-02,-9.5452e-02,1.0790e-02,-1.1932e-01,-2.1308e-01,
2.7927e-02,4.3848e-03,-5.8386e-02,-5.8869e-02,-1.6322e-01,
3.0479e-02,1.3338e-01,-4.8644e-02,1.1048e-02,-2.0772e-01,
1.0553e-01,6.0434e-02,-8.7416e-03,1.0431e-02,-9.7113e-02,
-1.4888e-03,1.4750e-01,-5.6712e-02,-7.6413e-02,-5.1609e-02},
{8.4157e-02,9.4615e-02,5.1863e-02,-1.3700e-01,-2.1833e-01,
1.4062e-01,-1.1845e-02,1.4119e-01,-1.3700e-02,-2.2963e-01,
1.0184e-01,4.1676e-02,-3.2489e-02,-1.5124e-01,-1.6460e-01,
1.3765e-01,1.8928e-01,3.4703e-02,2.4730e-02,-8.8921e-02,
-6.9279e-03,1.4620e-01,6.0983e-02,-8.4994e-02,-3.3923e-02}},
{{-3.2460e-03,-5.8495e-02,-8.0972e-02,1.7811e-02,-1.0131e-01,
-1.6587e-01,-1.3048e-01,-2.3494e-01,-1.5008e-01,-1.2997e-01,
7.8783e-02,-1.3746e-01,-6.6656e-02,-1.0403e-01,-4.5560e-02,
1.1892e-01,1.8117e-01,2.0023e-01,1.6483e-02,1.3208e-01,
1.8011e-01,6.2547e-02,1.8501e-01,7.8382e-02,1.7288e-01},
{-1.3179e-01,-1.5342e-01,-1.4147e-01,-7.5990e-02,7.8243e-02,
-1.0204e-01,-2.6818e-02,-1.4365e-01,-9.3514e-02,-1.0740e-01,
2.2554e-02,5.7408e-02,3.7156e-03,8.3770e-02,-6.8963e-02,
1.1264e-01,9.0750e-02,1.0626e-01,5.9148e-02,-4.0230e-02,
8.2106e-02,6.7518e-02,1.4448e-01,9.6659e-02,2.1140e-02},
{1.0628e-01,-1.7534e-02,5.8216e-02,-6.9990e-02,1.3128e-01,
1.7548e-03,-1.5364e-01,-6.5555e-02,-3.5912e-02,3.7454e-03,
2.5739e-02,-3.4525e-02,-2.8227e-02,3.1609e-02,1.9199e-02,
1.7586e-02,9.4700e-02,-3.3647e-02,3.1120e-02,7.7099e-02,
-4.5265e-02,7.4651e-02,-1.3148e-02,1.1887e-01,-8.5124e-03}},
{{1.1155e-02,-7.2624e-02,-7.3185e-02,-1.0449e-01,5.2180e-02,
5.8198e-02,-9.5078e-02,-3.6182e-02,1.8268e-02,-8.9883e-02,
1.0449e-01,1.0660e-01,-2.5519e-02,-2.1463e-01,-2.0637e-01,
1.3135e-01,6.2634e-02,-1.8468e-01,-1.2361e-01,-1.1868e-01,
8.6965e-02,-6.1310e-02,-1.8512e-01,-1.3347e-01,-8.6687e-02},
{1.0178e-01,4.6435e-02,2.0055e-02,1.0129e-01,2.7701e-02,
8.1593e-02,-5.7997e-02,4.2291e-02,1.0968e-01,5.6566e-02,
2.1711e-01,-2.1744e-02,9.3579e-02,-5.4606e-02,-8.7278e-02,
1.3833e-01,5.3198e-02,1.1278e-02,-1.1478e-01,-7.9056e-02,
1.2355e-01,-4.3375e-02,-1.0783e-01,-7.9694e-02,-3.4786e-02},
{-9.0320e-03,-2.2935e-02,6.1671e-02,1.4887e-03,-1.1840e-01,
1.4056e-01,1.6518e-01,-2.1538e-02,-7.8194e-02,-5.8895e-02,
4.6231e-02,1.7034e-02,-8.8574e-02,2.9629e-02,-3.2782e-02,
-1.1456e-02,1.3175e-01,-3.3245e-02,8.1347e-02,8.0915e-03,
7.8682e-02,-1.0420e-01,1.4349e-01,1.4453e-01,7.1404e-02}},
