0.013958,
-0.012786,
-0.065662,
-0.021168,
-0.020256,
-0.042482,
-0.037513,
-0.040509,
-0.011625,
0.001162,
-0.003544,
0.001208,
0.021914,
-0.050689,
-0.055226,
-0.005258,
-0.033847,
-0.035254,
-0.003066,
0.024465,
-0.033697,
-0.038820,
-0.002939,
-0.041899,
0.021860,
0.002111,
0.002237,
0.028152,
0.022200,
0.006073,
0.015569,
0.004793,
0.030336,
-0.040490,
-0.040756,
-0.003211,
-0.016563,
0.012532,
0.009687,
-0.026049,
-0.033846,
0.026290,
-0.027455,
0.024281,
-0.011703,
-0.036248,
-0.024830,
-0.006444,
0.006741,
0.000316,
-0.006770,
0.017676,
-0.041917,
-0.018690,
-0.004899,
0.024298,
-0.015261,
-0.053549,
-0.061438,
-0.011314,
0.019327,
-0.043472,
0.023301,
0.024909,
-0.009846,
-0.001667,
-0.019734,
-0.017625,
-0.022026,
0.028058,
0.017779,
-0.039490,
-0.012599,
-0.016195,
-0.030286,
0.015585,
-0.033599,
0.022195,
-0.030204,
-0.016098,
-0.002802,
-0.013189,
0.020842,
0.006969,
-0.033359,
-0.041183,
0.021914,
0.017075,
0.014445,
-0.032117,
-0.004879,
0.021871,
0.004343,
0.011137,
0.017603,
-0.031373,
-0.005339,
-0.036943,
0.015684,
0.000632,
-0.061003,
-0.058791,
-0.020508,
0.029029,
0.010779,
-0.006727,
0.024634,
-0.039691,
-0.032959,
-0.033935,
-0.049946,
-0.008956,
-0.005206,
-0.045073,
-0.034559,
-0.001427,
-0.021115,
-0.031812,
-0.052565,
-0.019812,
-0.010823,
-0.031403,
-0.010632,
0.000010,
-0.011770,
0.020274,
-0.040288,
-0.019203,
-0.007521,
0.006377,
-0.012992,
0.010540,
0.002248,
-0.023636,
0.010815,
0.024242,
-0.002777,
-0.026630,
0.030809,
-0.024939,
-0.041256,
0.008408,
-0.050404,
0.016938,
-0.011565,
-0.027674,
-0.033346,
0.011693,
0.013500,
-0.003018,
-0.003834,
0.002481,
-0.022311,
-0.016863,
-0.047154,
-0.044648,
-0.035808,
-0.028593,
-0.017473,
0.001861,
-0.020160,
0.024441,
0.011478,
0.004724,
-0.017489,
-0.015364,
-0.037645,
0.015316,
0.024578,
-0.030690,
-0.028880,
-0.052245,
-0.010294,
0.013467,
0.002898,
0.000668,
-0.026528,
-0.035496,
0.011994,
-0.020765,
-0.032979,
-0.024854,
-0.029053,
-0.009455,
0.022998,
-0.010482,
0.003789,
0.012239,
-0.005680,
-0.002376,
-0.002101,
0.007164,
0.000503,
-0.010169,
-0.020443,
0.006193,
0.011651,
-0.003232,
-0.009039,
-0.010003,
-0.026012,
0.026340,
-0.010866,
0.039506,
-0.006307,
0.005706,
-0.016016,
0.001385,
0.029908,
0.008730,
0.007340,
-0.001801,
-0.004284,
-0.025209,
-0.021411,
-0.026060,
0.033433,
-0.042288,
-0.011841,
-0.014264,
0.002716,
0.018525,
-0.008068,
-0.009309,
-0.022390,
0.012235,
-0.041339,
-0.047444,
-0.051911,
-0.020511,
-0.019316,
0.020703,
-0.066539,
-0.003653,
-0.022923,
-0.028649,
-0.022240,
-0.027309,
-0.058495,
-0.025685,
-0.011033,
-0.048758,
-0.018345,
-0.011815,
-0.008299,
-0.009423,
-0.025493,
0.004503,
-0.004593,
-0.029078,
-0.010345,
-0.040978,
-0.026444,
-0.002795,
-0.015123,
-0.040729,
0.007542,
-0.004942,
-0.006889,
-0.005287,
0.025771,
0.015070,
0.026587,
-0.000520,
-0.018686,
0.003572,
0.001194,
0.004034,
0.013711,
-0.025829,
0.020154,
-0.021300,
-0.012201,
0.001702,
0.002863,
0.001287,
-0.032763,
-0.003083,
-0.001622,
-0.044151,
-0.043226,
0.003825,
-0.016983,
-0.024656,
-0.021125,
-0.005542,
-0.040095,
0.021400,
-0.005760,
-0.010447,
-0.007657,
-0.024744,
0.008715,
-0.010325,
0.025689,
-0.005193,
-0.016122,
0.019978,
-0.014342,
0.012561,
-0.010075,
-0.037350,
-0.056895,
-0.019165,
-0.001119,
-0.005530,
-0.008992,
-0.045042,
-0.063446,
-0.000050,
-0.039260,
-0.034919,
-0.040639,
0.003728,
-0.041965,
-0.010061,
0.009377,
-0.031103,
-0.004246,
-0.032595,
-0.009464,
-0.029103,
-0.001766,
-0.027957,
-0.024533,
-0.026779,
0.013135,
-0.011444,
-0.004843,
-0.028631,
-0.068566,
-0.054328,
-0.006577,
-0.036196,
0.018147,
-0.029784,
0.010588,
-0.017884,
-0.010473,
-0.054726,
-0.013283,
-0.027563,
0.002888,
0.008600,
-0.047481,
0.007324,
0.002204,
-0.041053,
-0.028956,
0.029911,
0.030152,
-0.008120,
0.027180,
0.013467,
0.028893,
0.020266,
0.013452,
0.009616,
-0.037291,
0.013509,
-0.005796,
-0.007042,
-0.016602,
-0.011104,
-0.062964,
0.018683,
-0.030567,
-0.044811,
-0.012556,
-0.054851,
-0.039919,
-0.000382,
0.014651,
-0.042856,
0.015562,
-0.008432,
-0.010939,
-0.009877,
-0.034325,
-0.010574,
-0.005715,
-0.064975,
-0.024201,
0.000601,
-0.006915,
-0.005182,
-0.061015,
-0.030768,
-0.050129,
-0.030563,
-0.059421,
-0.010098,
-0.043032,
-0.009192,
-0.010651,
-0.064500,
-0.055306,
-0.044955,
-0.001501,
-0.043826,
-0.009746,
0.024552,
0.028676,
0.006023,
-0.032130,
-0.007039,
0.019645,
0.025860,
0.017260,
-0.012468,
-0.004337,
-0.012513,
0.010694,
-0.040584,
-0.017222,
-0.031367,
-0.013671,
-0.008881,
0.002457,
-0.009456,
0.039539,
-0.011083,
0.028757,
-0.039226,
-0.026955,
-0.051151,
-0.000789,
0.005639,
-0.017594,
-0.039663,
0.000533,
0.001023,
0.003461,
-0.034597,
-0.018289,
-0.014298,
-0.003526,
-0.020471,
-0.008694,
-0.012080,
0.010276,
-0.021365,
0.012284,
-0.035882,
-0.041622,
-0.018057,
-0.009696,
-0.043101,
-0.033440,
-0.046605,
-0.009996,
-0.058138,
-0.037284,
-0.032826,
0.003944,
-0.036223,
-0.019534,
-0.014643,
-0.059180,
0.027003,
-0.026607,
-0.043999,
-0.013010,
-0.016621,
-0.049422,
-0.035496,
-0.000482,
-0.038458,
0.015744,
0.014694,
0.022092,
-0.038727,
0.004772,
0.008317,
-0.038768,
-0.036426,
0.016682,
-0.007342,
0.000237,
0.025749,
-0.047694,
-0.019535,
0.004867,
-0.008441,
-0.018355,
-0.008313,
0.003033,
0.020126,
-0.042394,
-0.005066,
-0.042174,
-0.011400,
-0.000431,
-0.046531,
0.011329,
-0.022678,
-0.034243,
0.002484,
-0.004681,
-0.011269,
-0.016376,
0.018715,
-0.005181,
0.021218,
-0.001450,
-0.008597,
-0.024528,
-0.027930,
0.001398,
0.015423,
-0.024406,
0.000297,
-0.031834,
0.011262,
-0.024224,
0.002237,
-0.001649,
0.020524,
-0.000055,
-0.004068,
0.035095,
0.011165,
0.012953,
-0.011451,
-0.017208,
-0.066015,
-0.054222,
-0.023138,
-0.011217,
-0.012661,
-0.035812,
-0.030366,
-0.031120,
-0.006162,
-0.042397,
-0.033202,
-0.030826,
-0.035556,
0.013488,
0.020663,
-0.027380,
0.011951,
0.023875,
0.012928,
0.011644,
0.004936,
-0.041868,
0.012000,
0.017204,
-0.000996,
0.026578,
-0.026846,
0.009943,
-0.012725,
0.012005,
-0.007566,
-0.042531,
0.006995,
0.023073,
-0.028327,
0.003507,
0.013438,
0.023774,
0.008941,
-0.021685,
0.000918,
-0.042435,
0.026141,
-0.034519,
0.025343,
-0.018258,
-0.056271,
0.008163,
0.003384,
-0.017701,
-0.006182,
-0.014238,
-0.035196,
-0.015116,
0.004514,
0.017579,
0.001633,
-0.002509,
-0.015041,
0.027707,
-0.017968,
-0.023186,
-0.043845,
-0.012502,
-0.025575,
-0.067933,
-0.007202,
-0.053478,
-0.009941,
-0.033078,
-0.044137,
-0.022165,
-0.025268,
-0.046375,
-0.046283,
-0.044992,
-0.034753,
-0.067282,
-0.058152,
-0.021292,
-0.005168,
-0.041742,
-0.002141,
-0.024378,
-0.013205,
-0.018658,
0.003833,
-0.013727,
-0.006581,
-0.046436,
-0.009646,
0.002345,
0.010125,
0.008019,
0.009234,
-0.044570,
-0.016926,
-0.016288,
-0.067999,
0.003610,
0.013754,
-0.052375,
-0.009478,
-0.050642,
-0.018906,
-0.029881,
0.014418,
-0.012323,
-0.025358,
0.004310,
0.002228,
0.018895,
0.008991,
-0.037722,
-0.027825,
0.005089,
-0.000787,
-0.038609,
0.002136,
-0.020753,
-0.032774,
0.018363,
0.006216,
-0.034215,
-0.014788,
-0.039790,
-0.037714,
-0.008581,
-0.038727,
-0.052201,
-0.042179,
-0.037420,
-0.033033,
-0.017565,
-0.013352,
-0.004198,
-0.029524,
-0.006885,
-0.047630,
-0.007294,
-0.011019,
-0.048727,
-0.007393,
-0.018538,
-0.033386,
0.028255,
0.018969,
-0.022634,
-0.022593,
0.023898,
-0.003501,
0.024072,
0.000946,
0.033246,
0.004750,
0.000390,
0.027431,
0.022843,
0.007222,
0.026891,
0.008980,
0.032519,
-0.015847,
0.029389,
0.036834,
-0.011393,
-0.017696,
0.026948,
0.026820,
-0.016173,
-0.025306,
-0.031462,
0.024568,
0.025579,
0.025064,
0.022292,
-0.066006,
-0.028492,
-0.006126,
-0.002300,
-0.008572,
-0.024781,
-0.056809,
-0.045608,
-0.000074,
0.023805,
-0.008476,
-0.055320,
-0.067659,
-0.010753,
-0.041451,
-0.046075,
-0.030538,
-0.033461,
-0.028431,
-0.050221,
-0.040624,
-0.030068,
-0.030579,
-0.040670,
-0.014188,
-0.027049,
-0.024565,
-0.030284,
-0.040240,
-0.026269,
-0.048695,
-0.047694,
-0.064829,
-0.028568,
0.012584,
0.019364,
-0.008720,
-0.024534,
0.016318,
-0.014025,
-0.021235,
-0.023447,
-0.020281,
-0.030991,
0.007071,
0.025862,
-0.035110,
-0.015178,
-0.027755,
0.011616,
-0.038919,
0.031197,
0.018533,
0.023743,
-0.027438,
0.022413,
-0.019990,
-0.034215,
0.023584,
0.028558,
0.014406,
0.025487,
-0.020967,
0.002232,
0.040807,
-0.029569,
0.003783,
0.000071,
-0.019499,
0.026082,
0.011208,
-0.002924,
-0.005662,
-0.032841,
-0.004004,
0.018736,
-0.041813,
-0.029756,
-0.017387,
-0.026206,
-0.001234,
0.007502,
0.016981,
-0.035490,
-0.022990,
-0.011705,
-0.011764,
-0.028337,
-0.010735,
-0.037849,
-0.008909,
0.007345,
-0.006860,
0.000092,
-0.009430,
-0.010679,
0.022605,
0.001704,
-0.019190,
-0.063659,
0.008439,
0.033014,
0.045179,
0.100670,
-0.192200,
-0.085988,
-0.203590,
-0.076261,
0.030328,
-0.174350,
-0.176160,
0.009602,
-0.025131,
-0.033852,
-0.005697,
0.060778,
0.047377,
0.059225,
0.118750,
0.048489,
0.195830,
0.147290,
0.142370,
0.193250,
0.014861,
-0.006847,
0.002856,
0.019538,
-0.007313,
-0.024975,
-0.013595,
0.043629,
0.014251,
-0.018735,
-0.011046,
0.041406,
0.032985,
-0.006278,
-0.007407,
-0.020489,
-0.019340,
0.027961,
0.037525,
0.033084,
0.017912,
0.026319,
0.021329,
-0.004133,
-0.051931,
-0.201210,
-0.115950,
-0.048811,
-0.214290,
-0.178960,
-0.083009,
0.081857,
-0.054319,
-0.057524,
-0.160000,
0.009219,
0.049209,
0.155940,
0.047048,
0.007665,
0.110210,
0.080021,
0.169450,
0.039441,
0.194290,
0.197900,
0.193320,
0.085593,
0.002998,
0.139110,
0.055651,
0.039102,
0.028197,
0.041825,
-0.074324,
-0.000941,
-0.013834,
0.018654,
0.003789,
0.028343,
0.072082,
0.065459,
0.002451,
-0.001026,
-0.016994,
0.057101,
0.035659,
0.065832,
0.050201,
0.003364,
-0.063135,
-0.002199,
0.042737,
0.029945,
0.030734,
0.106540,
-0.026893,
-0.059920,
-0.087260,
-0.002645,
-0.060155,
-0.062329,
-0.038402,
-0.090602,
0.017793,
0.056677,
-0.019348,
-0.087240,
-0.138960,
0.050998,
0.037789,
-0.113290,
-0.037516,
-0.036880,
0.091939,
-0.009639,
0.024100,
-0.008567,
-0.029208,
0.013727,
0.157150,
-0.040926,
0.011343,
0.095792,
0.091410,
-0.009846,
0.051342,
0.038461,
0.026780,
0.093521,
0.001867,
0.005703,
0.088575,
0.049206,
0.019188,
0.010466,
0.108080,
0.117470,
0.135220,
0.127580,
-0.065238,
0.084468,
0.249010,
0.189990,
0.155510,
0.146860,
0.015763,
-0.018012,
-0.005690,
0.168340,
0.050108,
-0.032772,
-0.081539,
-0.073620,
-0.008310,
0.084943,
0.002781,
-0.067289,
-0.071683,
-0.034824,
-0.039194,
-0.021380,
-0.033870,
-0.071256,
-0.036531,
-0.195230,
-0.077045,
-0.029296,
-0.141880,
-0.074454,
-0.016416,
-0.027993,
-0.031426,
-0.066980,
0.042108,
-0.015058,
0.117480,
0.017042,
-0.030342,
0.031354,
0.037799,
0.019131,
-0.003558,
-0.030478,
0.021038,
0.011861,
-0.026535,
-0.113570,
-0.025361,
0.024055,
-0.012278,
-0.010183,
0.070113,
0.082301,
0.093914,
0.174280,
0.037089,
0.107740,
0.079109,
-0.145370,
0.031787,
0.052626,
0.078435,
-0.024214,
-0.051565,
0.053091,
0.061643,
-0.036037,
0.001198,
-0.054863,
0.020906,
0.073844,
-0.115780,
-0.024656,
-0.135980,
0.034354,
-0.040742,
-0.099196,
-0.031020,
-0.092378,
-0.096288,
-0.107160,
-0.061695,
0.042385,
0.047785,
-0.020825,
-0.025073,
0.035500,
0.036599,
0.012844,
0.092810,
0.058130,
0.126240,
0.154540,
0.058233,
0.067757,
0.119110,
0.172760,
0.131950,
0.014607,
0.027171,
0.065052,
0.087517,
0.064414,
0.029802,
-0.005063,
-0.047193,
-0.056592,
-0.088455,
0.014135,
-0.071783,
-0.020229,
-0.118460,
-0.049993,
-0.050793,
0.011520,
0.032624,
-0.024636,
0.056381,
0.035772,
0.067511,
-0.031864,
0.076575,
0.129450,
0.102990,
0.084346,
0.026108,
0.099697,
0.024255,
0.148310,
0.047797,
-0.101230,
-0.138080,
-0.181790,
-0.071294,
-0.038921,
-0.079818,
-0.220070,
-0.171820,
-0.179610,
0.082428,
-0.074543,
-0.069606,
-0.209670,
-0.129840,
0.015131,
0.059200,
0.019720,
0.015213,
-0.129380,
0.039261,
0.191680,
0.176310,
0.049446,
-0.095520,
-0.036281,
0.087334,
0.027873,
-0.002788,
-0.085776,
0.139780,
0.114150,
0.048085,
-0.042558,
-0.010264,
0.103400,
0.093419,
-0.016605,
0.015765,
-0.016706,
0.067114,
0.041314,
0.054013,
0.018304,
-0.068866,
0.088211,
-0.047508,
-0.085531,
-0.101210,
-0.147180,
0.164850,
0.036393,
0.087486,
0.119710,
0.099608,
-0.072624,
-0.069672,
-0.025304,
-0.008837,
-0.156510,
-0.046500,
-0.047059,
-0.047030,
-0.131340,
-0.026868,
-0.093738,
-0.194250,
-0.163970,
0.011264,
-0.069670,
0.078142,
0.056711,
-0.075580,
-0.091651,
-0.099252,
0.066365,
-0.016002,
-0.096800,
0.014480,
-0.046938,
0.006975,
-0.012869,
0.017208,
0.084274,
0.030422,
-0.006469,
-0.161230,
-0.004719,
-0.076547,
0.020037,
-0.014971,
-0.285330,
-0.072555,
-0.099868,
-0.001925,
-0.106420,
-0.118250,
-0.076627,
-0.128870,
0.148860,
-0.071931,
-0.086866,
-0.125960,
-0.188310,
-0.171490,
-0.114070,
-0.056073,
-0.115360,
-0.061978,
-0.112690,
-0.036883,
0.041046,
-0.008434,
-0.067031,
-0.147230,
-0.115230,
-0.074314,
-0.054551,
-0.050875,
-0.132640,
-0.156070,
-0.119430,
-0.073092,
-0.027576,
-0.080085,
0.001822,
-0.033476,
0.020096,
0.022257,
-0.024282,
-0.009892,
0.014216,
0.034502,
-0.012436,
-0.003276,
0.021226,
0.015046,
-0.029020,
-0.013457,
-0.030609,
0.000386,
0.011838,
-0.039915,
0.001637,
-0.038811,
-0.018933,
-0.043566,
-0.028621,
-0.041581,
0.005665,
-0.050834,
-0.120280,
-0.054064,
0.060791,
-0.046126,
0.097852,
0.000967,
-0.087976,
0.055227,
-0.123980,
-0.041619,
0.115990,
0.005413,
0.017758,
0.005596,
0.049732,
0.074164,
0.118710,
0.078598,
0.027491,
0.073762,
-0.015544,
0.073280,
0.016185,
0.032422,
-0.019508,
0.109270,
0.135140,
0.081252,
0.070931,
-0.020313,
0.105910,
0.095799,
0.086830,
0.065910,
0.072555,
0.134510,
0.043119,
-0.013941,
-0.062836,
0.009564,
0.026163,
0.001455,
-0.012433,
-0.098381,
-0.057931,
-0.122290,
0.011497,
-0.018180,
-0.130480,
0.206120,
0.104450,
0.045607,
-0.027436,
0.171990,
0.054345,
0.058804,
0.072367,
0.117020,
0.102930,
0.024858,
0.007564,
-0.012409,
-0.055865,
0.006064,
0.049738,
-0.035117,
-0.020578,
0.010645,
-0.101380,
0.025271,
0.022160,
-0.026430,
0.023223,
-0.085082,
0.014563,
0.020516,
0.014635,
0.030773,
0.016761,
0.007516,
-0.025545,
-0.004319,
0.009670,
0.010454,
0.027827,
-0.002453,
0.033865,
-0.036557,
-0.034482,
-0.044584,
-0.019939,
0.031757,
-0.014232,
0.033772,
-0.000855,
-0.001784,
0.024214,
-0.011823,
0.005065,
0.162310,
0.065387,
0.074968,
-0.037298,
0.052210,
0.100780,
-0.016895,
-0.076692,
-0.017942,
-0.025021,
0.018490,
-0.017504,
-0.149700,
-0.124830,
-0.067950,
0.002856,
-0.103480,
-0.110420,
-0.113090,
-0.074725,
-0.126690,
-0.050056,
0.068764,
-0.099232,
-0.101220,
0.049386,
0.114150,
0.082319,
0.020095,
-0.078098,
0.017737,
0.118490,
0.167820,
0.036523,
0.073848,
-0.013184,
0.052348,
0.083904,
0.041053,
0.131600,
-0.038230,
0.066446,
0.046006,
0.038501,
0.051050,
-0.054989,
-0.008021,
-0.000410,
-0.014627,
-0.006660,
-0.020096,
0.007264,
0.007127,
0.004543,
0.061119,
0.039967,
0.010872,
-0.021280,
0.022220,
0.054561,
-0.018612,
-0.049939,
-0.052957,
-0.090288,
0.065710,
-0.069617,
0.004586,
-0.005724,
-0.009195,
0.088267,
-0.015046,
-0.051242,
-0.056688,
0.052033,
0.081591,
-0.073435,
-0.004179,
0.027379,
0.069187,
0.109430,
-0.035819,
0.043189,
-0.082281,
-0.044375,
0.062353,
0.048915,
-0.015795,
-0.052095,
0.040633,
0.068425,
0.090369,
0.013347,
0.006374,
-0.043130,
0.009408,
0.003579,
0.015676,
0.016775,
-0.054425,
-0.009556,
0.006587,
-0.118650,
-0.098129,
-0.083940,
0.030740,
0.108140,
-0.027161,
0.073528,
0.034434,
-0.046484,
0.144160,
0.135520,
0.059662,
-0.042018,
0.101090,
0.123110,
-0.033487,
-0.065205,
-0.107920,
0.029270,
0.083969,
0.039173,
0.035505,
-0.012622,
0.063519,
-0.123450,
-0.009748,
-0.047145,
-0.139160,
-0.143250,
-0.080603,
-0.091379,
-0.205330,
-0.157200,
-0.188070,
-0.089498,
-0.110570,
-0.003250,
-0.034673,
-0.108240,
0.049780,
-0.066427,
-0.104600,
-0.002944,
-0.075570,
0.029288,
0.012787,
0.036626,
-0.002113,
-0.030582,
-0.010554,
-0.003055,
-0.026131,
0.067674,
-0.000409,
-0.071152,
-0.038745,
-0.030075,
0.104270,
0.021706,
-0.035822,
-0.008341,
0.075454,
0.041707,
-0.018489,
-0.023613,
0.023099,
0.006296,
-0.018152,
-0.024885,
-0.012437,
0.066103,
0.016755,
0.006688,
-0.052936,
0.053955,
0.084938,
0.080625,
0.130230,
0.044263,
0.012553,
-0.005536,
-0.129780,
0.045554,
-0.037071,
0.014211,
0.044944,
-0.003290,
-0.079023,
0.043311,
0.184980,
0.122560,
0.132890,
0.015321,
0.057769,
0.176410,
0.144940,
0.095382,
0.021310,
-0.077289,
0.188720,
0.201450,
0.027926,
0.083668,
0.100760,
0.126160,
0.129270,
0.096883,
0.090027,
0.144000,
-0.043409,
-0.000142,
0.010981,
0.004318,
0.052730,
0.041975,
-0.037451,
-0.008713,
-0.083273,
0.065839,
0.018724,
0.065891,
-0.038996,
0.007839,
0.118630,
-0.012352,
-0.051799,
-0.059266,
-0.019436,
-0.045910,
0.019057,
0.024061,
0.001864,
-0.025335,
-0.011083,
0.007372,
-0.003446,
0.032072,
-0.003439,
-0.026726,
-0.046398,
-0.029339,
0.010156,
-0.013284,
0.003053,
-0.043102,
0.005315,
0.029813,
0.012320,
0.008006,
0.045834,
-0.007620,
0.071812,
0.090160,
0.125920,
0.027619,
-0.010582,
0.045347,
0.052005,
-0.062401,
-0.031323,
-0.048850,
-0.085190,
-0.018134,
0.002884,
-0.105730,
0.030531,
0.028930,
0.003873,
0.000879,
-0.021891,
-0.010352,
0.068739,
0.039601,
0.022310,
0.020838,
-0.001867,
-0.054002,
-0.048751,
0.003712,
-0.014047,
-0.011958,
-0.030692,
-0.039834,
-0.020284,
0.026295,
-0.002156,
-0.037345,
-0.027531,
-0.018129,
-0.011907,
0.008460,
-0.068911,
-0.063976,
-0.024778,
-0.015470,
-0.035657,
-0.005142,
-0.016754,
-0.039898,
-0.003228,
-0.031008,
0.026540,
-0.039180,
-0.022540,
0.005767,
-0.018683,
-0.012455,
0.026489,
-0.038981,
0.005507,
-0.010860,
-0.003268,
-0.024586,
-0.016791,
0.018184,
-0.019700,
-0.029792,
0.022071,
-0.026916,
0.021714,
-0.028546,
-0.011733,
-0.020550,
-0.023788,
0.026420,
-0.033335,
-0.000231,
-0.011523,
0.023349,
0.041258,
-0.001586,
-0.005993,
-0.000116,
0.010361,
0.028739,
-0.032510,
0.019299,
-0.007100,
-0.004139,
0.012415,
-0.037744,
0.000329,
-0.024642,
-0.059441,
-0.043391,
-0.030455,
-0.025418,
-0.053191,
-0.035457,
0.019383,
-0.002475,
0.024812,
0.026833,
0.015126,
0.024926,
0.016402,
-0.024872,
-0.038204,
-0.035108,
-0.036192,
0.000832,
0.017918,
-0.013834,
-0.012203,
0.014055,
-0.018193,
-0.010912,
0.022264,
-0.025413,
0.007834,
-0.031114,
-0.012186,
0.010865,
0.025497,
0.019351,
0.053450,
-0.008894,
0.010440,
-0.029816,
0.054963,
0.035946,
0.039524,
0.040688,
0.044639,
0.076306,
-0.021076,
0.004974,
0.023107,
0.021091,
-0.003225,
-0.014243,
-0.048805,
0.023841,
-0.003244,
0.035905,
0.000533,
0.026607,
0.019870,
0.015739,
0.050583,
0.054285,
0.013778,
-0.043382,
-0.032241,
0.048691,
-0.003458,
0.013160,
-0.039328,
-0.062152,
0.045892,
0.028815,
-0.062846,
-0.068835,
0.056619,
-0.006224,
0.044514,
0.002889,
-0.025419,
0.055711,
0.009076,
0.029059,
-0.025449,
-0.022488,
-0.039603,
0.028488,
-0.068694,
-0.016386,
-0.008104,
-0.033949,
-0.007169,
-0.008357,
-0.003289,
-0.065184,
-0.041890,
-0.019530,
-0.022278,
-0.029278,
-0.058374,
-0.025965,
0.014548,
-0.001683,
-0.033227,
-0.049958,
-0.021332,
-0.012060,
-0.043080,
-0.053183,
-0.023688,
-0.047463,
-0.020024,
-0.061726,
0.045476,
-0.035200,
-0.012405,
-0.025666,
-0.041117,
-0.018890,
-0.003364,
0.049210,
-0.040434,
-0.012157,
-0.023927,
0.006544,
-0.015224,
-0.045730,
-0.066752,
-0.026149,
-0.026175,
-0.011096,
0.000749,
-0.056086,
-0.005044,
-0.056137,
0.009976,
-0.005737,
0.001471,
-0.032245,
-0.064673,
-0.017042,
-0.015747,
-0.006404,
-0.015617,
-0.022461,
0.024290,
-0.008846,
-0.015871,
0.008059,
-0.011573,
-0.027499,
-0.043559,
-0.008038,
-0.038869,
-0.031989,
-0.022820,
-0.037537,
-0.056828,
-0.054054,
0.015932,
0.025313,
0.034004,
-0.037781,
-0.004850,
-0.005100,
-0.058485,
-0.010606,
-0.064712,
-0.015073,
-0.054333,
-0.032184,
0.004012,
0.037991,
0.040481,
0.058595,
0.012114,
0.060189,
0.074496,
0.031102,
0.005177,
-0.005818,
-0.009993,
-0.040856,
-0.017226,
-0.058368,
-0.028586,
-0.028660,
0.003069,
-0.019197,
-0.012038,
-0.035529,
-0.004143,
-0.046928,
-0.014582,
-0.050127,
0.013489,
-0.028740,
-0.059642,
0.011883,
-0.035539,
-0.001030,
-0.006651,
-0.058474,
0.028977,
0.049712,
0.036858,
-0.040795,
0.001620,
0.002270,
-0.021463,
-0.040763,
-0.022518,
-0.001787,
-0.050767,
-0.041806,
-0.004580,
-0.036505,
0.003870,
-0.047864,
-0.037862,
0.020403,
0.016822,
-0.023363,
-0.003340,
0.011803,
-0.030924,
-0.061936,
0.031737,
-0.031784,
-0.063415,
-0.010015,
-0.007525,
-0.014797,
-0.012766,
-0.059895,
-0.036049,
-0.041905,
-0.012172,
-0.026929,
-0.021449,
-0.059675,
0.000023,
-0.003557,
-0.057123,
0.011737,
-0.014702,
-0.058687,
-0.006870,
0.033044,
0.054087,
-0.050725,
-0.048755,
-0.044158,
-0.042445,
-0.026847,
-0.034442,
-0.023394,
-0.040343,
-0.046053,
-0.033787,
-0.020632,
-0.039303,
-0.006235,
-0.049490,
-0.022063,
-0.063190,
-0.047753,
-0.056628,
-0.010278,
-0.050533,
-0.018397,
-0.019517,
0.003645,
0.003261,
-0.063345,
-0.018292,
-0.003420,
-0.040715,
-0.031879,
-0.040928,
-0.052117,
-0.066910,
-0.038029,
-0.021944,
-0.009246,
-0.046857,
0.005699,
-0.021424,
-0.010391,
-0.025403,
-0.038838,
-0.002825,
-0.044139,
0.008025,
-0.029901,
-0.024844,
-0.056159,
-0.056708,
-0.005975,
-0.022704,
-0.043234,
0.024613,
-0.034834,
0.019932,
-0.042816,
-0.060539,
0.039852,
0.007166,
-0.006162,
-0.056104,
-0.023344,
-0.001195,
0.027389,
0.018055,
-0.044997,
-0.063991,
-0.003431,
-0.014435,
-0.029404,
-0.060420,
-0.007171,
-0.030501,
-0.000540,
-0.024791,
-0.031272,
-0.010676,
-0.039711,
-0.061073,
-0.040491,
0.001952,
-0.009929,
-0.019122,
-0.072668,
-0.006441,
-0.025717,
-0.064032,
-0.040429,
-0.015912,
0.003385,
0.016049,
-0.012059,
-0.036372,
-0.040611,
0.023454,
-0.032349,
0.009345,
0.027005,
-0.002482,
-0.027596,
-0.006236,
0.010066,
-0.034924,
0.009552,
-0.001058,
-0.018979,
0.014500,
-0.035070,
0.011896,
-0.028742,
-0.039855,
-0.018175,
-0.065801,
-0.012309,
-0.017189,
-0.016140,
-0.045379,
-0.023802,
-0.000714,
-0.026738,
0.008897,
-0.055751,
-0.068576,
-0.002898,
-0.043950,
-0.018073,
-0.045469,
-0.038341,
-0.033068,
-0.054009,
-0.009696,
-0.048081,
0.026899,
-0.022773,
-0.057795,
-0.018215,
-0.020118,
-0.057655,
-0.008773,
-0.002558,
0.012871,
-0.026842,
-0.016264,
-0.017069,
-0.000482,
0.002527,
-0.013381,
-0.019957,
-0.018618,
-0.044536,
0.007306,
0.057909,
-0.024012,
-0.014730,
-0.007803,
0.055972,
-0.001907,
-0.016898,
-0.037898,
-0.048332,
-0.064104,
0.057086,
-0.041990,
0.005687,
-0.023485,
-0.005597,
-0.005695,
-0.037647,
-0.042355,
-0.040975,
0.000223,
-0.068078,
-0.009933,
-0.042187,
-0.015181,
0.012194,
-0.045456,
-0.048079,
-0.008126,
-0.003067,
-0.049772,
-0.054995,
-0.045832,
-0.053008,
0.002396,
-0.020687,
-0.023620,
0.023117,
0.008837,
0.011420,
-0.033745,
-0.005451,
0.012184,
-0.031993,
-0.029347,
0.027118,
0.021693,
0.029914,
0.016702,
0.019830,
-0.006852,
0.025129,
-0.008524,
0.027558,
0.018528,
-0.009990,
-0.018019,
0.015096,
-0.029543,
-0.004302,
-0.028966,
-0.001088,
-0.005046,
-0.020571,
-0.037055,
-0.059305,
-0.071055,
-0.058443,
-0.015871,
-0.004200,
-0.059608,
-0.023915,
-0.028895,
-0.070885,
-0.069132,
-0.045379,
-0.062945,
-0.026742,
0.004861,
0.018697,
0.009583,
-0.027764,
0.044918,
0.014567,
-0.024706,
-0.016202,
-0.035744,
-0.041984,
-0.017882,
-0.005197,
-0.006807,
-0.049568,
-0.071745,
-0.054850,
-0.000160,
-0.007319,
-0.056088,
-0.045435,
-0.061944,
-0.070405,
-0.002133,
0.022447,
-0.024371,
-0.040403,
-0.057326,
-0.002325,
-0.012769,
0.001957,
-0.041157,
-0.031683,
-0.042902,
-0.070141,
-0.025630,
0.003286,
0.004616,
-0.043674,
-0.062014,
-0.053801,
-0.040408,
-0.014624,
-0.014200,
-0.066220,
-0.070792,
-0.052931,
-0.051434,
-0.047584,
-0.044784,
0.034144,
0.010436,
-0.033981,
-0.039205,
-0.049162,
-0.059008,
-0.033131,
-0.008998,
-0.046759,
0.002880,
0.046759,
-0.007068,
-0.041983,
-0.062874,
-0.052453,
-0.057588,
0.007166,
-0.003097,
-0.071264,
-0.032556,
0.031493,
0.003764,
0.003073,
-0.019683,
-0.003950,
0.015639,
0.073347,
0.002723,
-0.043065,
-0.003143,
0.010408,
-0.035735,
-0.049750,
-0.053200,
-0.039955,
0.023699,
-0.009654,
-0.014721,
0.008144,
-0.036107,
-0.031955,
-0.039344,
0.037069,
0.027730,
-0.072537,
-0.017088,
-0.019231,
0.001613,
-0.000250,
0.018685,
0.042456,
-0.055771,
-0.036201,
-0.018100,
-0.017549,
-0.007852,
0.040319,
0.008515,
-0.034884,
-0.072077,
-0.052381,
-0.024615,
-0.030655,
-0.068749,
-0.007941,
-0.011386,
-0.030220,
-0.009730,
-0.027881,
-0.049351,
-0.061834,
-0.005690,
0.000882,
-0.036263,
-0.012613,
-0.065730,
-0.059159,
-0.004778,
-0.014829,
0.011850,
-0.039866,
-0.046928,
-0.065655,
-0.054069,
-0.024996,
-0.013218,
0.011524,
-0.018557,
-0.009035,
-0.009400,
0.014253,
0.029067,
0.023443,
0.006508,
-0.027841,
0.020667,
0.011458,
0.011454,
0.028365,
0.019806,
0.025998,
-0.004181,
-0.006712,
-0.031367,
0.016586,
-0.034259,
-0.014743,
-0.025454,
-0.029540,
-0.014617,
-0.040167,
-0.056600,
-0.011564,
-0.007191,
-0.012676,
0.038037,
-0.031862,
-0.027055,
-0.029810,
-0.036244,
0.004813,
0.006821,
0.039881,
0.034707,
-0.022876,
-0.029767,
-0.048990,
0.011691,
0.030579,
-0.002696,
-0.064561,
-0.071731,
0.016438,
-0.033730,
-0.036355,
-0.019430,
-0.012537,
-0.033254,
-0.052286,
-0.009806,
0.052062,
-0.010359,
-0.024781,
-0.042525,
-0.071638,
-0.012709,
0.036070,
-0.060562,
0.021666,
-0.070939,
0.023754,
-0.042069,
-0.039333,
0.001536,
-0.030489,
-0.002983,
-0.030786,
-0.049216,
-0.052492,
-0.002957,
-0.032794,
-0.009222,
-0.013756,
-0.030059,
0.001917,
-0.013217,
0.003600,
-0.025457,
0.010144,
-0.011217,
0.017417,
-0.041272,
0.014428,
-0.004519,
-0.028863,
0.029023,
-0.034173,
0.010289,
-0.002254,
-0.028099,
-0.027515,
0.020532,
-0.003963,
-0.037921,
0.005922,
-0.012521,
-0.031516,
0.008784,
0.001554,
0.016055,
-0.037862,
-0.023430,
0.021279,
-0.037509,
-0.029625,
-0.059694,
-0.030261,
0.043211,
-0.051945,
-0.057019,
-0.028816,
-0.022418,
-0.005513,
-0.028661,
-0.037981,
-0.007362,
-0.011562,
-0.022691,
-0.035637,
-0.071982,
0.047496,
-0.079517,
-0.059844,
-0.081522,
-0.054319,
-0.078448,
0.020660,
-0.042409,
-0.064492,
-0.017161,
0.025238,
-0.079937,
-0.161890,
-0.070885,
0.007523,
0.094656,
-0.001775,
-0.073425,
0.016973,
0.061332,
0.206330,
0.122570,
-0.139490,
-0.113170,
0.038952,
-0.021272,
0.018334,
0.030268,
0.003508,
0.041508,
0.000494,
-0.029766,
-0.004778,
0.040480,
-0.018747,
-0.034381,
-0.028155,
0.040422,
0.006455,
-0.008337,
0.016474,
0.033968,
0.023374,
-0.029313,
0.005401,
-0.021214,
0.030162,
0.037439,
-0.019646,
0.018337,
-0.097594,
-0.071514,
-0.087580,
-0.136510,
-0.133680,
-0.042831,
-0.020646,
0.056663,
0.033046,
-0.032642,
-0.126240,
-0.044818,
-0.014271,
0.045422,
-0.040270,
0.017961,
0.030414,
0.024887,
-0.021289,
-0.003991,
-0.018616,
-0.038818,
0.008514,
-0.018799,
-0.085070,
0.017599,
-0.031034,
0.054628,
-0.007231,
-0.045607,
-0.001468,
-0.014643,
0.025523,
0.025465,
-0.047966,
-0.021939,
0.002477,
-0.012911,
-0.040066,
-0.040196,
-0.037133,
0.029959,
0.023991,
-0.022541,
0.018136,
-0.047210,
0.001648,
-0.006492,
-0.009154,
0.032362,
0.119170,
0.035608,
0.027442,
-0.009496,
0.032222,
0.055082,
0.074946,
0.061683,
-0.007730,
-0.010908,
-0.016723,
0.036281,
0.072422,
0.036688,
0.003107,
-0.006254,
0.027871,
0.084451,
0.096869,
0.099255,
0.149170,
0.073302,
0.112010,
0.138130,
0.080789,
0.156000,
0.079424,
0.097069,
0.124240,
0.109970,
0.088851,
-0.031389,
-0.105280,
-0.040065,
0.058866,
0.146200,
0.057202,
0.025175,
0.064239,
0.197820,
0.141500,
0.021736,
-0.061648,
-0.003111,
0.122740,
0.017983,
-0.138680,
-0.132120,
-0.095909,
-0.051827,
0.128720,
0.016503,
0.001381,
0.032260,
0.133660,
0.129120,
0.057893,
0.014865,
0.015692,
0.078418,
0.088030,
-0.016918,
-0.019262,
0.008965,
0.046145,
-0.008367,
-0.045880,
-0.010307,
0.037166,
0.070392,
0.040223,
0.004971,
-0.047715,
0.008998,
-0.067878,
0.010313,
0.071079,
0.170610,
0.079961,
0.121410,
-0.060595,
0.023316,
-0.090704,
-0.235700,
0.003646,
-0.033758,
0.078746,
0.014240,
0.035518,
0.147180,
0.008656,
0.127220,
0.067274,
0.105940,
0.193380,
-0.125920,
-0.043738,
0.039867,
0.055304,
0.124890,
-0.193080,
0.068419,
0.202020,
0.183130,
0.120610,
-0.148280,
0.114160,
0.011985,
0.051150,
0.139660,
0.037142,
0.056076,
0.003953,
-0.059828,
0.138800,
-0.054183,
-0.037451,
0.062763,
-0.005284,
0.071951,
0.029203,
-0.023420,
0.016079,
0.048984,
0.169290,
0.188730,
-0.008626,
-0.113240,
-0.009673,
0.182260,
0.115770,
-0.054636,
0.006838,
0.005204,
0.041798,
-0.026660,
0.000646,
0.021068,
0.015667,
0.060461,
0.038542,
0.037410,
-0.029729,
-0.002789,
0.079188,
0.116470,
0.173470,
0.072435,
0.107220,
0.160160,
-0.006846,
-0.023194,
0.016432,
0.102950,
0.110930,
-0.012624,
0.019302,
-0.061297,
0.041932,
0.119840,
0.028383,
0.005032,
-0.052294,
0.122540,
0.174700,
-0.084503,
-0.068375,
-0.002682,
0.054392,
0.153570,
-0.033354,
0.039728,
0.070132,
0.120700,
0.255550,
-0.070080,
-0.130100,
0.034667,
-0.008708,
0.130860,
-0.118510,
-0.100660,
0.071310,
-0.019082,
0.100720,
0.039770,
0.071974,
0.107450,
0.029489,
0.079580,
0.097366,
0.015826,
0.095357,
0.022056,
0.175520,
0.176380,
0.121650,
0.020228,
0.141010,
0.100750,
-0.256220,
-0.110010,
-0.037771,
-0.054946,
-0.101620,
-0.029221,
0.146580,
0.077338,
0.127960,
0.096919,
-0.056689,
0.136040,
0.089737,
0.101950,
0.176810,
0.102820,
0.088948,
-0.009099,
-0.010550,
0.015109,
-0.175520,
-0.123690,
-0.250020,
-0.117280,
-0.235590,
-0.095530,
-0.148550,
-0.008162,
0.045063,
-0.085897,
-0.099974,
-0.063231,
0.028097,
-0.009756,
-0.074318,
-0.077506,
-0.136060,
-0.042487,
-0.092103,
-0.030549,
0.030815,
-0.066414,
-0.037319,
-0.056253,
-0.007338,
0.136220,
0.011489,
-0.022373,
-0.100540,
-0.107570,
-0.070252,
0.050474,
0.118340,
0.064152,
-0.006896,
-0.071250,
-0.034748,
0.001954,
0.015794,
-0.025689,
-0.035987,
-0.056538,
-0.019409,
-0.050672,
-0.045656,
-0.040527,
0.028684,
0.108710,
0.013391,
0.102720,
-0.164810,
-0.154590,
-0.089857,
-0.067085,
0.035074,
-0.019850,
0.038428,
-0.034364,
-0.027727,
-0.112180,
0.008097,
0.012781,
-0.044999,
-0.095836,
-0.152950,
0.031529,
0.077807,
0.009035,
-0.094660,
-0.128170,
-0.007455,
0.091579,
0.070117,
0.025806,
-0.164430,
-0.098977,
-0.036471,
0.001305,
-0.051142,
-0.242900,
0.021317,
-0.001337,
-0.030903,
0.050416,
-0.021925,
-0.037120,
-0.019618,
0.017068,
0.005261,
-0.061755,
-0.008940,
-0.043814,
0.000011,
-0.034799,
-0.041027,
-0.021039,
-0.044103,
-0.025656,
-0.037829,
-0.047133,
-0.022563,
-0.023283,
-0.003369,
-0.011712,
-0.062782,
-0.089416,
-0.100240,
-0.102110,
-0.012958,
0.002007,
-0.139750,
0.021352,
-0.001363,
0.041834,
0.004697,
-0.110550,
-0.107840,
-0.195010,
-0.215630,
-0.143890,
-0.029570,
-0.120460,
-0.116530,
-0.137700,
-0.039866,
-0.332260,
-0.226980,
-0.210830,
-0.156470,
-0.129060,
-0.199440,
-0.093153,
-0.065869,
0.103790,
-0.045796,
-0.127150,
0.060494,
0.059363,
0.146590,
-0.009380,
-0.039745,
-0.061988,
0.052733,
0.084386,
-0.026682,
-0.141080,
-0.165180,
-0.163050,
-0.113840,
-0.099875,
-0.132640,
-0.088082,
-0.090531,
-0.132890,
-0.195470,
0.040920,
0.103770,
-0.030482,
0.061067,
-0.025781,
0.061050,
0.024994,
-0.053600,
0.018503,
-0.085014,
0.052257,
-0.094724,
-0.123340,
-0.078840,
-0.113780,
-0.010799,
-0.061735,
-0.076071,
-0.064899,
-0.012618,
-0.030207,
-0.010132,
-0.009978,
-0.101400,
0.000894,
-0.019298,
-0.022945,
0.000741,
-0.011249,
-0.009064,
0.007070,
0.025981,
-0.030451,
-0.017172,
0.028785,
-0.015587,
0.019166,
-0.006394,
0.020849,
0.038904,
0.005810,
0.007534,
-0.025346,
0.006131,
0.024653,
-0.010182,
0.032717,
0.007546,
-0.011979,
-0.019279,
0.095416,
0.017215,
-0.072461,
-0.076129,
-0.058527,
0.220650,
0.104670,
0.041732,
0.027296,
-0.019346,
0.267880,
0.028463,
-0.043920,
-0.039730,
0.118110,
0.308580,
-0.053808,
-0.007079,
-0.024670,
-0.012990,
0.024745,
-0.000679,
-0.063559,
-0.084303,
-0.069784,
-0.000642,
0.041683,
0.150030,
0.124900,
-0.085369,
-0.006629,
0.031750,
0.148230,
0.031319,
-0.096236,
0.019635,
0.047775,
0.004044,
-0.032224,
-0.037678,
-0.029357,
-0.067767,
0.030604,
0.014830,
-0.071888,
-0.018606,
-0.109230,
-0.102170,
-0.071247,
-0.070651,
-0.158950,
-0.167570,
-0.103620,
-0.084481,
-0.034066,
-0.136460,
-0.129120,
-0.187570,
-0.048279,
-0.006988,
-0.181900,
-0.090969,
-0.046003,
-0.089989,
-0.095994,
-0.201030,
-0.092511,
-0.038826,
-0.007933,
-0.086539,
-0.062026,
-0.031666,
0.048379,
0.024400,
0.005688,
0.070598,
0.056055,
-0.038461,
-0.028980,
0.076144,
-0.050933,
0.015894,
0.008182,
-0.072088,
0.022648,
-0.079238,
-0.016140,
0.036268,
-0.015594,
0.026364,
-0.067773,
-0.013469,
-0.120300,
-0.059152,
-0.021164,
0.136910,
0.008009,
-0.036101,
-0.005393,
0.019137,
-0.115300,
-0.042968,
-0.041417,
-0.085251,
-0.025035,
0.058067,
0.060753,
0.041232,
0.132470,
0.029092,
0.002038,
-0.010793,
0.083617,
-0.099641,
-0.074068,
0.008570,
0.001004,
0.016289,
-0.142490,
0.021179,
0.007505,
-0.053602,
-0.017830,
0.045973,
0.151900,
-0.256460,
-0.138300,
-0.000154,
0.038657,
-0.095532,
-0.062738,
-0.044950,
0.026306,
0.060698,
-0.014204,
-0.067160,
0.090968,
0.081281,
0.010268,
0.032349,
-0.071673,
0.035095,
0.072566,
0.048226,
0.081567,
-0.009946,
0.017096,
0.023588,
0.003905,
-0.050476,
0.007287,
0.031552,
-0.050878,
-0.040349,
0.019441,
-0.037441,
-0.038679,
-0.002054,
-0.004017,
-0.026462,
-0.038123,
0.031761,
-0.003854,
-0.005440,
0.041015,
0.008443,
-0.015578,
-0.072890,
-0.049414,
0.038519,
0.014439,
-0.039338,
-0.019624,
-0.028065,
0.013886,
-0.188330,
-0.095978,
-0.073106,
-0.104500,
-0.037501,
-0.126990,
-0.180310,
-0.097421,
-0.004635,
0.017414,
-0.080276,
-0.058362,
0.063166,
-0.033555,
-0.031053,
0.053815,
0.116710,
0.145090,
0.046631,
0.113800,
0.124720,
0.062423,
0.032473,
0.087890,
0.063551,
-0.041534,
-0.018392,
0.041557,
0.112420,
0.015785,
-0.110520,
-0.017612,
0.092279,
0.071165,
-0.045387,
-0.073745,
-0.000157,
0.006624,
0.038655,
-0.007370,
-0.068247,
0.055890,
-0.000222,
0.064604,
0.021000,
-0.079512,
-0.012448,
0.013127,
0.085495,
0.163420,
0.030606,
-0.020244,
0.002440,
-0.047157,
-0.003312,
0.003884,
0.036824,
0.046327,
0.031901,
0.023346,
-0.016654,
0.020628,
-0.002674,
-0.021123,
-0.004411,
0.006316,
0.054057,
-0.011465,
-0.002092,
0.023951,
-0.039986,
0.022015,
0.005025,
0.005085,
-0.035590,
0.040574,
-0.092440,
-0.027165,
0.005485,
0.042931,
0.001700,
-0.081342,
-0.072970,
0.016478,
0.013923,
-0.075260,
-0.018928,
-0.023065,
-0.097138,
-0.008126,
-0.007245,
-0.034983,
-0.016425,
-0.124550,
0.064748,
-0.049339,
-0.084461,
-0.042873,
-0.065330,
0.029353,
0.023489,
-0.041528,
-0.004045,
0.006268,
-0.032760,
-0.020010,
0.006081,
0.001302,
0.004613,
-0.020299,
-0.013702,
0.017935,
-0.016874,
-0.002079,
0.013530,
0.006321,
0.012642,
-0.037246,
-0.017224,
-0.027812,
-0.027338,
-0.000511,
-0.025027,
-0.018210,
0.012788,
-0.022060,
0.010000,
-0.009837,
0.021785,
-0.024633,
0.012490,
0.007451,
-0.019132,
-0.032952,
0.000161,
-0.008653,
0.009676,
0.034885,
0.005881,
0.031028,
0.018036,
0.023540,
0.024919,
-0.006739,
-0.025752,
-0.007436,
-0.006003,
-0.029723,
0.012410,
0.024227,
0.026191,
-0.026438,
-0.019534,
-0.027695,
0.026715,
0.011374,
-0.023460,
-0.013721,
-0.041767,
-0.007647,
0.026964,
-0.025885,
0.025826,
-0.011825,
-0.000448,
-0.015238,
0.020190,
-0.011012,
-0.030631,
-0.002092,
0.033499,
-0.011893,
-0.030678,
-0.019576,
0.000051,
-0.027984,
0.024866,
-0.022983,
-0.006992,
-0.016501,
0.030663,
0.024960,
-0.006727,
-0.026786,
-0.016082,
-0.013359,
-0.028988,
-0.009380,
-0.004785,
-0.015322,
-0.029329,
0.019431,
-0.003679,
-0.027989,
-0.021353,
-0.008800,
-0.016892,
-0.001306,
0.016185,
0.007716,
-0.025602,
0.007221,
-0.015820,
0.009730,
-0.027816,
-0.034628,
-0.017911,
0.014682,
-0.016573,
0.020560,
0.002065,
-0.021317,
-0.005914,
0.001934,
-0.037288,
-0.026298,
0.008586,
0.024369,
-0.004356,
-0.009387,
-0.016534,
-0.040485,
-0.011448,
0.015499,
-0.011507,
-0.010821,
0.025099,
0.018090,
-0.032144,
-0.034359,
0.010069,
-0.002949,
-0.018123,
-0.021652,
-0.018786,
0.008256,
0.011497,
-0.030574,
0.027745,
0.009575,
0.021529,
-0.006327,
0.011033,
-0.001041,
-0.033821,
-0.014126,
-0.041456,
0.016914,
0.009379,
0.025796,
-0.013174,
-0.023945,
0.012576,
0.006582,
-0.012852,
-0.014696,
-0.026205,
-0.031810,
-0.027186,
0.025396,
-0.006088,
-0.010563,
-0.000683,
0.025356,
-0.004044,
0.022210,
0.015322,
0.019807,
0.005919,
-0.020647,
-0.038237,
0.009764,
-0.002156,
0.017202,
-0.034181,
0.013996,
0.001296,
-0.020206,
-0.036453,
0.013838,
-0.022612,
0.002170,
-0.039206,
-0.034643,
0.016066,
-0.002536,
-0.039669,
0.001830,
-0.041095,
-0.038831,
-0.038350,
0.015381,
0.008997,
-0.025663,
-0.005581,
-0.007341,
-0.031900,
0.004610,
-0.028439,
-0.038947,
-0.039400,
0.011940,
-0.028207,
0.001566,
0.005608,
0.008986,
-0.014322,
-0.008860,
-0.041418,
-0.021267,
-0.026021,
-0.018103,
-0.010487,
0.007243,
0.011091,
-0.009507,
-0.014216,
0.005568,
0.016349,
0.000374,
-0.024005,
-0.003837,
0.022111,
-0.031311,
-0.039492,
-0.040516,
-0.020294,
-0.001363,
-0.025647,
0.001327,
-0.030992,
-0.039535,
-0.023944,
0.012679,
-0.030146,
-0.018248,
-0.039168,
-0.018348,
-0.030304,
-0.004337,
-0.030754,
0.008823,
0.019151,
0.020898,
-0.013702,
-0.006884,
-0.002074,
0.025904,
0.001427,
-0.024826,
-0.016581,
-0.041434,
-0.029695,
-0.011769,
-0.012625,
-0.004347,
-0.025578,
-0.007577,
0.010569,
0.002781,
0.006527,
-0.037464,
0.012492,
-0.037223,
-0.018909,
-0.012828,
0.015885,
0.001783,
-0.034148,
0.025297,
-0.009403,
-0.036390,
0.002300,
0.009276,
0.000728,
-0.001007,
0.020188,
-0.018577,
-0.011424,
-0.016773,
-0.031499,
-0.016638,
-0.013007,
-0.009500,
-0.031225,
-0.003900,
0.018355,
0.025431,
0.025723,
0.016333,
-0.003844,
-0.029150,
0.001327,
0.012557,
0.011741,
0.021591,
-0.009809,
-0.027133,
0.021746,
0.019941,
-0.013713,
0.015460,
0.002162,
-0.001615,
0.013531,
-0.032488,
-0.027085,
-0.017066,
-0.022062,
-0.007046,
-0.002539,
-0.041487,
0.016291,
-0.004706,
-0.005756,
0.026134,
-0.005202,
-0.036492,
0.024835,
-0.001909,
-0.003254,
0.011366,
0.012862,
-0.009801,
0.002168,
-0.037984,
-0.019357,
0.027306,
-0.006710,
0.000144,
0.023997,
0.011240,
-0.002263,
-0.009457,
-0.041765,
0.025124,
-0.024684,
-0.031643,
0.010944,
-0.007195,
-0.030680,
0.009821,
-0.032093,
0.010007,
0.019688,
-0.006954,
-0.027615,
-0.038632,
-0.020583,
-0.019327,
-0.026914,
-0.039565,
0.025316,
0.012623,
-0.018488,
0.013188,
-0.013344,
-0.000323,
0.010974,
-0.004975,
0.002267,
-0.002870,
-0.037839,
-0.018403,
-0.041833,
0.017636,
0.009349,
0.022565,
0.016448,
0.005154,
-0.028389,
-0.027039,
-0.035598,
-0.036941,
-0.041295,
-0.015177,
-0.008764,
0.005866,
-0.006269,
0.004206,
-0.005005,
-0.028289,
-0.026566,
0.014087,
0.027142,
0.014249,
0.006240,
-0.016135,
-0.016236,
-0.037551,
0.022473,
-0.028687,
0.026082,
-0.037513,
0.011592,
-0.008252,
0.020214,
-0.024726,
-0.029128,
-0.026911,
0.025731,
-0.033263,
-0.007295,
-0.009611,
-0.016285,
-0.028689,
0.014914,
-0.012086,
0.030657,
0.029545,
0.029942,
-0.011463,
-0.011112,
-0.010305,
-0.033821,
-0.003951,
-0.015808,
-0.004260,
-0.000389,
0.005671,
0.018478,
0.012180,
0.034286,
0.026383,
-0.004497,
0.027552,
0.011474,
-0.025896,
-0.033334,
-0.032703,
-0.020004,
-0.024587,
0.003957,
0.005671,
-0.029595,
0.017326,
-0.030471,
0.028192,
-0.026734,
-0.023722,
-0.028921,
0.011028,
-0.006656,
0.009456,
0.024859,
-0.018508,
-0.022179,
-0.040113,
-0.010706,
-0.027686,
0.009572,
-0.003177,
0.001960,
0.016701,
-0.020483,
0.024660,
0.010363,
0.026605,
0.025605,
-0.028842,
-0.028098,
0.008391,
0.007667,
0.008952,
-0.014884,
0.014455,
0.029785,
-0.013653,
-0.006769,
0.001299,
-0.010250,
-0.015264,
0.014637,
0.019061,
0.020067,
0.007456,
-0.011107,
-0.035660,
0.014085,
-0.039104,
-0.004548,
-0.013423,
-0.020363,
-0.001850,
0.000787,
-0.028938,
0.008468,
-0.006970,
-0.036790,
-0.034272,
-0.021836,
-0.034164,
0.020197,
-0.010733,
-0.036130,
-0.032511,
0.008478,
0.024416,
-0.032943,
0.024517,
-0.024286,
-0.009382,
0.000757,
-0.002819,
-0.000425,
-0.020091,
-0.004230,
0.017438,
0.011155,
-0.020765,
0.027638,
0.005039,
-0.002362,
0.000890,
-0.020253,
0.028853,
0.008948,
0.031029,
0.029812,
-0.000506,
-0.023837,
-0.017349,
0.012418,
-0.003805,
-0.018049,
-0.003050,
0.014483,
-0.016486,
-0.020514,
0.016976,
0.000294,
-0.020234,
0.012064,
0.003667,
0.007635,
-0.014574,
0.022821,
-0.033826,
0.027904,
-0.020199,
-0.036821,
0.019253,
-0.026421,
0.009209,
-0.016894,
-0.009126,
-0.030854,
-0.009235,
-0.018671,
0.026970,
0.009613,
-0.019282,
-0.037624,
-0.002895,
0.007210,
-0.004185,
-0.021955,
-0.037000,
0.003929,
-0.021391,
-0.035260,
0.003087,
-0.035805,
0.014168,
-0.026997,
-0.019708,
-0.020639,
-0.024853,
-0.033901,
0.022516,
-0.036010,
-0.006226,
-0.020323,
0.017599,
0.001508,
-0.028657,
-0.034816,
-0.030803,
0.008804,
-0.017188,
0.002005,
0.002183,
-0.015248,
-0.010423,
-0.031640,
0.024762,
0.026568,
0.009952,
0.004366,
-0.004399,
-0.007147,
-0.039495,
-0.006283,
0.027226,
-0.004513,
-0.029274,
0.027862,
-0.010798,
-0.009347,
-0.004153,
-0.032708,
-0.023506,
-0.002861,
0.002906,
0.027544,
0.017518,
0.025126,
0.000213,
-0.016919,
0.010740,
0.023567,
-0.040537,
0.025871,
-0.011179,
-0.019564,
0.019050,
-0.011754,
0.000959,
-0.001682,
-0.019159,
0.015281,
0.009063,
0.000975,
-0.003641,
0.021666,
0.023434,
0.015408,
0.025959,
0.014734,
0.025017,
-0.039401,
-0.020383,
-0.002204,
-0.014808,
-0.041501,
0.020987,
0.028345,
-0.002696,
-0.001057,
-0.039401,
-0.005504,
-0.031883,
-0.002635,
-0.033295,
-0.013166,
0.015474,
-0.005495,
0.016259,
-0.041080,
0.019987,
-0.021313,
-0.021918,
-0.010362,
-0.027949,
-0.009145,
-0.002303,
0.007755,
-0.023240,
-0.007431,
0.027474,
-0.037525,
-0.024890,
-0.028569,
-0.029627,
-0.019053,
0.026677,
-0.036929,
-0.029187,
-0.034114,
0.010919,
-0.002712,
-0.006395,
-0.003819,
-0.004317,
-0.028911,
0.017884,
-0.019236,
0.027192,
-0.018744,
0.013087,
-0.032162,
0.033694,
0.008693,
-0.020563,
0.007465,
-0.034805,
-0.001606,
-0.006252,
0.022419,
-0.004658,
0.023638,
-0.014593,
0.015896,
-0.033968,
0.026663,
0.023020,
-0.026274,
-0.025857,
-0.001002,
-0.033375,
-0.000277,
-0.035265,
-0.006182,
-0.033577,
0.001880,
0.025514,
-0.017741,
0.009640,
-0.015692,
-0.000061,
-0.037785,
-0.038279,
-0.035241,
-0.028384,
-0.008438,
0.014666,
0.014603,
0.016434,
-0.006187,
0.027237,
-0.008291,
-0.010319,
-0.010085,
0.006375,
-0.005999,
-0.025398,
-0.011269,
-0.003792,
0.018183,
-0.034426,
0.005608,
-0.038084,
0.024043,
-0.023990,
0.006796,
-0.029169,
-0.018069,
-0.025511,
-0.026836,
0.007982,
0.015207,
0.003828,
0.005957,
0.010116,
0.014435,
-0.041828,
-0.042104,
-0.016573,
-0.029162,
0.003946,
-0.031520,
0.005365,
-0.017806,
-0.030506,
-0.013706,
-0.001877,
-0.006110,
0.012740,
0.020840,
0.006688,
-0.008648,
0.002541,
0.009767,
-0.009404,
0.005027,
0.034069,
0.013690,
-0.033676,
0.031870,
-0.024150,
0.021993,
0.035319,
0.015714,
-0.026987,
-0.011524,
-0.000356,
0.014476,
0.025000,
0.010008,
-0.002147,
-0.006144,
0.020472,
0.015539,
-0.006903,
0.017394,
-0.029940,
-0.006175,
-0.033381,
-0.033051,
-0.003547,
0.027724,
-0.021782,
-0.033507,
0.019339,
-0.016028,
-0.011894,
0.014577,
-0.008263,
-0.035655,
-0.019521,
-0.016809,
0.037604,
-0.029756,
0.037427,
0.020377,
-0.114730,
-0.081266,
-0.033585,
0.046657,
0.054771,
0.116380,
-0.033822,
0.007516,
-0.080850,
-0.067385,
0.074954,
0.036382,
-0.024761,
-0.072478,
-0.006851,
-0.082491,
0.057213,
0.036172,
0.034022,
0.039516,
-0.003056,
-0.016558,
0.007351,
0.019383,
-0.021761,
0.015561,
0.018781,
-0.025681,
0.022575,
0.010525,
-0.016085,
0.011514,
0.014454,
0.026009,
0.000665,
-0.012921,
0.031131,
0.010293,
0.027135,
0.006346,
-0.012984,
0.036870,
0.012712,
-0.008512,
0.039835,
-0.167270,
-0.082848,
-0.089263,
-0.054534,
-0.052373,
-0.099203,
-0.031794,
-0.063852,
-0.031976,
-0.143580,
-0.112540,
-0.080532,
-0.008724,
0.034292,
0.112740,
0.026384,
-0.006389,
0.056616,
0.135300,
0.187500,
0.091064,
0.084764,
-0.003932,
0.094779,
0.083143,
0.039864,
0.074189,
0.058629,
0.025112,
0.015497,
-0.004845,
0.006709,
0.026422,
0.055338,
0.011599,
0.011644,
0.020873,
0.039163,
0.018957,
0.015361,
-0.059109,
-0.075158,
-0.009991,
-0.019973,
0.022540,
0.018157,
-0.005042,
-0.033693,
-0.010367,
-0.048800,
-0.116490,
-0.057590,
-0.048254,
0.030904,
-0.102760,
0.096271,
0.072672,
-0.000202,
-0.012683,
-0.072888,
0.161210,
0.071650,
0.014294,
-0.069459,
0.128810,
0.122920,
0.051254,
0.015535,
0.045717,
0.183400,
0.112270,
0.069459,
0.088276,
0.086518,
0.101340,
0.114580,
0.030969,
0.055028,
0.071354,
0.031714,
0.034819,
0.077449,
-0.006445,
-0.063932,
0.036836,
0.032805,
0.061977,
-0.107830,
-0.068589,
0.157810,
0.140150,
0.034881,
-0.122270,
-0.011830,
0.200520,
-0.067683,
-0.096101,
-0.157750,
0.048888,
0.084036,
0.119220,
0.102870,
-0.029979,
0.085785,
0.289080,
0.070418,
-0.016427,
-0.014915,
0.010570,
0.200680,
0.013619,
-0.033371,
0.020649,
0.007909,
0.160110,
0.140380,
0.077420,
0.084984,
0.150470,
0.132840,
0.099174,
0.147600,
0.129360,
0.085708,
0.107720,
0.155050,
0.068248,
0.046738,
0.024313,
0.109210,
0.082700,
0.068220,
0.008982,
-0.190050,
-0.026519,
-0.131790,
-0.011373,
-0.035678,
-0.069607,
0.017709,
0.089051,
0.064211,
-0.197690,
-0.235040,
-0.072751,
0.003317,
-0.051246,
-0.082899,
-0.244360,
-0.078916,
0.002424,
0.008218,
-0.033994,
0.052003,
0.127160,
-0.027943,
0.035707,
0.090058,
0.013768,
-0.081626,
-0.085573,
-0.069549,
0.002921,
-0.083210,
-0.048166,
-0.178780,
0.043304,
-0.035332,
-0.135360,
-0.049280,
0.002534,
0.062761,
-0.045379,
-0.001857,
-0.029277,
0.020018,
-0.167370,
-0.163530,
-0.064829,
0.078617,
0.102490,
0.028364,
-0.018991,
0.011584,
0.122940,
0.177990,
0.037311,
-0.100830,
-0.015692,
0.147550,
0.169010,
0.020924,
-0.110100,
0.038646,
0.161040,
0.051545,
0.097385,
-0.014694,
0.075970,
0.131400,
-0.133110,
0.012331,
0.025891,
0.046167,
-0.061089,
-0.104530,
0.168150,
0.092808,
0.026043,
-0.110460,
-0.067589,
0.127530,
-0.032860,
-0.046080,
0.040592,
-0.033729,
0.010608,
-0.016062,
0.046592,
0.050993,
-0.079166,
0.000747,
-0.015634,
0.001604,
-0.019095,
-0.088578,
-0.192480,
-0.149700,
-0.057224,
0.027103,
-0.068093,
-0.139140,
-0.154100,
-0.056373,
-0.018677,
-0.147010,
-0.081190,
-0.035722,
-0.064509,
-0.080398,
-0.107500,
-0.073537,
0.075894,
0.024801,
0.066749,
-0.046560,
0.003922,
-0.023070,
0.059290,
-0.057638,
-0.098086,
-0.060069,
-0.064430,
-0.062759,
-0.050389,
0.005024,
0.026933,
0.015189,
0.146570,
0.149910,
0.008987,
0.047775,
-0.019372,
0.060124,
0.058010,
0.171110,
0.042242,
0.073005,
0.086147,
0.074655,
0.128120,
0.032984,
0.061461,
0.094499,
0.092305,
-0.075446,
-0.043058,
-0.063975,
0.019322,
-0.007158,
-0.032887,
-0.014705,
0.021053,
0.094773,
0.066714,
-0.107830,
0.043913,
0.084842,
0.079794,
-0.008640,
-0.051240,
0.002469,
-0.037203,
0.032834,
0.050169,
0.040308,
0.027073,
0.012367,
-0.015583,
0.012766,
-0.139220,
-0.058257,
-0.043084,
-0.012375,
-0.019699,
-0.091840,
-0.001579,
-0.029017,
0.017238,
-0.056473,
0.030578,
0.066434,
0.004082,
-0.005959,
0.051852,
0.026505,
-0.076434,
-0.093264,
-0.013379,
-0.054902,
0.017504,
-0.074182,
-0.064121,
-0.034676,
-0.037765,
-0.061112,
-0.007903,
0.021684,
-0.024840,
0.048483,
-0.112510,
-0.063548,
-0.024920,
-0.037949,
-0.055194,
0.003865,
0.061566,
0.009898,
-0.057344,
-0.108330,
-0.070201,
0.019886,
0.050318,
-0.013891,
-0.075187,
-0.055691,
-0.039245,
-0.047241,
-0.041774,
-0.134580,
-0.030951,
-0.013651,
-0.042804,
-0.045690,
0.006842,
-0.018258,
-0.003868,
-0.008943,
-0.042130,
-0.017362,
-0.044917,
-0.012536,
-0.007976,
-0.023659,
-0.048197,
-0.039987,
0.005562,
-0.002171,
-0.033132,
-0.028484,
-0.015147,
-0.038112,
-0.063331,
-0.000557,
-0.024013,
0.009355,
0.029082,
-0.061654,
0.015273,
-0.044827,
0.015972,
-0.084151,
-0.041040,
0.009011,
-0.115250,
0.007029,
0.055224,
-0.042242,
0.026644,
0.016408,
-0.007560,
-0.022488,
-0.113090,
0.074333,
0.032437,
-0.028861,
-0.057857,
-0.058360,
-0.038343,
0.048831,
-0.021425,
-0.025714,
-0.068102,
-0.080128,
-0.114940,
0.006307,
0.026323,
-0.043310,
-0.099105,
-0.207940,
-0.084330,
-0.078941,
-0.116110,
0.024670,
-0.076971,
0.013162,
-0.094627,
-0.092708,
-0.014265,
-0.126570,
-0.052189,
-0.087228,
-0.008111,
-0.060246,
-0.015235,
0.143020,
0.053179,
0.084460,
0.118950,
0.006567,
0.105110,
0.115380,
0.083118,
0.098417,
-0.111350,
0.076305,
0.036870,
0.049525,
0.151000,
0.012025,
0.025052,
0.045991,
0.089203,
0.079286,
-0.018870,
0.096560,
0.108580,
0.109600,
0.084539,
0.131380,
0.012061,
-0.028759,
-0.028537,
0.013683,
-0.018803,
0.010838,
-0.038604,
0.006081,
-0.010853,
-0.020312,
-0.013692,
-0.037295,
-0.005121,
0.012278,
0.005462,
-0.038532,
-0.008930,
-0.020304,
-0.017185,
0.061986,
-0.016695,
-0.001934,
0.006041,
0.004008,
-0.014154,
0.013634,
0.044301,
0.011651,
0.028538,
0.081762,
0.076363,
0.040811,
-0.069479,
-0.054130,
0.046075,
0.019993,
-0.061489,
-0.137270,
-0.063490,
0.108960,
0.132230,
0.041603,
0.053227,
-0.009715,
0.004586,
-0.043088,
-0.020180,
-0.065820,
-0.129520,
-0.088876,
0.145360,
0.049743,
0.127670,
0.083352,
0.010555,
0.010829,
0.018386,
0.133450,
0.093802,
0.033467,
-0.049637,
-0.003205,
0.064024,
0.058105,
0.064950,
-0.119710,
-0.085687,
-0.068605,
-0.128460,
-0.142670,
-0.217470,
-0.097694,
-0.110340,
-0.091332,
-0.142110,
-0.029128,
-0.026281,
-0.042529,
-0.126140,
-0.135580,
-0.067602,
-0.004477,
-0.024972,
-0.023292,
-0.007905,
-0.046524,
-0.024443,
-0.005562,
0.005822,
0.035906,
-0.069377,
0.003705,
0.038120,
0.039311,
0.022387,
0.032826,
-0.004934,
0.016187,
0.052918,
0.065308,
0.016767,
0.017749,
0.030836,
-0.038909,
-0.021561,
0.112540,
0.125430,
0.058647,
0.061879,
0.098080,
0.135060,
0.114440,
0.119960,
0.091497,
0.057500,
0.113980,
0.077181,
0.009782,
0.031435,
0.022826,
-0.030172,
-0.053949,
0.009301,
0.043492,
0.033794,
0.042017,
0.069443,
0.067908,
-0.026934,
0.154630,
0.135110,
-0.036253,
0.075731,
0.088643,
0.181280,
0.132430,
-0.049165,
0.009503,
0.053638,
0.132280,
0.013218,
0.059462,
0.079088,
-0.075169,
-0.014348,
0.096214,
0.100330,
0.087244,
0.033099,
0.221730,
-0.116780,
-0.133380,
-0.083308,
-0.133380,
-0.110430,
-0.094314,
-0.162010,
-0.174900,
-0.043925,
-0.123510,
-0.104690,
-0.123170,
-0.083419,
-0.080430,
-0.039325,
0.000783,
-0.068295,
-0.013023,
0.001270,
0.030006,
0.027869,
0.049037,
0.013307,
0.088579,
0.025360,
-0.049984,
-0.029784,
-0.041635,
-0.069784,
0.023970,
0.008182,
-0.065401,
-0.019533,
-0.017117,
0.018993,
-0.018998,
0.013650,
0.002431,
-0.003592,
0.046302,
-0.050594,
-0.058383,
-0.007175,
0.017466,
-0.005172,
-0.065082,
-0.088000,
-0.087378,
-0.016793,
-0.000312,
0.031936,
0.112260,
-0.117360,
-0.030538,
-0.018041,
0.039138,
0.126270,
0.008130,
0.159560,
0.127010,
0.102090,
0.102830,
0.168930,
0.146660,
0.128340,
-0.179270,
0.058442,
0.165270,
0.047975,
0.082752,
-0.026238,
0.139230,
0.147590,
0.072591,
0.202770,
-0.094321,
0.026929,
0.021016,
-0.078810,
0.071011,
-0.193970,
-0.048917,
-0.020420,
-0.016918,
-0.000315,
-0.132560,
-0.000812,
0.027542,
-0.042781,
-0.048433,
-0.066039,
-0.083836,
0.009029,
-0.034218,
-0.027933,
0.060046,
0.023673,
0.034127,
0.013642,
0.118980,
-0.021828,
-0.072987,
-0.024093,
-0.072287,
-0.025851,
0.024321,
-0.012168,
0.003653,
-0.015091,
-0.024022,
-0.001323,
0.024313,
0.008956,
-0.033861,
-0.053558,
-0.028456,
0.065964,
0.034384,
0.016718,
0.001426,
-0.023022,
-0.042122,
0.016334,
0.002957,
-0.019492,
0.090931,
0.025332,
-0.044662,
-0.059689,
-0.055225,
-0.036095,
-0.066510,
-0.053266,
-0.113150,
-0.197450,
-0.013425,
-0.116270,
-0.051803,
-0.062540,
-0.202160,
-0.005361,
0.112610,
-0.000040,
-0.077207,
-0.017108,
-0.090569,
0.055076,
-0.004936,
0.013752,
-0.053407,
-0.326790,
0.075447,
0.209900,
0.286010,
0.354710,
-0.143790,
-0.220840,
-0.227920,
-0.058002,
-0.091253,
0.073834,
-0.053142,
-0.184930,
-0.030697,
-0.037548,
-0.051094,
-0.092107,
-0.011530,
0.006587,
-0.055766,
-0.009117,
0.054378,
0.018844,
-0.047735,
0.060614,
-0.021842,
-0.026434,
-0.008331,
0.006322,
-0.012492,
0.009360,
0.032127,
0.022782,
-0.027670,
-0.001782,
-0.047177,
0.038697,
0.021822,
0.019417,
-0.017082,
0.011966,
0.033025,
0.041204,
0.025388,
0.003330,
-0.025750,
0.023903,
0.023185,
-0.032697,
0.012873,
-0.042115,
-0.077760,
-0.147240,
-0.084777,
0.007396,
0.105900,
0.006235,
0.039738,
0.018450,
0.084823,
0.167370,
0.126460,
0.191080,
0.141090,
-0.019173,
0.052600,
-0.037303,
0.100540,
0.036284,
-0.133430,
0.056744,
0.036295,
0.078419,
0.076464,
-0.108790,
0.010238,
-0.023060,
0.026453,
0.046835,
0.003020,
-0.000783,
0.037443,
-0.001447,
0.014917,
0.029390,
-0.001612,
-0.002931,
0.021571,
-0.005991,
0.038091,
-0.009741,
0.017266,
0.010821,
-0.049690,
0.014537,
0.005349,
0.053958,
-0.010607,
0.025520,
-0.006154,
-0.140390,
-0.085495,
-0.117020,
-0.101630,
-0.106640,
-0.076807,
-0.050957,
-0.022758,
-0.006999,
-0.250500,
-0.219960,
-0.159750,
0.003025,
-0.060388,
-0.217100,
-0.196490,
-0.193790,
-0.035938,
-0.142130,
-0.083814,
-0.063491,
-0.058909,
-0.077922,
0.012790,
0.013601,
-0.000621,
0.137070,
0.161970,
0.106540,
-0.042596,
0.009503,
0.129150,
0.207140,
0.244220,
0.092009,
-0.020360,
0.007427,
0.268200,
0.183210,
0.025371,
-0.118370,
0.121570,
0.139590,
0.085057,
0.015476,
-0.158880,
0.108380,
0.239940,
0.125350,
-0.017007,
-0.090629,
0.034517,
-0.122400,
-0.144290,
-0.233420,
0.079070,
0.044956,
-0.039107,
-0.221820,
-0.251540,
0.041458,
0.158900,
-0.044387,
-0.022802,
-0.099424,
-0.169500,
-0.006218,
-0.132230,
-0.263200,
-0.226480,
-0.160390,
-0.159480,
-0.091184,
-0.227690,
-0.182970,
-0.052996,
0.021310,
0.058925,
-0.254630,
-0.186970,
-0.039974,
0.081840,
0.090839,
-0.017465,
-0.093801,
0.062939,
0.051028,
0.215790,
0.105190,
0.028631,
0.066613,
0.116850,
-0.108100,
-0.132730,
-0.185950,
-0.024762,
0.092084,
-0.055995,
-0.084622,
0.028837,
0.184270,
0.176780,
-0.028279,
-0.094539,
-0.141720,
0.029128,
0.116920,
-0.095471,
-0.134960,
0.038676,
0.059454,
0.084041,
-0.118790,
-0.116700,
0.034906,
-0.055383,
0.108640,
-0.069157,
-0.043617,
0.088394,
-0.072266,
0.020395,
-0.031581,
-0.073901,
0.039333,
-0.335020,
-0.172610,
-0.007639,
0.007180,
-0.033093,
-0.304090,
-0.302630,
-0.238510,
-0.000964,
-0.073016,
-0.281880,
-0.135430,
0.200380,
0.088329,
-0.319390,
-0.386990,
-0.228530,
-0.081557,
-0.229030,
-0.358580,
-0.124530,
-0.223960,
0.046149,
-0.032968,
-0.077371,
0.049930,
-0.021274,
-0.064855,
-0.099365,
0.105090,
-0.066147,
-0.122190,
-0.109940,
-0.037843,
0.153650,
-0.049314,
-0.003486,
-0.039090,
0.158580,
0.175520,
-0.068688,
-0.055304,
0.023042,
-0.017894,
0.104440,
0.168520,
-0.078031,
-0.268340,
0.201090,
0.146500,
0.056360,
-0.044983,
-0.111490,
-0.248730,
-0.077647,
-0.187100,
-0.085136,
-0.105620,
0.038262,
0.016217,
0.048814,
0.095228,
-0.009985,
-0.052429,
-0.063170,
0.129610,
-0.033600,
-0.317730,
0.023285,
-0.007815,
0.138890,
-0.013400,
-0.021643,
0.064444,
0.069021,
0.098450,
0.021796,
-0.164720,
-0.132650,
-0.082744,
0.053869,
-0.049736,
-0.089291,
-0.004873,
-0.035063,
-0.045094,
0.064199,
0.155340,
0.091768,
0.065647,
-0.065513,
0.053469,
0.035503,
0.119530,
0.096346,
0.042623,
0.035659,
0.160830,
0.095132,
0.024119,
0.244760,
0.115030,
0.049794,
-0.001482,
-0.008671,
0.006011,
-0.008039,
-0.068029,
-0.297690,
-0.171870,
-0.003058,
-0.014486,
-0.063785,
-0.189540,
0.000572,
0.021433,
0.092944,
0.182100,
0.157340,
0.056917,
-0.026768,
0.063950,
0.035590,
0.043317,
-0.090818,
0.015657,
0.144630,
0.140300,
-0.029213,
-0.113670,
-0.041132,
0.118180,
0.026189,
0.060226,
0.021672,
-0.095192,
-0.066661,
0.031786,
-0.055377,
-0.069941,
-0.118600,
-0.015597,
0.050560,
-0.030343,
-0.035287,
-0.087229,
0.032983,
0.013347,
0.030381,
-0.099279,
0.183270,
0.098035,
-0.006552,
-0.040415,
-0.012278,
0.088645,
0.060045,
-0.067377,
-0.177210,
-0.041048,
0.027407,
-0.032418,
-0.064728,
-0.162030,
-0.136930,
0.012960,
-0.119350,
-0.073432,
-0.101040,
-0.052909,
0.093764,
-0.032406,
-0.042470,
-0.005037,
0.074326,
-0.005562,
-0.045432,
-0.041137,
0.015200,
-0.012104,
0.005450,
0.018988,
0.014145,
0.063338,
0.009124,
0.021492,
0.045097,
0.018235,
0.054652,
-0.027497,
0.011114,
0.034906,
-0.003894,
0.021830,
-0.044265,
0.003733,
-0.023413,
-0.024677,
0.021855,
-0.014390,
-0.086353,
-0.145070,
-0.047014,
-0.001726,
0.033890,
0.196300,
0.065237,
0.056306,
0.271660,
0.036387,
0.022475,
0.014294,
0.121240,
0.170030,
-0.041584,
-0.052303,
0.074741,
0.118690,
0.021656,
0.054443,
-0.025595,
0.044138,
0.150340,
0.024400,
0.025829,
0.043019,
0.095155,
0.103630,
-0.043656,
-0.035106,
0.076871,
-0.014581,
0.081671,
0.053750,
0.063247,
-0.029912,
-0.008335,
0.037853,
-0.047411,
0.013284,
-0.080885,
-0.002046,
0.049013,
0.025319,
0.047762,
-0.050352,
-0.061361,
-0.051012,
0.033375,
-0.003275,
-0.127390,
0.063108,
0.126340,
0.173990,
0.093204,
-0.042681,
-0.141040,
-0.070483,
0.053881,
-0.003183,
-0.050296,
-0.090776,
-0.263340,
-0.130920,
0.016107,
-0.122130,
0.032604,
0.071797,
0.149370,
-0.011982,
-0.035837,
0.027936,
0.010741,
0.056574,
-0.022907,
-0.029012,
-0.005122,
0.033712,
-0.013180,
-0.009640,
0.013018,
-0.013134,
0.003745,
-0.046480,
0.016256,
0.029831,
0.035594,
-0.053614,
-0.018982,
0.006970,
0.008920,
0.005122,
-0.004740,
0.007993,
0.020026,
0.016460,
-0.002647,
-0.026011,
-0.003422,
0.009740,
-0.183060,
-0.128700,
0.040892,
-0.101360,
-0.181100,
-0.058023,
-0.027648,
-0.130900,
-0.015965,
-0.041571,
-0.164840,
0.063147,
0.010495,
0.123650,
0.109550,
0.037581,
-0.044995,
-0.089589,
0.004570,
0.091037,
0.066814,
0.113920,
0.128320,
-0.022733,
-0.026328,
-0.137270,
-0.141960,
-0.031858,
-0.059158,
0.061654,
-0.108940,
-0.125640,
-0.000683,
-0.029695,
0.083671,
0.030836,
-0.037752,
0.034923,
0.022792,
0.060338,
0.012659,
0.049759,
-0.017193,
0.020767,
0.052455,
-0.107310,
-0.019152,
-0.003116,
0.024706,
0.055279,
0.010061,
0.099249,
-0.038033,
0.095807,
0.018947,
0.081497,
0.137910,
0.137830,
0.026085,
0.015953,
0.017528,
-0.055369,
0.061910,
-0.048932,
-0.104880,
-0.035452,
-0.061212,
0.039011,
0.023918,
-0.109870,
0.013541,
0.003251,
0.076219,
0.023381,
-0.028584,
-0.262470,
0.134810,
0.181940,
0.086656,
0.009993,
-0.273570,
-0.126550,
-0.016935,
0.050485,
-0.345220,
0.063028,
0.114460,
0.124600,
0.051824,
0.031094,
-0.077273,
0.054589,
0.042321,
-0.032483,
0.021580,
-0.020315,
-0.071550,
0.042050,
-0.015589,
-0.119230,
-0.228290,
0.047779,
0.101660,
0.014494,
-0.104730,
0.094396,
0.009424,
0.264270,
0.099648,
-0.017553,
0.024610,
0.086076,
0.087792,
-0.017467,
-0.017801,
-0.130680,
-0.102680,
-0.054314,
-0.091084,
-0.066562,
-0.001773,
-0.117810,
0.092967,
-0.053702,
-0.138270,
0.176490,
0.127480,
0.029614,
-0.116800,
-0.037491,
-0.002650,
0.029227,
0.046434,
-0.037893,
-0.073103,
0.041238,
0.047118,
0.059340,
0.059977,
0.042975,
0.070645,
-0.076354,
-0.029233,
0.097005,
0.032981,
-0.031348,
-0.066833,
-0.084684,
0.063672,
-0.004511,
0.069836,
-0.007448,
0.013627,
0.023410,
0.006599,
-0.013066,
0.003600,
0.048462,
-0.002414,
-0.008123,
0.036188,
-0.004025,
0.045371,
0.023052,
-0.010189,
-0.023831,
-0.047442,
0.019922,
-0.025002,
-0.024182,
-0.041398,
0.039110,
0.001283,
-0.080796,
-0.065116,
0.129700,
0.026967,
0.001487,
0.041149,
-0.037842,
-0.081534,
-0.053525,
0.025638,
0.063299,
-0.022540,
-0.199450,
-0.018491,
0.054652,
-0.065692,
-0.063912,
0.084732,
0.015214,
0.082283,
0.011231,
-0.018593,
0.031402,
-0.099487,
-0.043913,
0.019583,
0.050407,
-0.021353,
-0.016563,
0.070057,
-0.019129,
0.010990,
-0.133200,
0.024370,
0.117350,
0.101820,
-0.024221,
-0.225770,
0.060822,
0.176380,
0.082525,
-0.096934,
-0.228020,
-0.232900,
0.105730,
0.017227,
-0.064273,
-0.112600,
-0.009357,
0.026757,
-0.076290,
-0.060187,
0.049047,
-0.040098,
0.002203,
0.005034,
0.050160,
-0.009647,
0.005556,
-0.022301,
0.007957,
0.032398,
-0.039211,
-0.014923,
-0.003137,
-0.009579,
-0.052098,
-0.010254,
-0.050198,
-0.029285,
0.012814,
-0.030378,
0.023190,
-0.032636,
-0.007204,
0.023053,
0.034135,
-0.095967,
-0.004609,
-0.019094,
0.111480,
0.269250,
-0.005741,
0.054956,
-0.144040,
-0.236670,
-0.325660,
-0.269610,
0.022422,
0.173030,
0.070287,
-0.027086,
-0.094681,
0.025508,
0.007872,
0.023735,
-0.121920,
-0.092381,
0.044333,
-0.070236,
-0.149410,
-0.075766,
-0.013552,
-0.034227,
0.021378,
-0.020849,
-0.028685,
-0.032803,
-0.020770,
-0.034947,
-0.029360,
-0.026191,
-0.029795,
-0.029800,
-0.036510,
-0.020343,
-0.021623,
-0.020704,
-0.005112,
-0.023931,
-0.031920,
0.020706,
-0.005860,
0.028507,
-0.037437,
-0.014040,
-0.024251,
0.001663,
-0.026488,
-0.010725,
0.004612,
-0.036802,
-0.018781,
-0.008026,
0.004743,
0.024546,
0.007470,
-0.018498,
0.014714,
-0.033667,
-0.026884,
-0.018268,
-0.034945,
-0.033758,
-0.010153,
0.018482,
0.028260,
-0.031132,
0.025231,
0.005695,
0.016191,
-0.024783,
0.007271,
-0.004906,
0.029212,
0.001055,
0.014360,
-0.033627,
-0.020307,
0.000803,
0.020607,
0.000840,
-0.034607,
-0.027507,
-0.014803,
0.008018,
-0.001337,
-0.022736,
-0.019436,
-0.031551,
-0.014858,
0.013625,
-0.029570,
-0.017155,
-0.031589,
0.010259,
-0.020756,
-0.037793,
-0.005618,
0.015161,
-0.008100,
0.019803,
0.019940,
0.016873,
-0.020041,
-0.018941,
-0.012701,
-0.007287,
0.027727,
0.022800,
-0.015524,
-0.016315,
-0.012239,
-0.000310,
0.008809,
-0.004425,
-0.035421,
-0.016678,
-0.032384,
0.000256,
0.002758,
0.024457,
-0.008232,
0.023774,
0.029380,
0.013972,
0.008271,
-0.014606,
-0.012611,
-0.014414,
0.004963,
-0.012560,
-0.027568,
-0.023276,
-0.016822,
-0.002230,
-0.004762,
-0.018865,
-0.034293,
-0.027213,
-0.041385,
0.005627,
-0.027456,
-0.007836,
0.009984,
-0.041583,
-0.046773,
-0.039615,
-0.001967,
-0.001142,
-0.001604,
-0.035245,
0.005412,
-0.001001,
-0.002042,
-0.022246,
-0.031868,
0.008179,
0.015569,
0.027805,
-0.012667,
-0.000828,
-0.032023,
-0.003969,
-0.016805,
-0.031247,
-0.038003,
-0.008733,
-0.008237,
-0.000897,
0.023175,
-0.011433,
-0.038447,
-0.010642,
-0.040032,
0.013901,
0.004405,
-0.010812,
-0.013921,
-0.028992,
-0.006250,
0.015777,
0.009298,
0.004045,
-0.036176,
0.011412,
-0.049866,
-0.018140,
-0.039318,
-0.018292,
-0.013968,
0.017779,
-0.000609,
0.019213,
-0.039524,
-0.045958,
-0.021181,
0.023301,
0.025832,
0.010950,
-0.011079,
-0.011910,
-0.030892,
-0.017541,
0.021557,
-0.012545,
-0.018629,
0.000236,
-0.014357,
-0.042424,
-0.013273,
-0.041054,
-0.006636,
-0.010742,
0.007885,
-0.006311,
-0.037209,
-0.030896,
0.020773,
-0.008304,
0.011652,
-0.018244,
0.011014,
-0.028979,
-0.019997,
-0.005696,
0.000982,
-0.018626,
0.025921,
0.003008,
-0.007143,
0.019288,
-0.003102,
-0.001532,
0.019702,
-0.009916,
0.015013,
0.001028,
0.025231,
-0.009394,
0.006291,
-0.014336,
-0.015142,
0.010402,
-0.021222,
-0.024970,
-0.021822,
0.001250,
0.026472,
-0.040862,
0.002903,
0.002054,
-0.007312,
0.018599,
-0.008934,
-0.018803,
0.012359,
-0.027442,
-0.010280,
-0.002523,
0.000637,
-0.027356,
-0.027038,
-0.011215,
-0.037375,
-0.021770,
-0.028860,
-0.046402,
-0.005110,
-0.002644,
-0.024155,
-0.026245,
-0.026856,
-0.033306,
-0.021012,
0.017040,
0.022600,
-0.017293,
-0.007567,
0.015945,
-0.024657,
0.008371,
-0.012178,
0.012208,
-0.036024,
-0.019460,
0.019926,
-0.011886,
-0.032355,
-0.024416,
0.020586,
-0.014174,
-0.032855,
-0.024816,
-0.034045,
-0.000314,
0.008782,
-0.006876,
-0.033623,
0.018215,
-0.006808,
0.022301,
-0.011221,
0.009299,
-0.004739,
-0.010803,
-0.036060,
0.025783,
-0.023135,
-0.026854,
-0.028253,
-0.024028,
-0.000947,
-0.009734,
-0.037647,
-0.028394,
-0.013032,
-0.029021,
0.023845,
0.001146,
-0.024203,
-0.017104,
-0.048486,
-0.018873,
0.008796,
-0.012443,
-0.001378,
0.018465,
0.000923,
-0.027006,
-0.022954,
0.001972,
0.004601,
0.018192,
0.020355,
0.016267,
-0.030527,
-0.035444,
-0.015860,
-0.028324,
-0.031729,
-0.032499,
-0.042873,
0.014955,
-0.016398,
-0.000213,
-0.017536,
0.002791,
-0.011754,
-0.010278,
-0.017180,
-0.016003,
-0.006024,
-0.033259,
-0.041695,
0.007040,
0.011117,
0.015867,
-0.025402,
0.028094,
0.013408,
0.005021,
-0.012932,
-0.011836,
-0.007357,
-0.008356,
-0.042004,
0.009781,
-0.018950,
-0.000781,
-0.001239,
-0.025687,
0.015266,
0.017640,
-0.006923,
0.012008,
-0.009680,
-0.022676,
-0.014438,
0.020548,
-0.036231,
0.009305,
0.017909,
-0.034129,
-0.003147,
-0.031185,
-0.035529,
-0.022073,
-0.011597,
-0.056327,
-0.006630,
0.005127,
-0.005841,
-0.029670,
-0.031254,
-0.033830,
0.003005,
0.030079,
0.002338,
-0.009825,
-0.032385,
-0.037240,
-0.040813,
0.021975,
0.026423,
-0.026419,
-0.032926,
0.007620,
0.001968,
-0.001545,
-0.029190,
0.001219,
-0.039616,
-0.026446,
0.024478,
-0.022522,
0.014254,
0.023532,
-0.001160,
-0.005390,
-0.007771,
0.010428,
0.007075,
0.016873,
0.009789,
0.006661,
-0.029352,
-0.001187,
-0.027719,
0.029156,
-0.029798,
-0.016173,
-0.010053,
-0.003580,
-0.009378,
-0.032819,
0.013749,
-0.013293,
0.017391,
-0.015576,
-0.006839,
0.000972,
-0.023970,
-0.000996,
0.002460,
0.023883,
0.018122,
-0.003612,
-0.012869,
0.004560,
0.005747,
0.022119,
0.021905,
-0.040466,
-0.019030,
-0.039628,
0.028357,
-0.020345,
-0.035677,
-0.007066,
-0.030432,
-0.038312,
0.013891,
0.018560,
-0.013812,
-0.052136,
-0.020094,
-0.039720,
-0.022011,
-0.013780,
-0.005551,
0.021709,
0.001989,
0.009172,
0.003413,
-0.001962,
-0.006796,
-0.018623,
-0.020607,
-0.019674,
-0.020972,
0.023902,
0.017516,
-0.012607,
-0.003215,
0.010533,
-0.018618,
-0.005141,
-0.036572,
-0.004519,
0.000266,
-0.039970,
-0.004045,
0.016473,
0.006562,
-0.025181,
0.002513,
0.019742,
-0.021709,
0.027786,
-0.009563,
-0.001109,
-0.016752,
-0.035423,
0.011580,
0.017070,
0.019623,
0.013070,
0.014038,
-0.027027,
0.013238,
-0.019997,
-0.012561,
-0.041607,
0.000642,
-0.014191,
0.027724,
-0.013661,
-0.021717,
-0.008617,
-0.040998,
-0.038432,
0.004565,
0.041426,
0.037408,
0.040638,
-0.010648,
-0.001383,
0.011238,
0.028146,
0.022791,
0.021200,
0.002996,
-0.012407,
0.005728,
-0.016475,
-0.028390,
-0.028550,
0.025576,
0.003534,
-0.011636,
0.020526,
-0.022399,
0.030951,
0.031571,
-0.028713,
-0.010408,
-0.035764,
-0.000281,
-0.018479,
-0.033399,
0.018672,
-0.047035,
-0.036860,
-0.004725,
-0.024892,
-0.017478,
0.013950,
-0.027186,
0.020983,
-0.022923,
0.025520,
0.013268,
0.014789,
0.012579,
-0.000349,
0.022931,
0.018466,
0.008978,
-0.008280,
0.012498,
0.022156,
0.014642,
-0.036208,
-0.031249,
-0.006573,
0.017571,
-0.016345,
0.005460,
0.024043,
0.013110,
-0.013221,
-0.006849,
-0.008130,
0.012488,
-0.011025,
-0.004492,
-0.000312,
-0.016500,
-0.008704,
0.008415,
0.017114,
-0.020746,
-0.010892,
-0.025862,
-0.004686,
0.005328,
0.014736,
0.005188,
-0.008662,
0.010572,
-0.019124,
0.000048,
-0.013622,
-0.016366,
0.004554,
-0.034028,
-0.030616,
-0.030692,
0.018356,
-0.000379,
-0.024424,
-0.010958,
-0.019281,
0.002712,
-0.033811,
0.026335,
-0.029356,
0.024924,
-0.003987,
-0.034669,
-0.005980,
0.001079,
-0.012267,
-0.030684,
0.016413,
-0.036517,
0.006278,
-0.035450,
0.000278,
0.003142,
-0.038943,
-0.016558,
0.015504,
0.026088,
-0.034018,
0.025130,
0.000487,
-0.030549,
-0.006594,
0.025554,
-0.043312,
-0.007304,
0.005191,
0.014409,
0.015044,
0.007231,
-0.011268,
-0.012914,
-0.034830,
-0.024830,
0.008103,
-0.022718,
-0.028918,
-0.000536,
-0.039432,
0.020819,
-0.032852,
0.015874,
0.003917,
-0.014740,
-0.013736,
0.002670,
-0.013372,
0.023327,
-0.010172,
-0.028590,
-0.040399,
0.016360,
0.013375,
0.000604,
-0.009024,
0.022458,
0.023359,
-0.023121,
-0.040410,
-0.011302,
-0.000078,
0.009984,
-0.030190,
-0.023479,
-0.017695,
0.019448,
-0.017243,
-0.015195,
0.019359,
-0.014557,
0.007748,
0.023694,
0.021677,
-0.004164,
-0.002124,
-0.024609,
0.021338,
0.002608,
0.001832,
0.000105,
-0.017392,
0.009102,
-0.008214,
-0.017629,
0.001535,
0.006543,
0.018190,
-0.023476,
0.022827,
-0.024420,
-0.008855,
-0.026022,
-0.013489,
-0.030547,
0.029207,
0.004351,
-0.006014,
-0.022510,
0.022016,
0.015561,
-0.008977,
-0.023573,
-0.021136,
0.011262,
-0.019040,
-0.018954,
0.014303,
0.009856,
0.017240,
0.002672,
-0.012373,
0.021340,
-0.033225,
0.010292,
0.020377,
-0.012259,
-0.010360,
-0.015588,
0.005351,
-0.029538,
0.003247,
-0.033856,
-0.040477,
0.023237,
0.001269,
0.026490,
-0.006123,
0.012704,
0.013443,
0.022701,
-0.022134,
0.007039,
0.023231,
-0.023196,
0.013325,
0.007597,
-0.040778,
-0.004895,
0.025331,
-0.028090,
-0.039443,
0.025439,
0.018711,
-0.037370,
-0.039350,
-0.029750,
-0.021409,
-0.022684,
-0.024551,
0.005072,
-0.017827,
-0.022468,
-0.023993,
0.003337,
0.006071,
-0.001670,
0.024415,
0.014288,
0.014166,
-0.005540,
-0.005012,
-0.008896,
-0.013604,
0.018157,
-0.008714,
0.004565,
-0.013839,
0.026138,
-0.011974,
0.026559,
0.015766,
-0.006175,
-0.031274,
-0.028451,
0.012125,
0.006299,
-0.003828,
-0.013595,
0.026844,
-0.022155,
-0.006812,
0.004382,
-0.025544,
-0.008813,
-0.003168,
-0.034126,
-0.036532,
-0.014415,
-0.025757,
0.021777,
-0.006481,
-0.032981,
0.001727,
-0.011831,
-0.031433,
0.003019,
-0.013589,
0.017145,
-0.003242,
-0.007989,
0.001888,
-0.002676,
-0.026424,
0.017499,
-0.042121,
-0.079009,
-0.136800,
-0.080530,
-0.111090,
-0.057178,
0.143620,
-0.008433,
-0.004749,
-0.127050,
-0.102820,
0.108250,
0.131730,
-0.081732,
-0.043960,
0.038289,
0.152140,
0.060614,
-0.255370,
-0.088477,
-0.025967,
-0.006260,
-0.111290,
-0.181250,
-0.217020,
-0.003863,
0.030620,
0.011058,
-0.031355,
-0.026250,
0.010239,
0.002821,
0.021985,
0.023934,
0.030366,
-0.037501,
-0.021767,
0.026337,
0.012539,
-0.027026,
0.013585,
-0.007651,
-0.011909,
-0.009689,
-0.028816,
-0.005651,
0.020239,
-0.039060,
-0.035831,
0.053831,
0.035813,
-0.131130,
0.026241,
-0.018655,
0.012679,
-0.084277,
-0.036757,
0.040457,
0.068347,
-0.043650,
-0.072433,
-0.012669,
0.034261,
0.030507,
-0.065869,
-0.088522,
-0.094056,
0.026575,
0.047570,
-0.097640,
-0.251480,
-0.156010,
-0.024730,
0.074869,
0.017426,
-0.084780,
0.020316,
-0.038491,
0.001105,
-0.007194,
0.002136,
0.002645,
-0.020990,
-0.025931,
0.029744,
0.044243,
-0.036465,
-0.050624,
-0.018659,
-0.045342,
-0.021637,
-0.046801,
-0.031687,
-0.039355,
0.007219,
-0.021897,
0.063080,
0.027394,
0.022218,
0.030578,
0.040116,
0.040318,
0.036327,
0.073379,
0.095328,
0.064608,
0.076226,
-0.009347,
0.013533,
0.063943,
-0.101850,
0.011954,
0.015799,
-0.035848,
0.029413,
-0.002560,
-0.031317,
-0.026998,
0.076821,
0.075127,
0.062553,
0.094069,
0.005919,
-0.107480,
-0.045344,
-0.004866,
0.006483,
0.051553,
0.090098,
0.091219,
-0.044615,
0.049348,
-0.001243,
-0.019787,
-0.020667,
-0.149990,
0.044829,
-0.089013,
-0.063383,
0.001202,
0.015380,
0.016942,
0.006359,
-0.021087,
-0.019142,
0.050682,
0.172140,
0.071941,
0.015528,
0.073546,
0.053445,
0.073489,
0.058227,
0.105280,
0.038586,
-0.039194,
0.022812,
0.030699,
0.068414,
0.102390,
0.001677,
0.032665,
-0.002464,
0.000320,
0.060662,
0.065428,
0.001428,
-0.078495,
-0.131560,
-0.003300,
0.135690,
0.180810,
-0.056609,
-0.032140,
0.097431,
0.234550,
-0.031585,
-0.005688,
0.091177,
-0.035837,
-0.038147,
0.001066,
-0.095735,
0.036212,
-0.047212,
-0.012583,
-0.053417,
-0.058937,
0.004976,
0.105010,
0.097498,
0.003398,
0.112940,
-0.116810,
-0.044990,
-0.107420,
-0.051838,
-0.019074,
-0.233190,
0.015171,
-0.019645,
-0.318650,
-0.268380,
-0.048252,
-0.021885,
0.175560,
-0.197470,
-0.020699,
-0.065514,
0.021124,
0.171360,
-0.127900,
-0.003802,
0.121470,
0.137970,
0.074143,
0.035272,
0.037237,
0.070664,
0.110330,
-0.117560,
0.199880,
0.025443,
0.191560,
0.106160,
-0.147790,
0.139580,
0.060462,
0.067178,
0.059631,
0.137300,
0.109350,
0.063635,
0.100720,
0.039570,
0.130670,
0.115450,
0.000347,
-0.095921,
-0.019820,
0.200830,
0.118640,
-0.195260,
-0.293100,
-0.076698,
0.284600,
0.098318,
-0.059162,
-0.133100,
-0.089033,
0.081578,
0.071175,
-0.109700,
-0.091589,
-0.005851,
0.024216,
-0.063818,
-0.108220,
-0.009061,
-0.041181,
0.084297,
0.036841,
-0.078618,
-0.010619,
-0.147360,
-0.027789,
0.021008,
-0.209830,
-0.177300,
-0.113620,
-0.049255,
0.006765,
-0.196610,
-0.156150,
-0.081064,
-0.139570,
-0.125320,
-0.003537,
-0.021378,
0.027696,
0.056028,
-0.097170,
-0.054626,
0.003487,
-0.053961,
0.189130,
-0.028230,
-0.033507,
0.037695,
0.041034,
0.257980,
-0.075264,
0.016104,
-0.052061,
-0.028228,
0.149660,
-0.039974,
-0.025640,
-0.158630,
0.010910,
-0.051065,
0.172770,
0.028737,
-0.007000,
-0.028517,
0.176380,
-0.084455,
-0.022696,
-0.015239,
-0.030510,
0.094849,
-0.167590,
0.034764,
-0.000687,
-0.002715,
0.003011,
-0.022825,
0.003222,
0.080097,
0.030169,
-0.114870,
0.083114,
0.052994,
0.035519,
0.042779,
-0.025197,
0.013856,
-0.032468,
-0.059862,
0.006924,
0.084640,
-0.043736,
0.011400,
0.031650,
0.023712,
-0.037076,
-0.058037,
-0.002195,
-0.019259,
0.005474,
0.061448,
-0.140350,
0.013661,
-0.068517,
-0.047588,
0.165500,
-0.098260,
-0.204220,
-0.247600,
-0.058941,
-0.082041,
-0.039611,
-0.053994,
-0.110070,
0.100350,
0.210030,
-0.091634,
-0.031216,
-0.001525,
-0.033976,
0.023455,
-0.008562,
-0.001705,
0.020365,
0.015712,
-0.069553,
-0.034508,
-0.007718,
0.078013,
0.088273,
-0.031464,
-0.033417,
-0.106620,
-0.205690,
-0.190820,
-0.283460,
-0.089098,
-0.089914,
-0.004176,
0.060344,
0.081674,
-0.037562,
-0.047498,
-0.014064,
0.033902,
0.073478,
-0.008147,
-0.087721,
-0.025174,
0.054632,
0.106690,
0.004805,
-0.059991,
-0.030652,
-0.059807,
0.005467,
0.132590,
0.116050,
0.036500,
0.030954,
0.079471,
-0.011906,
0.025804,
-0.037427,
0.003467,
-0.038971,
-0.010890,
-0.007361,
-0.013035,
-0.009333,
0.000641,
-0.024299,
-0.041596,
-0.045416,
-0.028518,
-0.039396,
0.012976,
-0.005432,
-0.031159,
0.019767,
0.005395,
-0.011478,
0.006812,
-0.045014,
-0.001478,
-0.007412,
0.032859,
-0.092662,
-0.022519,
0.094348,
0.198300,
0.120740,
0.087906,
-0.063516,
0.076414,
0.224500,
-0.043221,
-0.091873,
-0.097563,
-0.057924,
-0.048932,
-0.324290,
-0.143740,
-0.077967,
-0.095628,
-0.110120,
-0.310210,
-0.162620,
-0.192940,
-0.229710,
-0.112380,
-0.073726,
-0.049930,
-0.037474,
-0.002414,
-0.223770,
0.017187,
-0.026450,
-0.050841,
-0.019940,
-0.071851,
0.069586,
0.060079,
-0.003205,
0.017051,
-0.061204,
-0.045402,
-0.018797,
0.017331,
-0.013760,
-0.145370,
-0.101120,
0.005197,
-0.020414,
-0.023550,
0.052836,
0.083089,
0.025081,
0.073899,
0.192440,
-0.051583,
0.025592,
-0.075781,
0.013795,
0.006559,
-0.066309,
0.043600,
0.066438,
0.093854,
0.007740,
0.002379,
-0.049202,
-0.028461,
0.108130,
0.098372,
0.018778,
-0.037142,
0.029649,
-0.023300,
-0.068055,
0.038871,
-0.027048,
-0.013436,
0.054875,
-0.007019,
-0.022606,
-0.028536,
-0.004564,
0.031033,
-0.006167,
0.034093,
-0.005834,
0.006768,
-0.013041,
-0.008278,
0.051461,
-0.000300,
-0.054706,
-0.017852,
-0.052069,
-0.029990,
0.019273,
-0.036476,
0.004658,
-0.006275,
-0.010780,
-0.068773,
-0.069287,
-0.045189,
0.148330,
0.058114,
-0.092331,
0.056828,
0.073547,
0.028036,
-0.057815,
0.013603,
-0.064297,
0.099306,
0.129320,
0.073614,
0.106110,
0.058837,
0.079272,
0.052986,
0.011562,
0.124260,
-0.013960,
0.006069,
0.101660,
0.156840,
-0.101480,
-0.087531,
-0.039756,
0.001895,
-0.014984,
-0.072970,
-0.086497,
-0.132780,
-0.142710,
-0.123060,
-0.056139,
-0.100250,
-0.096027,
-0.142200,
-0.195240,
-0.079130,
-0.007555,
0.000144,
-0.012548,
-0.089240,
-0.230500,
0.010305,
-0.029703,
0.105320,
-0.018108,
-0.111780,
-0.102090,
-0.038345,
-0.153410,
-0.252570,
-0.019457,
0.023879,
0.035246,
0.018170,
-0.109550,
0.025230,
0.040598,
0.126520,
0.044248,
-0.071155,
0.029053,
0.085038,
0.112600,
0.010775,
-0.000465,
-0.127540,
0.062510,
0.100860,
-0.143340,
0.076522,
0.035042,
0.057289,
-0.026378,
0.019002,
0.032163,
0.187710,
0.158850,
0.082598,
0.026483,
0.086697,
0.165200,
0.127510,
0.091861,
-0.003007,
0.100800,
0.122880,
-0.004923,
-0.187830,
-0.060127,
0.128160,
-0.081339,
-0.088580,
-0.179770,
-0.106490,
0.031420,
0.047361,
0.009395,
0.031682,
0.181320,
0.048501,
0.098319,
0.106140,
0.110540,
0.174330,
0.006292,
0.000351,
0.122230,
-0.039665,
-0.012697,
0.175000,
-0.028430,
0.053590,
0.109020,
0.068120,
0.178640,
-0.078003,
-0.065394,
-0.094417,
-0.033574,
0.160130,
0.087162,
0.103630,
0.127730,
0.076032,
0.079449,
0.063993,
0.095115,
0.143590,
0.094903,
0.082188,
0.079738,
0.097778,
0.111990,
0.121640,
0.086192,
-0.030274,
0.048547,
0.050787,
-0.032399,
0.013634,
-0.113200,
-0.028604,
0.004457,
-0.050237,
-0.022930,
0.014729,
-0.022946,
-0.014435,
-0.029155,
0.036645,
0.017454,
-0.014679,
-0.022405,
-0.078037,
0.062524,
0.009227,
-0.028066,
-0.018450,
0.003983,
0.020588,
0.028598,
0.023842,
0.009775,
-0.011676,
-0.000029,
0.041914,
-0.004006,
-0.012875,
-0.020392,
-0.002822,
0.015063,
0.101220,
0.053982,
0.020524,
0.036690,
-0.118240,
-0.040111,
-0.031856,
-0.064003,
0.059317,
-0.053773,
-0.039765,
0.106080,
0.056777,
0.110440,
-0.092574,
0.005821,
0.201900,
0.040329,
0.104290,
-0.011400,
0.075010,
0.019225,
0.062887,
0.081919,
-0.104140,
-0.028760,
-0.009254,
-0.065972,
0.008152,
-0.078453,
-0.088697,
-0.037562,
-0.067818,
-0.008078,
0.043703,
0.003915,
0.037037,
0.024702,
-0.102980,
0.038187,
-0.000067,
0.008071,
0.019765,
-0.099705,
0.032645,
0.032011,
0.004685,
0.049689,
-0.123820,
0.003112,
-0.049691,
-0.011655,
0.024241,
0.016173,
0.030658,
0.038737,
-0.009987,
0.002274,
-0.000249,
0.030522,
-0.019989,
0.043361,
-0.006007,
0.005447,
0.053908,
0.009766,
0.031738,
0.003412,
0.011030,
0.013997,
0.029957,
-0.000500,
0.033491,
-0.018071,
0.152300,
0.048956,
0.176480,
0.114550,
0.067620,
0.111670,
0.000704,
0.017723,
-0.018960,
0.069468,
0.076985,
0.055050,
-0.025148,
0.033276,
0.063457,
0.043993,
-0.084813,
-0.118480,
-0.036615,
-0.001795,
0.138090,
-0.123880,
-0.218180,
-0.082801,
-0.123640,
-0.025972,
-0.067616,
0.003777,
-0.040932,
-0.081840,
-0.034274,
-0.026125,
-0.056299,
0.002851,
-0.085066,
-0.024263,
-0.035382,
0.025085,
0.025168,
-0.019806,
-0.049209,
-0.040327,
0.020516,
-0.011971,
-0.018679,
-0.058584,
-0.060302,
-0.037876,
-0.035313,
-0.009274,
-0.023877,
-0.002853,
-0.013235,
-0.005630,
0.006102,
0.010799,
0.018894,
-0.011423,
-0.010242,
-0.003777,
-0.004665,
-0.002671,
-0.021930,
-0.024268,
-0.021606,
0.020193,
0.024849,
-0.031027,
0.020738,
-0.009495,
-0.024441,
0.013342,
-0.004302,
-0.006866,
0.022514,
-0.070906,
-0.042716,
-0.028376,
-0.033389,
-0.005869,
-0.041047,
-0.046913,
-0.064479,
-0.034260,
-0.040777,
-0.041484,
-0.058167,
-0.040874,
-0.049399,
-0.040911,
-0.022651,
-0.071387,
-0.066749,
-0.015060,
0.001618,
-0.074534,
-0.033802,
-0.081602,
-0.054601,
-0.042359,
-0.027171,
-0.001536,
-0.028040,
0.010816,
-0.033453,
-0.027569,
0.023460,
0.023127,
-0.011205,
0.008961,
0.029898,
-0.000872,
0.030158,
-0.017899,
0.000726,
-0.023684,
0.001964,
-0.017720,
-0.026038,
0.025878,
0.038915,
-0.006164,
-0.038112,
-0.020605,
0.010448,
-0.017080,
-0.064950,
-0.074118,
-0.046841,
-0.070837,
-0.050981,
-0.026164,
-0.008920,
-0.054207,
-0.056255,
-0.047634,
-0.037091,
-0.022753,
-0.011209,
-0.022237,
0.000288,
-0.050700,
-0.042097,
-0.017351,
0.005829,
-0.059923,
-0.023465,
-0.017834,
-0.014757,
-0.049926,
-0.055752,
-0.059350,
-0.058724,
-0.073696,
-0.079047,
-0.090646,
-0.061287,
0.016234,
-0.026293,
-0.026044,
-0.099537,
-0.027405,
0.010611,
0.018097,
-0.013047,
-0.057061,
-0.018567,
-0.030609,
-0.012005,
-0.065246,
-0.077492,
-0.082457,
0.000146,
-0.044845,
-0.054850,
-0.061101,
-0.028015,
-0.008194,
0.009852,
-0.020717,
-0.090738,
-0.074074,
-0.028526,
-0.050132,
-0.023049,
-0.071742,
-0.073884,
-0.042916,
-0.011114,
-0.034144,
-0.020819,
-0.050609,
-0.053028,
-0.034908,
-0.025540,
-0.081294,
-0.030289,
-0.065051,
-0.009002,
-0.015005,
-0.030996,
-0.050556,
-0.060534,
-0.045731,
-0.029246,
-0.024701,
-0.048278,
-0.047278,
-0.054938,
-0.015659,
-0.026050,
-0.041591,
-0.041249,
-0.053059,
-0.024339,
-0.005266,
0.010059,
-0.032237,
-0.060229,
-0.085316,
0.011046,
-0.016406,
-0.040961,
-0.080971,
-0.041821,
-0.005202,
-0.069761,
-0.042659,
-0.079706,
-0.084817,
-0.083274,
-0.102680,
-0.075605,
-0.027648,
-0.014667,
-0.076175,
-0.088587,
-0.028754,
-0.070774,
-0.050842,
-0.095582,
-0.042972,
-0.052227,
-0.021821,
-0.016013,
-0.115250,
-0.061119,
-0.041654,
-0.034573,
-0.044408,
-0.050868,
-0.057554,
-0.041921,
0.030706,
0.009728,
-0.047751,
-0.015702,
-0.033985,
0.000408,
-0.049692,
-0.069875,
-0.092494,
-0.072570,
-0.010006,
-0.007189,
-0.065848,
-0.047903,
-0.066472,
-0.030927,
0.004165,
-0.075361,
-0.007827,
-0.063316,
-0.019730,
-0.056876,
-0.032870,
-0.051005,
-0.056323,
-0.070285,
0.027409,
-0.070530,
-0.084541,
-0.032129,
0.000481,
-0.001089,
-0.058627,
-0.071950,
-0.032420,
-0.027670,
-0.055362,
-0.060565,
-0.074409,
-0.054315,
-0.033835,
-0.029990,
-0.036754,
-0.055123,
-0.040383,
-0.062254,
-0.012940,
-0.000864,
0.017685,
0.019827,
-0.014766,
-0.061579,
-0.044904,
-0.067010,
-0.033893,
-0.012604,
-0.060577,
-0.050691,
-0.065385,
-0.032816,
-0.011550,
-0.002923,
0.004288,
0.017625,
-0.024520,
0.035437,
0.024652,
0.038499,
-0.018242,
0.024186,
-0.035264,
-0.002831,
-0.017498,
-0.010685,
-0.030626,
0.031036,
-0.062320,
0.027661,
-0.082005,
-0.059079,
-0.083990,
0.002547,
-0.078273,
-0.059373,
-0.032640,
-0.014334,
0.012123,
-0.091122,
-0.079180,
-0.062487,
-0.059314,
-0.054938,
-0.043212,
-0.018625,
-0.010763,
-0.000520,
0.004174,
-0.036094,
-0.045108,
-0.024798,
-0.015312,
-0.004093,
-0.029790,
-0.027272,
-0.032130,
-0.032619,
-0.024389,
-0.058091,
-0.116040,
-0.058664,
-0.006248,
0.002608,
-0.035484,
-0.032317,
-0.015008,
-0.013109,
-0.074374,
-0.054430,
-0.030833,
-0.019059,
-0.037430,
0.023603,
-0.027043,
-0.079687,
-0.052275,
-0.009984,
0.024839,
-0.040769,
-0.026551,
-0.045954,
-0.009802,
0.012152,
-0.048498,
-0.008125,
-0.029352,
-0.030661,
0.023573,
0.023292,
-0.041825,
-0.036946,
-0.008078,
0.019791,
-0.047157,
-0.076931,
-0.018151,
-0.013291,
0.041844,
-0.061643,
-0.060691,
-0.012002,
-0.053386,
-0.066237,
-0.089212,
-0.064683,
-0.016368,
0.009957,
0.000286,
-0.030682,
-0.005325,
-0.040130,
-0.028948,
-0.037395,
-0.049497,
-0.081081,
-0.019290,
-0.055037,
-0.061095,
-0.080436,
-0.010055,
-0.060701,
-0.038678,
-0.068071,
0.039219,
-0.013673,
0.021678,
0.012927,
-0.003299,
-0.038082,
-0.039896,
-0.017850,
0.006228,
0.026498,
0.012788,
-0.000656,
-0.019301,
-0.003780,
0.017919,
0.034728,
0.022281,
0.023211,
-0.004175,
-0.003982,
0.030359,
-0.019489,
-0.029426,
0.007018,
-0.016547,
-0.047693,
-0.021556,
-0.026606,
-0.010135,
-0.033843,
-0.065857,
0.018707,
-0.049179,
-0.005001,
-0.012683,
-0.014131,
-0.038537,
-0.001816,
-0.030311,
-0.048910,
-0.003570,
0.002429,
-0.035134,
-0.073985,
-0.002248,
-0.064393,
-0.012602,
-0.051260,
0.001744,
-0.031969,
-0.036910,
-0.033768,
0.002524,
0.005945,
-0.051623,
-0.031175,
-0.018345,
-0.044435,
0.000590,
-0.038639,
-0.028923,
-0.015711,
-0.010845,
-0.008016,
-0.039224,
-0.001491,
-0.022033,
-0.001105,
-0.074873,
-0.016102,
-0.040028,
-0.055365,
0.010990,
0.002122,
-0.038641,
-0.024284,
0.012271,
-0.007467,
-0.031077,
-0.008151,
0.034765,
-0.047572,
-0.011106,
-0.028979,
-0.007935,
-0.019252,
-0.046036,
-0.008122,
-0.008994,
-0.048312,
-0.009336,
-0.046284,
-0.013065,
0.005559,
-0.033133,
-0.044457,
-0.085045,
-0.003713,
-0.051302,
-0.032841,
-0.009307,
0.010049,
0.030866,
0.029851,
-0.009550,
0.014486,
-0.035314,
0.018944,
0.031426,
-0.009914,
0.001142,
0.000997,
0.025885,
0.031458,
-0.013224,
0.017690,
0.019326,
-0.009252,
-0.001315,
0.001419,
-0.032743,
-0.032821,
-0.029276,
0.007957,
-0.011621,
-0.054040,
-0.025694,
-0.012321,
-0.026303,
-0.030178,
-0.031396,
0.054067,
-0.004107,
-0.006667,
0.022894,
-0.010931,
0.033783,
0.006236,
-0.014028,
-0.037621,
0.032920,
0.049120,
-0.007487,
-0.036337,
-0.035977,
-0.062446,
-0.037544,
-0.037094,
-0.050399,
-0.064869,
-0.063193,
-0.036828,
0.016223,
-0.045042,
-0.060963,
-0.031733,
-0.024728,
-0.000667,
-0.061252,
-0.091296,
-0.014932,
-0.059871,
-0.024760,
-0.044604,
-0.019207,
-0.039226,
0.000035,
0.010198,
-0.041466,
-0.044426,
-0.033257,
0.010236,
0.040499,
0.013751,
-0.006531,
-0.056969,
-0.101110,
-0.086459,
-0.029767,
-0.065630,
0.001694,
-0.077392,
-0.056086,
-0.084599,
-0.070019,
-0.059324,
-0.018468,
-0.038005,
-0.023944,
-0.001963,
0.007526,
-0.052900,
0.013343,
-0.000865,
-0.050633,
-0.054104,
-0.008557,
-0.027578,
-0.010210,
-0.075576,
-0.029678,
-0.013392,
-0.006034,
-0.019905,
-0.034781,
-0.015857,
-0.003552,
-0.000989,
0.001265,
0.020610,
-0.047093,
-0.002599,
-0.039336,
0.028298,
-0.036555,
-0.006410,
-0.008054,
-0.013637,
0.003545,
0.012958,
-0.001593,
-0.002292,
-0.003125,
-0.013678,
-0.036329,
-0.011040,
-0.068970,
-0.031500,
-0.030433,
-0.026227,
-0.021183,
-0.052598,
-0.027279,
0.010958,
-0.020204,
-0.018442,
-0.033219,
-0.042741,
0.022169,
0.002838,
0.025612,
0.018464,
0.003845,
-0.034852,
-0.046536,
-0.078622,
-0.077099,
0.010168,
-0.017923,
-0.013012,
0.004344,
-0.044248,
-0.105600,
-0.042413,
-0.056963,
-0.053113,
-0.042845,
-0.040700,
-0.078186,
-0.047286,
-0.083671,
-0.055225,
-0.022560,
-0.054429,
-0.095087,
-0.044477,
-0.028482,
-0.065484,
-0.090461,
-0.091924,
-0.089935,
-0.061287,
-0.049888,
-0.030389,
-0.070218,
-0.021762,
-0.023273,
-0.001077,
-0.017523,
-0.032759,
0.001175,
-0.001396,
-0.006367,
-0.013629,
-0.033875,
-0.012460,
-0.010791,
-0.018015,
-0.022542,
-0.031524,
0.031526,
0.000099,
-0.004755,
-0.007621,
0.006810,
0.006548,
0.015274,
-0.017489,
-0.029018,
-0.030235,
-0.024823,
-0.053619,
0.017611,
0.060562,
-0.048111,
0.013024,
0.056736,
-0.036760,
-0.026314,
0.012536,
0.025261,
-0.092306,
-0.037889,
-0.021779,
-0.085970,
-0.025675,
-0.032699,
-0.040363,
-0.062046,
-0.065829,
-0.064152,
-0.009456,
-0.013834,
0.008238,
-0.024623,
-0.061389,
-0.041559,
-0.003057,
0.001061,
0.000992,
-0.051402,
-0.085955,
-0.028005,
-0.013831,
-0.034874,
-0.068749,
-0.034330,
-0.019320,
-0.044628,
-0.019768,
-0.066955,
-0.024417,
-0.033320,
-0.057656,
-0.006868,
-0.090668,
-0.038708,
-0.071762,
-0.000712,
-0.029079,
-0.022350,
0.010287,
-0.007356,
-0.012076,
-0.035537,
0.034676,
0.028842,
0.026846,
0.030676,
-0.027457,
-0.012091,
-0.003281,
-0.004347,
-0.020628,
0.012722,
0.025761,
0.006523,
-0.004588,
0.016186,
-0.001615,
0.032485,
0.029924,
-0.008675,
-0.012988,
-0.022518,
-0.063494,
-0.056298,
-0.016937,
-0.005352,
-0.007102,
-0.084683,
-0.026620,
-0.075462,
-0.074347,
-0.068360,
-0.086484,
-0.017982,
-0.022817,
-0.031183,
-0.045820,
-0.045186,
0.022103,
-0.042299,
-0.041282,
-0.057663,
-0.037921,
-0.033814,
-0.007455,
-0.052264,
-0.021733,
0.001128,
-0.027061,
-0.010882,
0.016348,
-0.006023,
0.009603,
0.009778,
-0.030709,
-0.035142,
-0.011513,
0.011635,
0.030290,
0.020500,
-0.006424,
0.006561,
-0.019650,
-0.026907,
-0.041323,
0.003259,
-0.005938,
-0.006810,
0.017577,
-0.035707,
-0.032615,
-0.020682,
-0.014510,
-0.003370,
0.010146,
-0.013731,
-0.016606,
0.018464,
0.008878,
0.010851,
-0.034019,
0.005424,
-0.000310,
0.012919,
-0.002923,
-0.033820,
-0.002249,
0.001713,
0.024292,
-0.003789,
0.024933,
0.002994,
-0.010070,
0.016126,
-0.021747,
0.031841,
-0.020388,
-0.008244,
0.018058,
0.016998,
-0.030474,
-0.011983,
-0.013072,
-0.012027,
-0.006094,
-0.011057,
-0.012659,
-0.028444,
-0.033822,
0.005919,
0.017469,
0.001342,
-0.013543,
0.002323,
-0.000775,
-0.038883,
-0.030296,
0.025467,
-0.033135,
-0.027135,
-0.015736,
-0.027341,
0.013415,
0.043328,
0.026618,
0.000881,
0.008834,
-0.029776,
0.013237,
-0.021585,
0.004644,
0.008807,
0.018039,
-0.001682,
-0.033422,
-0.022669,
0.021686,
0.032597,
-0.003216,
-0.014605,
0.018069,
0.009110,
-0.004779,
-0.011462,
-0.027861,
0.023144,
-0.019742,
0.007957,
0.004647,
-0.038870,
0.010025,
0.002798,
-0.002790,
-0.032790,
-0.034045,
0.018530,
-0.013124,
-0.035057,
0.007160,
0.006777,
0.014799,
-0.031612,
-0.015345,
-0.027339,
0.005995,
-0.037602,
-0.034560,
-0.013679,
0.016872,
-0.012814,
-0.042251,
-0.032389,
0.024441,
-0.034579,
-0.029590,
0.022609,
-0.008413,
0.004574,
0.008696,
-0.050066,
-0.009475,
-0.023203,
-0.001468,
-0.010750,
-0.034696,
-0.022499,
-0.017803,
-0.020846,
0.028220,
-0.016413,
-0.016932,
0.018143,
0.026174,
0.027661,
0.003074,
0.015119,
0.022682,
-0.024905,
0.005596,
0.006845,
-0.015253,
-0.015242,
-0.005074,
-0.001453,
-0.018636,
0.007694,
-0.042492,
0.009596,
-0.013290,
0.029853,
0.001924,
-0.003115,
0.017531,
-0.015240,
0.013868,
0.020805,
-0.007808,
-0.020387,
-0.022607,
-0.011535,
-0.027445,
-0.016135,
-0.030231,
0.002446,
-0.013746,
-0.036022,
0.025182,
-0.017320,
-0.002065,
-0.018170,
-0.031819,
-0.015454,
-0.004049,
-0.006024,
-0.049091,
-0.056029,
-0.023471,
-0.010468,
-0.014063,
-0.024300,
-0.049541,
-0.026028,
-0.023308,
0.000146,
-0.015743,
-0.006651,
0.024685,
-0.048066,
-0.007197,
0.014140,
-0.001927,
0.013962,
-0.022529,
-0.035344,
-0.008271,
0.006164,
-0.023667,
-0.013797,
-0.055217,
-0.017819,
-0.005198,
-0.044111,
0.004461,
-0.018830,
-0.007706,
-0.026803,
0.003411,
0.034208,
-0.023094,
-0.032202,
-0.011038,
-0.041164,
-0.009887,
0.008821,
-0.000980,
-0.002239,
0.004512,
-0.007247,
-0.005208,
0.022136,
-0.028230,
-0.027396,
-0.021637,
-0.018303,
-0.002355,
-0.034359,
-0.043732,
-0.015318,
-0.040672,
-0.021075,
0.004485,
-0.005311,
-0.013985,
0.036627,
0.001677,
-0.026481,
0.006687,
-0.005702,
-0.029663,
-0.010271,
-0.028349,
0.014413,
0.006814,
-0.000166,
0.026736,
0.015800,
-0.028498,
-0.043580,
0.000683,
-0.038188,
0.010016,
0.028268,
-0.024732,
0.016894,
-0.037497,
0.003843,
0.024971,
-0.029868,
0.018404,
-0.013449,
0.023634,
0.000867,
-0.002933,
-0.017518,
-0.010453,
-0.018570,
0.000474,
0.024447,
-0.029799,
0.029581,
0.029485,
-0.009760,
0.005767,
-0.009220,
-0.005974,
-0.002953,
-0.042542,
0.009416,
0.005799,
-0.040569,
-0.003970,
0.004363,
0.005139,
-0.034055,
-0.006548,
0.005857,
-0.018622,
-0.028638,
-0.004035,
0.007731,
-0.051367,
0.007862,
-0.010047,
-0.010195,
-0.012743,
0.002484,
0.009222,
-0.027720,
-0.008330,
-0.017837,
0.020384,
-0.000664,
-0.010657,
0.016106,
0.011299,
-0.000433,
-0.047199,
-0.015524,
-0.018908,
-0.010753,
-0.007590,
-0.014491,
-0.033925,
-0.016960,
0.002301,
0.025502,
-0.032602,
-0.019109,
-0.026424,
-0.008950,
0.018163,
-0.011434,
-0.032267,
-0.039456,
-0.032377,
-0.027480,
-0.001138,
-0.021314,
0.003983,
-0.022779,
-0.040682,
-0.011334,
-0.022100,
-0.009095,
0.006225,
0.010290,
-0.007501,
0.010326,
0.012315,
-0.029306,
-0.013453,
0.006785,
0.001144,
-0.015492,
-0.001480,
0.005335,
0.005188,
0.007214,
-0.033840,
-0.012636,
0.021995,
-0.008466,
-0.037590,
0.019246,
0.009024,
-0.003958,
-0.007794,
0.008895,
-0.025512,
0.021540,
-0.020941,
0.006932,
0.005093,
-0.028057,
-0.038492,
-0.032740,
-0.017614,
-0.017029,
-0.014126,
0.006965,
-0.001527,
0.000918,
-0.023473,
-0.039021,
-0.014824,
-0.043524,
-0.038119,
-0.020688,
-0.007287,
-0.041152,
-0.000929,
-0.035503,
0.001050,
-0.037141,
0.015470,
-0.026323,
-0.015334,
-0.029363,
0.014253,
-0.027548,
-0.032202,
-0.020594,
-0.002359,
0.016196,
-0.001650,
0.006146,
0.018863,
-0.024133,
-0.018530,
-0.028958,
-0.024974,
-0.020905,
0.012282,
-0.010897,
-0.027747,
-0.014985,
0.001599,
0.022678,
0.007302,
-0.014511,
0.035933,
-0.027419,
0.009951,
0.012884,
0.007755,
-0.028282,
0.001574,
0.030761,
0.019341,
-0.012565,
0.026889,
-0.000398,
0.020252,
0.019859,
0.000107,
-0.014137,
0.011363,
0.019816,
0.010793,
-0.028216,
-0.033389,
0.011803,
-0.024439,
-0.007546,
0.011815,
-0.002577,
-0.026645,
0.009709,
0.010637,
-0.017568,
-0.006933,
-0.027570,
0.023793,
-0.029386,
0.001105,
0.015651,
-0.025922,
-0.004590,
-0.000578,
0.018987,
-0.005587,
-0.007251,
-0.051073,
-0.021210,
0.000520,
-0.000425,
-0.004868,
0.001748,
-0.045301,
-0.029277,
-0.017460,
0.004656,
-0.012945,
-0.034511,
0.019309,
-0.012087,
0.031234,
0.013570,
0.006736,
0.028431,
-0.041528,
0.013965,
0.002389,
0.003218,
-0.011758,
0.030180,
0.009650,
-0.022209,
-0.054183,
-0.007900,
-0.033723,
0.004055,
-0.029559,
-0.024735,
0.022341,
-0.007917,
-0.020246,
-0.027841,
0.037126,
0.012777,
-0.001810,
0.014728,
-0.027244,
-0.034472,
-0.042151,
-0.015465,
0.045672,
-0.009654,
0.026825,
0.000886,
0.030121,
0.033330,
0.005664,
-0.003662,
-0.035240,
-0.041008,
-0.028580,
0.038158,
-0.002313,
0.002726,
-0.036735,
-0.005621,
-0.040194,
-0.002786,
-0.037181,
-0.011536,
0.026539,
0.002692,
-0.028534,
0.024931,
0.019074,
0.023933,
-0.002972,
-0.026767,
-0.008894,
-0.018976,
-0.034326,
0.005035,
-0.007363,
-0.017041,
0.013286,
-0.019775,
-0.038991,
0.000224,
-0.012262,
-0.029890,
-0.019970,
-0.030578,
-0.029063,
-0.022900,
-0.005189,
-0.018102,
-0.031811,
-0.042680,
0.002573,
-0.036878,
-0.044187,
0.020808,
-0.031255,
0.022874,
-0.034838,
-0.025178,
-0.032940,
-0.002519,
0.004940,
0.005993,
0.012771,
0.005236,
-0.001490,
-0.043370,
-0.039777,
0.004319,
-0.033302,
0.001785,
0.005245,
0.004041,
-0.013623,
-0.000105,
-0.026416,
0.028829,
-0.011616,
-0.030948,
-0.003696,
-0.008647,
0.008582,
-0.019383,
-0.023235,
0.024611,
-0.009966,
-0.029971,
-0.023504,
-0.023640,
-0.013198,
0.006260,
-0.032658,
0.012818,
-0.008326,
0.023785,
0.024872,
0.012659,
-0.020948,
-0.012317,
-0.020950,
0.001168,
-0.033374,
-0.018703,
-0.031931,
0.004895,
-0.023046,
-0.036757,
-0.001942,
-0.014599,
0.005251,
0.016456,
-0.036119,
-0.029269,
0.001528,
0.001193,
0.013232,
0.028029,
0.009080,
-0.024354,
0.018201,
-0.011387,
-0.027714,
-0.024724,
0.019121,
0.024217,
-0.023399,
-0.029325,
-0.022119,
0.025626,
0.010804,
0.018529,
-0.019588,
-0.003141,
-0.031175,
0.004048,
-0.025530,
-0.024267,
-0.011179,
-0.026700,
0.010552,
-0.041501,
-0.036485,
0.006204,
-0.023880,
-0.020167,
0.027762,
-0.036787,
-0.027837,
0.000375,
0.020727,
-0.029391,
0.023434,
0.020412,
0.011179,
-0.019537,
-0.010824,
-0.031969,
0.014586,
0.020919,
-0.040609,
-0.022117,
0.026656,
0.030214,
0.009447,
0.026047,
-0.040260,
-0.000637,
-0.021486,
0.016053,
-0.023696,
0.000185,
-0.022903,
0.019514,
0.031689,
0.024949,
0.021478,
-0.020393,
-0.011944,
-0.022047,
-0.036417,
0.011808,
-0.011513,
-0.018746,
-0.036806,
-0.012519,
-0.041513,
0.001705,
-0.033132,
0.015671,
-0.030922,
0.021570,
-0.027787,
-0.029001,
0.001246,
-0.049751,
-0.043642,
-0.051490,
-0.030080,
0.026428,
-0.001700,
0.003016,
-0.006957,
-0.025999,
-0.005413,
-0.021792,
-0.008576,
-0.017542,
0.011869,
-0.008017,
0.017763,
-0.051037,
-0.018221,
-0.022649,
-0.036314,
-0.002047,
-0.005643,
0.016033,
-0.038408,
0.000231,
-0.010075,
-0.027531,
-0.020778,
-0.006212,
0.012694,
-0.027210,
-0.006404,
-0.010552,
-0.012935,
0.009769,
-0.023944,
-0.014606,
-0.028080,
-0.013855,
-0.007022,
-0.008586,
-0.003312,
-0.037564,
0.027316,
0.004901,
0.017954,
-0.023276,
0.025989,
0.006601,
0.017158,
0.024314,
0.002028,
0.013526,
0.020876,
-0.020706,
0.022766,
-0.012238,
-0.000939,
0.031012,
0.009375,
0.037123,
-0.016152,
0.026433,
-0.009429,
-0.029727,
0.006137,
0.017889,
0.003922,
0.008816,
-0.027231,
-0.020609,
-0.016255,
0.031997,
-0.008635,
0.019785,
-0.031221,
-0.023456,
0.031050,
-0.022839,
0.015554,
0.002122,
-0.006233,
0.003927,
0.004472,
-0.010591,
-0.045010,
0.011873,
0.023256,
-0.032137,
0.020426,
-0.024114,
-0.005550,
0.011017,
-0.041689,
-0.006168,
0.004012,
0.013183,
-0.032348,
-0.016451,
0.014822,
-0.011028,
0.009768,
-0.012879,
0.009906,
-0.002417,
-0.035330,
-0.040086,
-0.024215,
0.007073,
-0.052499,
-0.037330,
-0.040011,
-0.017186,
-0.029819,
-0.004930,
-0.058998,
-0.050005,
-0.034918,
-0.005697,
-0.038853,
-0.041333,
-0.032323,
-0.024506,
-0.035247,
-0.045322,
-0.008379,
-0.009503,
0.021980,
-0.012606,
0.003092,
-0.024062,
0.010244,
-0.001393,
-0.036087,
0.013548,
-0.006244,
0.017473,
-0.006511,
-0.003632,
0.005884,
-0.004044,
-0.013789,
-0.019571,
-0.033947,
0.028795,
-0.035872,
-0.001450,
0.024913,
0.013976,
-0.029816,
0.007048,
-0.045861,
-0.003073,
0.023141,
-0.003849,
-0.000945,
-0.013885,
0.013526,
-0.020348,
-0.003952,
0.003510,
0.019210,
0.021437,
0.002116,
-0.013220,
-0.032815,
0.004837,
-0.019381,
-0.039612,
-0.037211,
-0.015525,
-0.007307,
0.033150,
0.000050,
0.009496,
-0.014291,
-0.012088,
0.008153,
0.031822,
0.036906,
0.022922,
0.033540,
0.010882,
0.011977,
0.007441,
-0.002462,
-0.022102,
-0.003938,
-0.001207,
0.003765,
0.023017,
-0.014485,
0.034495,
0.023843,
0.037528,
-0.020205,
-0.025855,
0.002638,
-0.025163,
-0.005261,
0.018246,
0.019167,
-0.031167,
-0.014153,
0.023880,
0.050040,
0.001551,
-0.041075,
-0.005580,
-0.018031,
-0.004644,
-0.018657,
-0.013899,
-0.006254,
-0.015539,
0.038424,
-0.033872,
-0.012729,
-0.051640,
-0.010607,
0.033984,
0.037477,
-0.002333,
0.029122,
0.005032,
0.004956,
-0.017982,
-0.027329,
-0.033827,
0.003458,
-0.021645,
0.010065,
0.014249,
-0.003265,
-0.068185,
0.015061,
-0.000074,
-0.029350,
-0.024740,
-0.075112,
-0.027620,
-0.039775,
0.004756,
-0.011588,
-0.045908,
-0.011500,
0.012996,
-0.014123,
-0.042962,
-0.028641,
-0.037094,
-0.009404,
-0.015326,
0.008504,
0.026916,
-0.035116,
-0.031952,
-0.047595,
-0.003755,
-0.002552,
-0.033890,
-0.021822,
0.011417,
-0.046989,
-0.053727,
0.019856,
-0.016763,
-0.008052,
-0.027721,
-0.036789,
-0.005661,
0.031525,
-0.021502,
0.007615,
-0.028640,
-0.019125,
0.003826,
-0.030647,
-0.028486,
-0.012760,
0.013753,
-0.017140,
-0.040243,
-0.025943,
-0.000125,
0.021310,
0.026351,
0.012461,
0.002132,
-0.012741,
-0.004727,
-0.000404,
0.014732,
-0.032637,
-0.024042,
-0.047813,
-0.040143,
0.010696,
-0.005331,
-0.017794,
-0.041464,
0.016786,
-0.009360,
0.003479,
-0.005289,
-0.026385,
-0.036004,
-0.029467,
-0.003577,
-0.005503,
-0.019911,
-0.038504,
0.032594,
-0.017608,
-0.022990,
-0.016407,
-0.009985,
-0.044376,
0.011576,
0.023831,
-0.028961,
-0.018926,
-0.010297,
-0.051314,
-0.010801,
0.017115,
0.006335,
-0.016603,
0.010224,
-0.013145,
0.002132,
-0.047347,
0.003877,
-0.041399,
-0.046682,
-0.026414,
-0.038085,
-0.027227,
-0.020418,
-0.027048,
-0.012620,
-0.041658,
-0.051122,
-0.055556,
-0.049568,
-0.016127,
-0.019137,
-0.021825,
-0.057221,
-0.060564,
0.015103,
-0.028158,
-0.032289,
-0.013566,
-0.040427,
-0.042111,
-0.034041,
-0.040384,
0.009740,
-0.014216,
0.001493,
-0.004035,
-0.059357,
-0.023428,
-0.015295,
0.012963,
-0.028277,
-0.036088,
-0.014724,
-0.036929,
-0.018773,
0.011250,
-0.026755,
-0.016357,
-0.060418,
-0.008445,
-0.021270,
-0.007869,
-0.028645,
-0.048994,
0.003880,
-0.038508,
-0.027503,
0.001592,
-0.027168,
-0.039553,
-0.003275,
-0.052712,
0.035222,
-0.002955,
-0.071897,
-0.064980,
-0.044917,
-0.002015,
0.002668,
0.014395,
-0.071887,
-0.038516,
0.033918,
-0.015543,
-0.054265,
0.000054,
-0.050485,
-0.012810,
-0.055945,
-0.053017,
-0.016880,
-0.036359,
-0.011525,
0.016703,
-0.026700,
-0.047687,
-0.045153,
0.015230,
0.012934,
-0.010403,
0.037062,
-0.019598,
-0.031332,
-0.007928,
-0.005873,
-0.007321,
0.036537,
-0.015635,
-0.025198,
-0.001318,
-0.034686,
-0.008378,
-0.002982,
0.007149,
-0.030985,
-0.050241,
-0.046571,
-0.063123,
-0.016035,
-0.004514,
-0.030459,
-0.053492,
0.003437,
-0.007458,
-0.045599,
-0.051992,
-0.067567,
-0.050871,
-0.046343,
-0.025595,
0.001106,
-0.050312,
-0.047547,
-0.041381,
-0.037040,
-0.004118,
0.022399,
0.000665,
-0.003099,
0.019380,
0.023840,
-0.006988,
-0.051138,
-0.053146,
-0.004570,
-0.047496,
0.007614,
-0.048943,
-0.007347,
-0.027845,
-0.010564,
-0.021780,
-0.043770,
-0.005004,
-0.013343,
-0.045393,
-0.015304,
-0.053557,
-0.020865,
0.018292,
0.017606,
0.011966,
-0.018526,
0.017955,
-0.032119,
-0.001964,
0.030383,
-0.031432,
0.000598,
0.010168,
0.010152,
-0.022734,
-0.038655,
0.025912,
-0.012148,
0.007064,
-0.002598,
0.003941,
-0.011026,
-0.044336,
-0.041239,
-0.024755,
-0.010801,
-0.006039,
0.005647,
0.006937,
0.013763,
0.028557,
-0.001395,
0.025640,
0.016515,
-0.011877,
0.021857,
0.009924,
0.025362,
-0.000069,
0.016680,
0.027163,
-0.028691,
0.004571,
-0.015457,
-0.008762,
-0.025386,
-0.027250,
-0.012282,
0.015615,
0.045638,
-0.022781,
-0.031828,
-0.004674,
-0.042030,
0.001851,
-0.027270,
0.006133,
0.009684,
-0.017042,
-0.026337,
-0.012145,
0.011336,
0.011772,
0.009103,
-0.024307,
-0.028935,
-0.000412,
0.008537,
-0.020249,
0.044468,
0.026177,
0.023252,
-0.009743,
0.049102,
0.008108,
0.038243,
-0.027595,
-0.052196,
-0.012796,
0.012114,
-0.018689,
-0.050146,
-0.032794,
-0.022199,
-0.031850,
-0.026050,
-0.045728,
-0.027912,
-0.052481,
-0.040539,
-0.034738,
-0.038052,
0.022821,
0.038694,
0.016126,
-0.002395,
-0.019306,
-0.002255,
-0.005878,
-0.021526,
0.002648,
-0.034661,
-0.008076,
0.004730,
-0.031513,
0.019133,
-0.001371,
-0.042658,
-0.016063,
0.012907,
-0.041712,
-0.028101,
-0.016975,
0.023292,
-0.045180,
-0.007563,
-0.015931,
-0.007048,
-0.010647,
-0.001709,
-0.051810,
-0.053175,
-0.025515,
0.019785,
-0.029765,
-0.017769,
-0.018278,
0.020613,
0.008076,
0.033731,
-0.033492,
0.007380,
-0.013250,
-0.005147,
0.033772,
0.014330,
-0.035307,
-0.039841,
-0.013720,
0.006430,
0.015229,
-0.009791,
0.002706,
-0.009799,
-0.025255,
-0.012071,
0.018879,
-0.013004,
-0.009393,
-0.023037,
-0.032909,
0.023550,
-0.048320,
-0.052602,
-0.034179,
-0.014015,
-0.034300,
-0.005602,
-0.018334,
-0.039807,
-0.039410,
-0.055704,
-0.002149,
-0.037632,
-0.068346,
-0.073965,
-0.056020,
0.010711,
-0.016959,
-0.058221,
-0.013938,
0.006042,
0.036004,
-0.005978,
-0.026210,
-0.028060,
0.024314,
-0.043031,
0.030489,
0.015191,
-0.066955,
-0.049216,
0.012668,
0.008884,
-0.009196,
-0.025519,
-0.025124,
-0.050749,
0.032523,
-0.029900,
-0.002647,
-0.056970,
-0.003955,
0.015992,
-0.048588,
-0.017523,
0.007903,
-0.010618,
0.009955,
-0.020452,
-0.032805,
0.022260,
-0.002699,
0.009284,
-0.035939,
-0.040952,
0.005171,
0.002917,
-0.021383,
-0.011968,
0.017456,
-0.032918,
0.010543,
0.028438,
-0.011708,
-0.022589,
-0.023538,
0.008852,
0.022120,
-0.024442,
-0.006818,
-0.024945,
0.024941,
0.012509,
0.003469,
-0.060263,
-0.033989,
-0.029107,
-0.003207,
-0.017759,
-0.045037,
-0.029761,
-0.002863,
-0.029267,
-0.037357,
-0.009541,
0.009563,
-0.003839,
-0.037727,
-0.041657,
-0.001216,
-0.003599,
-0.062070,
-0.016870,
-0.076029,
-0.013711,
-0.038187,
-0.038362,
-0.032132,
0.010639,
0.025629,
-0.021163,
-0.059527,
-0.021228,
-0.000730,
-0.024436,
-0.020148,
