0.006391,
-0.002437,
0.012572,
0.014400,
-0.030008,
-0.021943,
0.000175,
-0.039245,
0.022859,
-0.003466,
0.006915,
-0.038161,
0.025615,
-0.020826,
0.017027,
-0.034326,
-0.037129,
-0.031720,
-0.041907,
-0.014545,
-0.025860,
0.017986,
0.015250,
0.006539,
-0.021965,
-0.018627,
-0.014385,
-0.018488,
0.043960,
-0.022730,
0.015166,
-0.010925,
0.006870,
0.011113,
0.016001,
-0.020359,
0.028761,
-0.024999,
-0.037469,
-0.028650,
0.012872,
-0.011950,
-0.014790,
-0.022318,
-0.005221,
-0.032236,
-0.013312,
0.000469,
0.027820,
-0.024196,
0.002663,
-0.043449,
0.016440,
-0.003635,
-0.035253,
0.024865,
-0.000191,
0.014160,
-0.037803,
0.008265,
0.012215,
0.007770,
0.013678,
-0.040264,
-0.005971,
0.012325,
-0.036821,
0.020787,
-0.038246,
-0.015075,
-0.000898,
0.016068,
-0.030509,
0.010334,
0.007449,
-0.015177,
0.027222,
0.002953,
-0.008178,
-0.034500,
-0.034383,
-0.020731,
0.026119,
-0.016842,
-0.016777,
-0.039976,
-0.008042,
-0.011936,
-0.026803,
0.014159,
-0.026771,
0.008727,
-0.008265,
0.000347,
0.027944,
-0.006902,
-0.028293,
0.001520,
0.005704,
0.017008,
0.015084,
-0.032010,
-0.008355,
-0.008316,
0.011447,
-0.002718,
0.025420,
-0.030948,
-0.049378,
-0.005045,
-0.037468,
0.010116,
0.009145,
-0.056240,
-0.038158,
0.020295,
-0.000672,
-0.014220,
-0.003388,
-0.043223,
0.011275,
-0.026301,
-0.002926,
0.007832,
-0.026808,
-0.003178,
-0.029937,
-0.035895,
-0.037129,
0.006061,
-0.026772,
0.023017,
0.028533,
-0.002212,
0.007709,
0.005134,
0.001579,
-0.003410,
0.019793,
-0.009671,
0.004829,
-0.014602,
0.003164,
-0.038259,
-0.007468,
-0.021919,
-0.033436,
-0.025467,
-0.035993,
-0.038201,
0.002125,
-0.029451,
0.007750,
-0.004386,
-0.009933,
0.006414,
0.022213,
-0.031411,
-0.003923,
0.008535,
-0.027203,
0.021171,
0.003369,
0.001437,
-0.002540,
-0.009558,
-0.004737,
-0.022035,
0.015207,
0.021586,
0.007438,
0.014503,
0.018891,
-0.001438,
-0.029943,
0.014725,
-0.020689,
0.021251,
0.008685,
0.023933,
0.027236,
0.019505,
-0.038308,
-0.011172,
0.014892,
-0.040147,
-0.020869,
0.001106,
-0.009494,
0.002466,
0.017342,
-0.035294,
-0.043031,
0.001279,
0.008990,
-0.029354,
-0.018651,
-0.039107,
-0.031481,
-0.014543,
0.025675,
-0.010961,
-0.008734,
-0.016760,
-0.026618,
-0.028905,
-0.029099,
0.025318,
-0.007808,
-0.005957,
0.026493,
-0.028551,
-0.028458,
-0.020647,
-0.004072,
-0.015985,
-0.001235,
0.011127,
0.009331,
-0.022627,
0.015931,
-0.031304,
0.015380,
0.029473,
0.030979,
0.024096,
-0.024024,
0.002999,
-0.032584,
-0.012208,
0.000482,
-0.051702,
0.003758,
0.025368,
0.022221,
-0.045021,
-0.036970,
-0.005353,
0.033876,
0.012382,
-0.005409,
0.005552,
-0.000116,
-0.036655,
-0.042156,
0.012631,
-0.040719,
-0.021048,
-0.052544,
-0.050784,
0.027984,
0.004426,
0.020343,
-0.009585,
-0.022746,
0.027134,
-0.039931,
-0.027679,
-0.004270,
-0.034232,
-0.034553,
-0.005073,
-0.029973,
-0.037052,
-0.017473,
0.002181,
0.002578,
-0.021750,
-0.012346,
-0.007429,
0.027363,
0.016438,
-0.007820,
-0.034467,
0.004197,
-0.034608,
-0.039533,
-0.012232,
-0.010188,
0.014971,
-0.012465,
-0.011685,
-0.010806,
-0.001435,
0.025730,
0.011757,
-0.033054,
0.019653,
0.014068,
-0.004219,
-0.009674,
0.022100,
0.020753,
0.003749,
-0.010845,
-0.014975,
0.026348,
-0.033542,
0.005180,
0.019926,
-0.021151,
0.015873,
-0.008786,
-0.005563,
-0.018697,
-0.033466,
-0.016526,
-0.043904,
-0.032056,
0.031682,
0.001819,
-0.004498,
0.019989,
-0.013063,
-0.030536,
-0.013951,
-0.009773,
-0.019005,
-0.025461,
-0.026496,
-0.037051,
0.025390,
-0.032423,
-0.015299,
0.025111,
-0.022219,
-0.016111,
-0.047473,
-0.020320,
-0.035158,
-0.038664,
0.017064,
-0.000310,
-0.007875,
0.024319,
-0.040847,
-0.013786,
-0.033829,
0.012182,
0.019037,
0.002287,
-0.003174,
0.017854,
-0.012891,
-0.010334,
-0.013338,
-0.024351,
-0.030315,
0.017051,
-0.014044,
-0.034852,
-0.028184,
0.007460,
-0.027617,
0.001525,
0.001334,
0.003663,
-0.017395,
-0.038650,
-0.011407,
-0.040774,
0.001624,
0.014339,
0.011775,
0.016003,
-0.004216,
0.003357,
0.017312,
-0.010366,
0.007724,
-0.022769,
-0.020584,
-0.003150,
-0.018949,
-0.027848,
-0.011836,
-0.015749,
-0.021514,
-0.015068,
0.011740,
-0.019176,
0.008875,
-0.003787,
-0.004936,
-0.018488,
-0.026331,
0.003538,
0.016543,
0.006243,
-0.022997,
-0.015272,
-0.000042,
0.015865,
-0.004001,
-0.019521,
-0.020747,
0.036076,
-0.032978,
0.010466,
0.009057,
-0.016207,
-0.014478,
0.042036,
-0.000388,
-0.025051,
-0.001300,
-0.024241,
-0.005453,
0.033050,
-0.005729,
-0.006233,
-0.029146,
-0.005693,
-0.010702,
-0.001349,
-0.003764,
-0.011539,
-0.013832,
-0.008182,
-0.020516,
-0.035330,
-0.027880,
0.013863,
0.016834,
0.001190,
0.018356,
-0.003179,
-0.023349,
-0.003321,
-0.018102,
-0.039729,
-0.032314,
-0.000745,
0.012620,
0.020842,
0.008832,
0.017023,
0.005322,
-0.018671,
-0.039256,
0.006503,
0.024969,
0.020612,
0.010166,
-0.014242,
-0.027314,
0.000456,
-0.018067,
0.016729,
-0.018155,
-0.031382,
-0.048310,
-0.013206,
-0.014046,
0.009074,
-0.027101,
0.023107,
0.001669,
0.013761,
0.014052,
-0.013296,
0.011617,
-0.016567,
-0.026993,
-0.014958,
0.017697,
-0.025983,
-0.020075,
0.006240,
-0.021277,
-0.019786,
0.004980,
-0.007101,
0.014139,
-0.014240,
-0.026718,
-0.013732,
0.012913,
-0.011330,
-0.014253,
-0.008432,
0.017906,
-0.041737,
-0.026596,
-0.006382,
-0.034449,
0.025757,
0.018171,
0.009905,
-0.013421,
-0.023844,
-0.031896,
-0.007940,
-0.010946,
0.007234,
0.006883,
0.004328,
-0.039877,
0.006700,
-0.029518,
0.009640,
0.026912,
-0.034923,
0.015705,
0.034835,
0.009709,
0.028114,
0.028258,
-0.027159,
-0.001736,
-0.022535,
-0.019783,
-0.002852,
-0.015038,
-0.026143,
0.012965,
-0.029295,
0.017471,
-0.003323,
-0.011328,
-0.031716,
-0.017045,
-0.034692,
-0.032321,
0.034300,
0.024527,
-0.011525,
0.000750,
-0.010433,
-0.025231,
0.016250,
0.029420,
0.025251,
0.006054,
-0.032270,
0.023313,
-0.030377,
-0.026744,
0.017303,
0.017624,
0.008008,
0.011911,
-0.037475,
-0.019225,
0.000605,
0.019025,
-0.032599,
-0.017018,
-0.019888,
-0.031897,
-0.043804,
0.026640,
-0.035378,
0.003703,
-0.005672,
-0.031478,
-0.017679,
-0.039831,
0.004207,
-0.013971,
0.011544,
-0.036214,
-0.044295,
0.003189,
-0.026424,
-0.045320,
0.008773,
-0.039484,
-0.027433,
-0.036213,
0.005075,
-0.024727,
-0.043003,
0.019864,
-0.002172,
-0.026606,
-0.029259,
0.018041,
0.002278,
-0.001412,
0.004041,
0.006627,
-0.028935,
0.018738,
-0.047701,
-0.037689,
-0.001827,
-0.009504,
0.000610,
-0.037357,
-0.032152,
0.004924,
-0.014087,
0.007119,
-0.029322,
-0.006718,
-0.038903,
0.017339,
-0.015671,
-0.029976,
-0.028157,
-0.000428,
0.011910,
-0.008604,
0.029613,
-0.039194,
-0.013636,
-0.021196,
-0.039449,
0.031322,
-0.012801,
-0.012848,
0.016427,
0.006305,
0.010001,
-0.030521,
-0.005223,
-0.045794,
0.013151,
-0.002958,
-0.031692,
0.010557,
0.007744,
0.022700,
0.002107,
0.014949,
-0.013990,
-0.023538,
-0.016357,
0.006179,
0.008672,
-0.034549,
-0.002116,
-0.027801,
0.010055,
-0.030511,
0.027058,
0.000469,
-0.013747,
-0.013612,
-0.026993,
-0.041880,
-0.002093,
-0.005661,
-0.008696,
0.005997,
-0.029327,
0.004545,
0.009381,
0.021235,
-0.011240,
-0.029537,
0.016085,
0.022151,
-0.000716,
-0.037811,
-0.023850,
0.003609,
-0.037632,
-0.021610,
-0.020522,
0.008988,
-0.026013,
-0.016001,
-0.014662,
-0.020013,
-0.025895,
-0.006005,
-0.033110,
-0.004980,
-0.038692,
-0.039697,
-0.012625,
-0.036804,
0.007686,
-0.006923,
-0.029093,
0.018328,
0.025960,
-0.001544,
0.003448,
-0.004583,
0.015374,
-0.021604,
-0.029459,
0.011219,
-0.011889,
0.001522,
0.007095,
0.024412,
0.007351,
-0.003217,
-0.017720,
0.009736,
-0.021386,
0.001065,
-0.036456,
-0.036008,
-0.014697,
-0.014375,
0.020890,
0.012061,
-0.026827,
-0.003177,
0.033830,
-0.025158,
-0.000136,
-0.003260,
-0.003826,
-0.037328,
0.015101,
-0.009760,
-0.022030,
-0.009484,
0.027783,
0.009192,
0.030253,
-0.000240,
-0.034047,
0.012123,
-0.015480,
0.019838,
0.005573,
-0.042736,
-0.022790,
-0.027785,
0.016855,
0.001396,
0.013771,
0.012156,
-0.017937,
-0.024058,
-0.044310,
-0.010669,
0.015538,
0.017477,
-0.005470,
0.015449,
-0.003579,
0.005670,
0.008917,
0.010269,
-0.021952,
0.008851,
-0.006706,
-0.005284,
-0.004172,
-0.013653,
-0.005376,
-0.042617,
0.028462,
0.010287,
0.003663,
0.035147,
0.035888,
0.034537,
0.007197,
-0.013979,
-0.002997,
-0.005432,
-0.032265,
0.021883,
-0.022299,
0.018932,
0.021561,
0.004642,
0.033419,
0.010391,
-0.002465,
-0.011287,
-0.033958,
-0.014655,
-0.012651,
-0.031232,
-0.033165,
-0.006719,
0.020223,
-0.046715,
-0.034455,
-0.028669,
0.012753,
-0.002999,
0.021433,
-0.045510,
-0.024977,
-0.010581,
0.010271,
0.021476,
-0.008349,
-0.020160,
0.003217,
-0.036479,
-0.003000,
-0.040708,
-0.009275,
-0.031618,
-0.027070,
0.027038,
0.009977,
0.008352,
-0.038019,
-0.036451,
0.017760,
-0.026889,
0.000096,
0.017800,
-0.026702,
-0.004204,
-0.038543,
-0.021457,
-0.013780,
-0.017689,
0.024464,
0.015135,
-0.027584,
-0.063870,
-0.027544,
0.005113,
-0.032392,
-0.069172,
-0.047224,
0.010670,
-0.023344,
-0.029877,
-0.049470,
-0.039309,
-0.001928,
-0.040153,
-0.004627,
-0.002082,
0.006164,
-0.033734,
-0.019012,
-0.028184,
0.027875,
-0.003163,
0.016622,
-0.024748,
-0.024694,
-0.027727,
0.020037,
-0.020440,
0.015996,
-0.009367,
-0.011626,
0.015969,
-0.003793,
0.022404,
-0.026274,
-0.003009,
0.027653,
-0.023966,
-0.018643,
-0.017349,
0.011570,
-0.022734,
-0.036945,
0.031533,
-0.035269,
-0.029493,
-0.014910,
-0.007003,
-0.029093,
-0.015839,
0.002884,
0.000874,
-0.027592,
-0.001987,
-0.001813,
-0.017453,
-0.034008,
-0.000359,
0.006749,
-0.003789,
-0.005104,
-0.024510,
0.004396,
0.006707,
-0.007368,
0.003059,
-0.002734,
0.016495,
-0.028700,
0.018051,
-0.003397,
0.011793,
0.005335,
-0.022969,
-0.007773,
-0.020589,
-0.038309,
0.022028,
0.013433,
-0.021794,
-0.009514,
-0.036239,
-0.023328,
-0.008604,
-0.014049,
-0.005533,
0.016381,
-0.009456,
-0.035847,
0.000116,
-0.001027,
0.026211,
-0.019039,
-0.011436,
-0.049757,
-0.015220,
-0.032590,
-0.052106,
-0.001694,
-0.053176,
-0.027116,
-0.015090,
-0.012063,
-0.044718,
-0.052818,
-0.031330,
-0.022984,
0.009982,
-0.047108,
-0.062155,
-0.004411,
-0.047346,
-0.016786,
0.022443,
-0.024680,
-0.038724,
-0.012517,
-0.007755,
-0.027685,
0.029877,
-0.023108,
-0.005653,
0.012600,
-0.033439,
0.027043,
-0.041378,
0.023860,
0.013793,
-0.007966,
0.001346,
0.016055,
0.023935,
-0.001341,
-0.017868,
0.005643,
-0.022829,
-0.014888,
-0.047986,
-0.070045,
-0.014476,
-0.025405,
-0.011619,
-0.020923,
-0.054970,
0.021520,
0.010275,
-0.065172,
-0.007322,
-0.014461,
-0.003071,
0.019688,
-0.062032,
-0.048117,
0.030952,
0.027318,
-0.019938,
-0.024348,
-0.049853,
-0.002883,
-0.008775,
0.003699,
-0.007867,
0.019074,
-0.032849,
-0.026068,
0.022015,
-0.003804,
-0.002992,
-0.006457,
-0.000383,
-0.012411,
-0.020267,
0.004228,
-0.000668,
-0.011334,
-0.034115,
0.027505,
0.031307,
0.000011,
-0.011190,
-0.001149,
-0.001564,
-0.010214,
-0.026385,
0.018320,
-0.021224,
-0.017745,
0.010616,
-0.036516,
-0.042412,
-0.056654,
-0.022258,
0.004187,
-0.027438,
-0.032427,
-0.013698,
0.018851,
-0.035392,
0.002503,
-0.030588,
-0.004534,
0.026263,
0.007094,
-0.011168,
0.028864,
-0.045192,
0.016940,
-0.035597,
-0.008369,
-0.031726,
-0.062914,
-0.056958,
0.015402,
-0.010676,
0.020765,
-0.014463,
0.013939,
-0.024955,
-0.019373,
-0.023094,
0.015975,
-0.028574,
-0.049395,
-0.046970,
0.004104,
-0.019481,
-0.025006,
-0.063419,
-0.041095,
-0.001037,
-0.033605,
-0.001051,
-0.026460,
-0.035854,
-0.040735,
-0.047621,
-0.018055,
-0.034769,
-0.007564,
0.003134,
-0.026801,
-0.036588,
-0.011024,
-0.065392,
-0.037572,
-0.028116,
-0.001105,
-0.026270,
-0.002993,
-0.004729,
-0.038358,
0.020447,
0.012956,
0.002974,
-0.016231,
-0.023098,
-0.042110,
-0.035201,
-0.030523,
-0.032659,
-0.026364,
-0.009969,
-0.022353,
-0.025830,
0.018189,
-0.034095,
-0.004808,
0.001452,
-0.006894,
-0.036037,
-0.011953,
-0.034734,
-0.037712,
-0.032392,
-0.039631,
-0.060460,
-0.049031,
-0.009739,
-0.013079,
-0.008288,
-0.029398,
-0.053399,
-0.009555,
-0.032863,
-0.007442,
-0.034200,
0.000171,
-0.017357,
-0.006182,
-0.028386,
-0.038686,
-0.027015,
-0.040328,
-0.032467,
-0.007542,
-0.061953,
-0.029663,
0.018863,
0.007039,
-0.040677,
-0.007980,
0.003215,
-0.004128,
-0.016544,
-0.062294,
-0.018471,
0.006434,
-0.021750,
-0.006764,
-0.012795,
-0.067094,
-0.018270,
-0.038914,
-0.056315,
-0.040592,
0.019783,
-0.031360,
-0.044255,
-0.024001,
-0.002200,
-0.010139,
-0.018228,
-0.034261,
-0.021116,
0.001659,
-0.016925,
-0.066977,
-0.047784,
-0.022877,
-0.010797,
-0.015337,
-0.039934,
-0.032755,
-0.055360,
-0.000861,
0.007009,
-0.020782,
-0.040926,
-0.031059,
-0.036468,
-0.005435,
-0.008946,
-0.063126,
-0.001187,
-0.037916,
-0.032962,
-0.018734,
-0.029812,
-0.029466,
-0.044198,
-0.029184,
-0.028151,
0.008056,
-0.027400,
-0.056128,
-0.027420,
-0.018666,
-0.008414,
-0.027288,
-0.001749,
-0.064728,
-0.013693,
-0.030055,
-0.048068,
0.006955,
-0.016974,
0.021308,
-0.045531,
-0.037181,
-0.015861,
-0.017837,
0.011684,
-0.003480,
0.002664,
0.028075,
-0.040111,
-0.002611,
-0.017454,
-0.027946,
-0.034498,
-0.015062,
0.007589,
0.003102,
0.011394,
-0.015372,
-0.004824,
0.018753,
-0.012265,
-0.024163,
0.003391,
0.005096,
-0.011227,
-0.018593,
0.015442,
-0.010281,
-0.006496,
0.000228,
-0.010223,
0.020677,
0.026891,
-0.014925,
0.004831,
0.003849,
-0.006233,
-0.031730,
-0.011127,
0.017220,
-0.028695,
-0.002218,
0.026116,
-0.034753,
0.011056,
0.020314,
-0.017382,
-0.050150,
-0.057125,
-0.069622,
-0.001099,
-0.005852,
0.016317,
-0.059979,
0.005815,
-0.021972,
-0.053571,
0.026995,
-0.033316,
0.028832,
-0.015512,
0.022276,
-0.024732,
0.029715,
-0.037518,
-0.004090,
-0.017896,
-0.010167,
-0.021733,
-0.037766,
-0.036500,
-0.057826,
-0.031348,
-0.003609,
-0.022990,
-0.028920,
-0.000388,
-0.009884,
-0.011781,
-0.030869,
-0.030573,
-0.005022,
-0.071660,
-0.010527,
0.022036,
-0.000522,
-0.013485,
-0.043444,
-0.001627,
0.006649,
-0.029429,
-0.004711,
-0.015171,
-0.003202,
-0.042919,
-0.043319,
-0.053869,
-0.015116,
-0.004970,
-0.027053,
-0.035681,
-0.043218,
-0.068070,
-0.008201,
0.000340,
-0.014599,
-0.045256,
-0.054973,
-0.017538,
-0.066813,
-0.028819,
-0.056028,
-0.023849,
0.005205,
-0.006260,
-0.012487,
-0.024532,
-0.032449,
-0.032309,
0.011349,
0.001861,
-0.034265,
-0.012928,
0.020654,
0.027855,
0.026528,
0.002780,
0.019494,
0.006440,
0.016003,
0.029396,
-0.009472,
0.026080,
0.011986,
0.024121,
0.026162,
-0.014681,
0.015988,
0.034833,
0.026320,
0.023572,
-0.012756,
-0.023766,
-0.006080,
-0.005690,
-0.025461,
-0.007494,
0.026367,
-0.006222,
-0.004619,
-0.062232,
-0.009543,
-0.067076,
-0.009073,
-0.031817,
-0.020778,
-0.019511,
0.012187,
0.016707,
-0.038798,
0.005418,
-0.007075,
-0.021304,
0.018680,
-0.038635,
-0.007745,
-0.008320,
-0.030647,
-0.002620,
-0.069396,
-0.013007,
-0.061561,
-0.021278,
-0.059298,
-0.008631,
-0.016192,
0.023115,
-0.033067,
-0.011688,
-0.005164,
-0.001354,
0.019164,
0.008407,
-0.027508,
0.026108,
0.018433,
-0.023642,
-0.016614,
0.020230,
-0.049894,
-0.069417,
-0.036182,
-0.014955,
-0.015867,
-0.025539,
0.026569,
0.002205,
-0.018178,
-0.040631,
0.021407,
0.004071,
-0.023486,
-0.037333,
0.006530,
0.016708,
0.009029,
-0.031078,
-0.035363,
-0.013493,
-0.058195,
-0.020841,
-0.019769,
0.003636,
-0.064048,
-0.015847,
-0.014615,
-0.059912,
-0.029028,
-0.027162,
-0.010230,
-0.026823,
-0.039688,
0.003972,
0.022234,
-0.031888,
-0.009935,
-0.032210,
-0.043761,
-0.010727,
-0.015684,
-0.008080,
-0.047467,
-0.013197,
0.019070,
-0.025933,
-0.041756,
-0.033634,
-0.030950,
-0.019053,
-0.041072,
-0.021133,
-0.048524,
-0.040987,
-0.032949,
-0.020667,
-0.021871,
0.024954,
0.017143,
-0.021925,
-0.050575,
-0.049243,
0.004710,
-0.064864,
-0.031467,
-0.030344,
-0.035805,
-0.061978,
-0.037877,
-0.017111,
0.001026,
0.010536,
0.023168,
-0.003495,
-0.013452,
0.028258,
-0.022449,
0.006025,
0.016866,
0.023296,
0.009715,
-0.036039,
-0.014059,
0.029006,
0.021657,
0.002417,
0.003363,
0.009905,
-0.036581,
-0.016187,
0.016609,
-0.058492,
-0.013669,
-0.034425,
0.021859,
0.006088,
-0.028025,
0.019293,
-0.013096,
-0.033088,
-0.021665,
-0.034961,
0.008604,
0.013793,
-0.019132,
-0.022223,
-0.023554,
0.022381,
0.011031,
-0.035075,
0.028194,
0.007357,
-0.034025,
-0.015605,
-0.018672,
-0.026822,
0.027772,
0.011491,
-0.008470,
-0.038853,
0.000221,
-0.008644,
-0.017560,
-0.037349,
-0.016473,
0.018812,
-0.017857,
-0.012674,
-0.001009,
-0.017049,
-0.006042,
0.024722,
-0.054033,
-0.003353,
-0.034281,
-0.047845,
0.032245,
-0.003266,
-0.024988,
0.022787,
-0.038270,
0.003130,
-0.003596,
-0.032280,
0.019675,
0.006602,
0.005976,
-0.010106,
0.018417,
-0.030465,
0.025116,
-0.003857,
-0.016204,
-0.014850,
-0.017165,
-0.026164,
-0.040297,
-0.024289,
0.008112,
-0.010948,
0.010557,
-0.029560,
0.023797,
0.016100,
-0.006874,
0.003601,
0.006556,
-0.038725,
-0.049577,
-0.030501,
-0.000696,
-0.031896,
-0.065816,
-0.012702,
-0.009491,
-0.012581,
-0.052724,
-0.019649,
-0.054986,
-0.059097,
-0.032021,
-0.014227,
0.005016,
0.021477,
-0.020571,
-0.025563,
-0.026211,
-0.027200,
-0.001009,
0.008772,
0.001085,
0.026253,
-0.011583,
0.016377,
0.006841,
-0.023862,
0.026716,
0.007527,
-0.015778,
-0.005101,
-0.029405,
-0.037136,
-0.040236,
-0.020314,
0.000899,
-0.012657,
0.012555,
-0.035928,
0.019241,
-0.039033,
-0.016339,
-0.036230,
0.008700,
-0.011570,
-0.014568,
0.005969,
0.006378,
-0.001998,
0.008304,
-0.020127,
-0.006613,
-0.061863,
-0.054030,
-0.022047,
0.000232,
-0.010462,
-0.010880,
0.007053,
-0.033387,
-0.015746,
-0.016894,
0.027315,
0.005708,
0.025900,
-0.009402,
-0.027423,
-0.035062,
-0.029799,
-0.022127,
0.012027,
0.004085,
-0.033598,
-0.031577,
-0.010056,
-0.010113,
-0.030695,
-0.024362,
-0.012072,
-0.030076,
-0.002257,
-0.008411,
0.005774,
0.017190,
-0.009112,
-0.032666,
-0.005704,
-0.014071,
0.004282,
0.002213,
-0.012508,
-0.023786,
-0.013620,
-0.028891,
0.018341,
-0.015643,
-0.026329,
0.003410,
0.033504,
0.008576,
-0.013069,
0.033305,
-0.034132,
-0.007050,
0.002519,
-0.000704,
-0.018350,
0.012006,
0.010894,
-0.012570,
-0.024088,
-0.009268,
-0.016096,
-0.025691,
0.029002,
-0.032339,
0.027434,
0.015274,
-0.021853,
0.010616,
-0.029875,
0.023316,
-0.009775,
0.017633,
-0.037669,
0.012627,
-0.039953,
-0.023679,
0.011819,
-0.032120,
-0.000789,
0.023068,
0.005831,
-0.026722,
0.029282,
0.004436,
0.028665,
0.007613,
-0.020561,
0.022503,
-0.012593,
0.009871,
0.028228,
0.007550,
0.012186,
-0.015877,
-0.016246,
-0.006743,
-0.026515,
0.015386,
0.003978,
-0.009637,
0.025977,
0.005324,
-0.026172,
-0.036260,
0.002028,
0.017738,
-0.009150,
-0.037588,
-0.009360,
-0.024587,
-0.026816,
0.019112,
0.023238,
0.029341,
-0.036358,
-0.022602,
0.028133,
0.002197,
-0.009344,
-0.036427,
-0.024911,
0.014239,
-0.034559,
0.017070,
-0.009686,
0.030537,
-0.024198,
0.000303,
0.017075,
-0.017001,
-0.009242,
-0.030605,
0.001606,
-0.015719,
-0.011129,
-0.036715,
-0.020469,
0.012184,
0.023980,
-0.023580,
0.028343,
-0.004888,
0.025673,
-0.012187,
-0.010951,
0.027327,
0.004034,
-0.031018,
-0.011895,
-0.037435,
0.008189,
0.000685,
0.032837,
0.019180,
0.000976,
0.016396,
-0.022104,
0.002497,
0.007705,
-0.015043,
-0.001174,
0.010253,
-0.033414,
-0.035527,
-0.019514,
-0.039181,
-0.039042,
0.002386,
-0.024786,
0.022964,
0.003841,
-0.000540,
0.014441,
-0.037114,
0.027314,
-0.028081,
0.015399,
0.022060,
-0.019248,
0.021883,
-0.031488,
-0.002819,
-0.024181,
-0.040421,
-0.007556,
-0.015506,
-0.002629,
-0.016872,
0.028209,
-0.035505,
0.019575,
0.024481,
0.010434,
0.002135,
-0.003203,
-0.008253,
-0.029788,
-0.034417,
-0.033580,
-0.032106,
0.013920,
0.004094,
0.018207,
-0.011752,
-0.028045,
-0.036049,
0.016540,
0.014887,
0.008872,
-0.025574,
-0.027177,
0.012731,
0.030561,
0.007124,
0.005977,
-0.022184,
-0.001613,
-0.028564,
-0.025403,
0.023023,
-0.004541,
0.021534,
-0.019272,
-0.010892,
-0.011971,
0.030997,
-0.020179,
0.028252,
-0.026440,
0.008072,
0.030545,
0.034130,
0.034107,
-0.003359,
0.027601,
0.022000,
0.027671,
-0.036233,
0.029571,
-0.034561,
-0.040161,
-0.016904,
-0.037981,
0.008658,
0.015619,
-0.018073,
0.020408,
0.016680,
-0.008953,
0.003762,
-0.015362,
-0.011211,
-0.003851,
0.001519,
0.020576,
-0.030588,
0.011715,
-0.003545,
-0.013234,
0.026392,
0.018765,
-0.019239,
-0.040007,
0.014786,
0.023921,
-0.010515,
0.012879,
-0.026313,
0.000067,
-0.023159,
-0.009220,
-0.028703,
0.029019,
-0.031435,
-0.027964,
0.018800,
-0.026230,
0.020147,
-0.026136,
0.024563,
-0.034868,
-0.009736,
0.021427,
-0.033814,
-0.014947,
-0.000437,
-0.003436,
-0.016435,
0.022607,
0.015693,
-0.020943,
-0.015646,
-0.036703,
-0.009269,
-0.011405,
-0.010815,
-0.012670,
0.002083,
0.009246,
0.011696,
0.015298,
-0.033960,
-0.034056,
-0.032579,
-0.015548,
0.017815,
0.022697,
-0.038313,
-0.032674,
-0.033658,
-0.024995,
-0.032342,
-0.017502,
0.026093,
-0.023868,
0.016583,
-0.030034,
0.029357,
0.028473,
-0.007487,
-0.020293,
-0.014716,
0.000509,
0.027277,
0.023935,
-0.013584,
0.021468,
0.012591,
-0.004432,
-0.022886,
0.010081,
0.019426,
0.005396,
-0.012772,
-0.035349,
-0.017454,
-0.038012,
-0.014621,
0.021934,
-0.028044,
0.012058,
-0.028003,
-0.019203,
-0.030895,
-0.005270,
0.027488,
-0.031173,
-0.008305,
-0.032360,
0.000642,
-0.004043,
-0.014072,
-0.015719,
-0.026260,
0.005390,
-0.013646,
0.009948,
-0.031594,
-0.000103,
0.033097,
-0.016602,
-0.019368,
-0.001442,
-0.014299,
0.017087,
-0.021817,
-0.035714,
0.010727,
-0.027637,
-0.021644,
-0.019528,
-0.036729,
-0.008969,
0.003895,
0.015065,
-0.033271,
0.020599,
-0.026613,
0.013779,
-0.004529,
0.014421,
-0.029925,
0.001021,
-0.012526,
0.018483,
0.016238,
0.004576,
-0.018672,
0.007763,
-0.023355,
0.027127,
-0.040427,
-0.013794,
-0.007088,
0.000898,
-0.021158,
0.006923,
-0.017535,
-0.035726,
-0.023941,
-0.020495,
-0.016810,
0.012015,
-0.004116,
-0.033339,
-0.033879,
-0.004910,
-0.027647,
-0.012882,
0.007194,
-0.008736,
-0.004935,
-0.020577,
-0.040199,
0.027105,
-0.002938,
-0.034318,
0.010642,
-0.024431,
-0.004444,
0.023794,
0.029505,
0.019656,
-0.031409,
-0.013242,
0.022373,
0.022126,
0.003998,
-0.010852,
-0.032700,
-0.029259,
0.005655,
0.002863,
-0.033444,
0.018491,
-0.034832,
-0.010043,
-0.038192,
-0.022124,
-0.006392,
0.026617,
-0.027703,
0.003221,
-0.027988,
0.013691,
0.024991,
-0.016377,
0.022499,
0.019165,
0.027485,
-0.029044,
-0.009807,
0.010500,
0.018935,
0.003723,
-0.021887,
0.004235,
-0.026258,
-0.017659,
-0.013387,
-0.018795,
-0.005751,
0.005270,
0.005806,
0.014962,
-0.032497,
-0.010214,
0.018750,
-0.012905,
-0.012700,
0.020461,
-0.035236,
-0.002845,
-0.007304,
0.018149,
-0.031441,
-0.019877,
-0.008682,
-0.016163,
-0.004472,
-0.036573,
0.028397,
-0.012800,
-0.037652,
0.011258,
-0.006243,
-0.005321,
-0.017154,
-0.040385,
-0.014027,
0.009340,
0.002080,
-0.040156,
-0.023227,
-0.012745,
-0.033095,
0.027818,
-0.001158,
0.005987,
0.029566,
-0.037774,
-0.027933,
-0.020963,
0.017926,
-0.020611,
-0.019895,
0.014604,
0.002020,
0.026179,
0.025709,
0.023599,
-0.003658,
-0.008985,
0.023945,
-0.001706,
0.016831,
0.007161,
0.004864,
-0.008031,
-0.012584,
-0.025954,
-0.004767,
-0.000459,
-0.003028,
0.022739,
0.016992,
-0.001497,
0.031028,
-0.030682,
-0.029267,
0.005004,
0.035158,
-0.016222,
0.026476,
-0.011122,
-0.021921,
-0.031393,
0.015330,
0.020586,
0.025828,
-0.028933,
-0.036495,
-0.033636,
-0.015957,
-0.003456,
0.000295,
-0.021333,
0.014280,
0.024422,
0.015262,
-0.040411,
0.003046,
-0.021739,
-0.030876,
0.026371,
0.018136,
0.018137,
0.001235,
-0.021460,
0.001058,
0.022708,
-0.019981,
-0.030024,
-0.012144,
-0.020300,
-0.023309,
0.002289,
0.001071,
-0.009192,
-0.031948,
-0.033277,
-0.022054,
-0.011984,
-0.027481,
-0.028179,
-0.017448,
-0.022577,
-0.023713,
-0.011281,
-0.014829,
0.029847,
-0.019535,
0.024995,
-0.027982,
-0.038625,
0.004925,
-0.026959,
0.016828,
-0.028989,
0.001076,
0.020201,
-0.040570,
-0.024735,
-0.020094,
0.012446,
-0.021813,
0.022056,
-0.020184,
0.003833,
0.020867,
0.016502,
-0.032935,
0.011112,
0.007361,
0.001179,
0.025234,
0.005050,
0.007793,
-0.022974,
-0.020262,
-0.010128,
0.025589,
-0.003443,
0.001553,
-0.022146,
0.023651,
0.003997,
-0.026176,
0.023250,
0.006676,
0.028083,
-0.024045,
0.019379,
0.022101,
-0.032095,
-0.036428,
-0.014405,
0.011110,
-0.004789,
-0.007077,
0.002301,
-0.018126,
0.003039,
0.020899,
0.000836,
0.008774,
-0.031789,
0.022925,
0.021796,
-0.006490,
-0.011561,
-0.023637,
0.014943,
0.006631,
0.024187,
-0.015094,
0.021825,
0.024506,
0.006095,
-0.033768,
0.024142,
0.009588,
0.010622,
-0.036757,
-0.016846,
0.023938,
-0.033627,
-0.023624,
-0.013320,
0.027312,
-0.022255,
-0.007182,
0.008827,
0.019827,
-0.035645,
0.001693,
-0.020100,
0.024370,
-0.019097,
0.000328,
-0.013035,
-0.014474,
-0.008769,
0.023926,
-0.001111,
0.013971,
-0.030840,
-0.027664,
-0.001358,
-0.039617,
-0.011935,
-0.019489,
-0.028014,
-0.020313,
0.002543,
-0.033438,
-0.004554,
0.028342,
0.027635,
0.024308,
-0.034748,
-0.007631,
-0.009960,
0.026150,
0.017254,
0.012490,
0.008175,
0.019345,
-0.002783,
-0.029353,
0.024786,
-0.007720,
-0.021299,
-0.000788,
0.028789,
0.026978,
0.024902,
-0.027598,
-0.020608,
-0.004688,
-0.020512,
-0.001490,
-0.012891,
0.032152,
0.007865,
-0.011273,
0.017736,
0.027628,
-0.025758,
-0.014729,
0.014527,
-0.015235,
-0.011230,
-0.005697,
-0.007673,
0.013072,
0.008361,
0.011013,
0.006234,
-0.013677,
-0.000859,
-0.027694,
0.010537,
-0.013364,
-0.024818,
-0.036065,
0.007718,
0.023234,
0.007724,
0.027020,
-0.034423,
0.022908,
0.027772,
-0.016817,
-0.004832,
-0.006793,
0.007871,
-0.037736,
0.011171,
-0.000717,
-0.013466,
-0.036339,
0.022805,
-0.015199,
0.001725,
-0.016271,
0.008945,
0.019258,
-0.026576,
0.009889,
0.003172,
0.005471,
-0.003368,
-0.031159,
0.027877,
0.022009,
0.006875,
-0.012160,
-0.027702,
0.015501,
-0.015867,
-0.040047,
-0.012569,
-0.016754,
-0.027593,
-0.021232,
-0.033255,
0.026831,
-0.023591,
0.002177,
0.006609,
-0.030218,
-0.021156,
0.016270,
0.007939,
0.003548,
-0.028678,
0.003186,
0.018551,
0.010825,
0.014039,
-0.012438,
0.020101,
-0.006589,
0.028061,
0.003749,
0.006206,
0.001129,
0.021963,
0.004973,
-0.031018,
0.029249,
-0.022650,
0.022327,
-0.025163,
0.017991,
-0.006118,
-0.011260,
0.024741,
0.021678,
-0.031291,
-0.016936,
-0.039468,
-0.014721,
-0.066514,
-0.019761,
0.035221,
-0.014578,
0.003418,
-0.067841,
-0.018234,
0.053989,
0.027811,
-0.004975,
0.000487,
-0.006515,
-0.003460,
-0.021154,
-0.008821,
-0.031733,
-0.018941,
-0.000485,
-0.025737,
-0.037182,
-0.014640,
-0.004587,
-0.001935,
-0.018354,
0.034235,
-0.025096,
-0.026910,
-0.027347,
-0.022962,
-0.025941,
-0.020699,
0.025735,
-0.019056,
-0.005169,
-0.026312,
-0.018429,
-0.023680,
-0.004499,
-0.029496,
-0.031385,
-0.029607,
-0.032724,
0.007938,
-0.029375,
0.021932,
-0.058139,
-0.010875,
0.004630,
0.008602,
0.026595,
-0.017053,
-0.002541,
-0.039157,
-0.019097,
-0.029670,
-0.034824,
0.022931,
0.029558,
-0.000354,
-0.051409,
-0.005717,
-0.005670,
-0.042385,
-0.051672,
-0.057073,
-0.001392,
-0.054144,
-0.030021,
-0.027991,
-0.038303,
0.025325,
-0.020956,
-0.003830,
-0.028525,
0.011430,
-0.021329,
-0.027053,
0.030306,
-0.018007,
-0.003057,
-0.025528,
0.010471,
0.016939,
0.007158,
0.018921,
-0.018990,
0.014659,
-0.032899,
0.002290,
0.007179,
-0.038690,
0.014943,
-0.015184,
-0.034064,
-0.036526,
-0.009462,
-0.000481,
0.016236,
-0.037453,
0.006813,
0.014199,
0.012415,
-0.008366,
0.002232,
-0.054725,
-0.041267,
-0.004268,
-0.020410,
-0.043241,
-0.027326,
0.019693,
-0.008500,
0.020180,
0.007380,
0.008165,
-0.047377,
0.002367,
0.029559,
0.042421,
-0.021856,
-0.014973,
-0.010214,
-0.014414,
-0.021664,
0.033525,
-0.050474,
-0.034809,
0.021739,
-0.014022,
-0.001506,
-0.051825,
-0.002973,
-0.015245,
-0.022060,
-0.015383,
-0.009874,
-0.066429,
0.025090,
0.027495,
-0.028288,
-0.070872,
-0.067617,
-0.022650,
0.005907,
-0.013239,
0.029855,
0.002993,
-0.032072,
0.008357,
-0.025061,
-0.032709,
0.020361,
0.002945,
0.003799,
0.009358,
-0.015687,
-0.019109,
-0.022399,
-0.012674,
0.009777,
-0.035562,
-0.003440,
-0.021413,
-0.022453,
-0.047650,
-0.063824,
-0.034237,
-0.004227,
-0.048239,
0.012858,
-0.013451,
-0.037544,
-0.022522,
0.009716,
-0.046268,
-0.047877,
-0.001583,
-0.030445,
-0.027895,
-0.060290,
0.034254,
0.056378,
0.041610,
0.017868,
0.027183,
-0.026761,
-0.012544,
-0.004799,
0.010310,
-0.051539,
-0.010441,
-0.051741,
-0.011239,
-0.009268,
-0.036705,
0.031286,
-0.007633,
-0.004526,
-0.003544,
-0.043756,
0.014316,
-0.026336,
0.005204,
-0.020544,
-0.018715,
-0.003866,
-0.048004,
0.016865,
-0.005755,
0.016978,
0.031664,
-0.035561,
0.002987,
-0.033316,
0.003273,
0.000655,
-0.045013,
0.006320,
-0.004681,
-0.027682,
-0.028225,
-0.009149,
0.006218,
-0.021831,
-0.039622,
-0.034702,
0.014393,
-0.007738,
0.007355,
-0.050948,
-0.011085,
-0.051573,
0.011685,
0.018239,
-0.018125,
0.017706,
0.013258,
0.024283,
-0.018907,
0.003345,
-0.047190,
-0.062942,
-0.019216,
0.012006,
0.027163,
-0.034140,
-0.046057,
-0.019767,
-0.007584,
0.015719,
-0.052851,
-0.022071,
-0.048893,
-0.058427,
-0.005741,
-0.024598,
-0.010309,
-0.010966,
-0.017536,
0.022726,
0.000106,
0.022307,
-0.025290,
-0.008918,
-0.044311,
-0.029768,
-0.014875,
0.041997,
0.034205,
-0.038987,
0.074231,
0.003815,
-0.014777,
-0.012396,
0.003667,
-0.012192,
-0.003226,
0.009913,
0.026341,
-0.007424,
-0.038543,
-0.009662,
0.022859,
-0.001946,
-0.004503,
-0.019885,
0.021039,
-0.006471,
0.044766,
0.046054,
0.039808,
-0.024832,
0.042312,
0.068040,
-0.009185,
-0.010883,
-0.017293,
-0.017177,
0.011099,
0.013097,
-0.012301,
-0.064907,
-0.011122,
-0.013451,
0.015013,
-0.008206,
-0.021984,
-0.050074,
0.031923,
0.001784,
0.000670,
-0.018588,
0.020681,
-0.031774,
-0.013250,
0.008395,
-0.050202,
-0.011362,
-0.039135,
-0.082117,
0.005133,
-0.009450,
0.026755,
-0.035160,
0.029900,
-0.023926,
-0.033126,
0.051792,
-0.017774,
-0.014391,
-0.044271,
-0.023057,
0.017393,
-0.044928,
0.002585,
0.017137,
0.082714,
0.071404,
-0.001431,
0.017337,
-0.004273,
0.017159,
0.043687,
0.034065,
0.025909,
-0.078916,
-0.056962,
-0.050026,
-0.000444,
-0.042310,
0.025283,
0.031217,
-0.008363,
0.015662,
-0.031749,
-0.016089,
-0.043267,
0.035083,
0.006023,
-0.007037,
-0.048378,
-0.001189,
0.000478,
-0.028295,
-0.022735,
-0.048879,
-0.029908,
-0.003766,
-0.034436,
-0.006908,
-0.042860,
0.007873,
-0.058316,
-0.047820,
-0.046186,
-0.019174,
-0.046776,
-0.074272,
-0.056558,
-0.031769,
-0.039581,
-0.046248,
-0.043019,
-0.028895,
-0.007143,
-0.078743,
-0.048680,
-0.086926,
-0.033213,
-0.029271,
-0.070619,
-0.031990,
-0.008223,
-0.013192,
-0.043691,
0.027600,
-0.004452,
-0.032557,
0.008608,
0.025322,
0.013501,
0.027588,
-0.013176,
0.015470,
-0.027439,
-0.039325,
-0.037659,
0.024908,
-0.014937,
-0.027565,
-0.021177,
0.007099,
-0.019834,
-0.034816,
-0.009916,
-0.028651,
-0.002542,
-0.032434,
-0.020151,
0.030139,
-0.047146,
-0.081684,
-0.043988,
0.002570,
-0.003954,
-0.022101,
-0.007875,
-0.060636,
-0.050004,
-0.001687,
-0.036294,
0.010710,
0.027474,
0.017620,
-0.073294,
-0.023576,
-0.010349,
-0.014977,
0.011839,
-0.013629,
-0.044479,
-0.065589,
0.001036,
-0.011368,
-0.076752,
-0.013744,
-0.018667,
-0.013237,
-0.053574,
0.005732,
-0.045119,
0.014996,
-0.055871,
-0.002294,
-0.016505,
0.015484,
0.016039,
-0.021352,
-0.003542,
-0.008280,
-0.023922,
-0.056168,
0.015364,
-0.023191,
-0.045165,
0.020101,
-0.019654,
-0.052315,
-0.044720,
-0.038252,
-0.061851,
-0.056099,
-0.060356,
-0.003143,
0.041694,
0.016076,
0.011091,
-0.041220,
-0.064241,
0.021064,
0.021687,
0.037203,
0.007977,
-0.032349,
0.014435,
-0.029309,
-0.002888,
-0.031781,
0.023057,
-0.015688,
0.039230,
-0.027655,
0.029947,
0.018350,
0.015536,
-0.026221,
-0.024945,
-0.010414,
-0.002948,
-0.014815,
0.031610,
0.018422,
-0.008913,
-0.033860,
-0.019995,
-0.026126,
0.008216,
0.025332,
0.034372,
0.006034,
0.032265,
-0.012267,
0.011625,
0.009357,
0.018311,
-0.034121,
0.009368,
-0.016560,
0.029491,
-0.007676,
-0.009938,
0.005145,
0.023528,
-0.013185,
-0.006230,
-0.015493,
0.017391,
0.020545,
0.017033,
-0.001862,
0.024096,
0.014363,
-0.024202,
-0.017341,
-0.055825,
-0.009606,
-0.033109,
-0.042687,
-0.034196,
-0.004649,
-0.046464,
-0.093194,
-0.054137,
-0.101620,
-0.087251,
0.044927,
-0.026290,
-0.053651,
-0.036486,
0.000049,
-0.032221,
-0.012323,
0.011216,
0.004243,
-0.026932,
0.013888,
-0.013318,
0.001749,
-0.005943,
-0.019373,
-0.047186,
-0.067282,
-0.038569,
-0.013745,
0.014366,
0.009574,
-0.017040,
-0.001091,
-0.029448,
-0.018394,
-0.036994,
-0.067899,
0.001650,
0.008695,
0.001820,
-0.003046,
0.015636,
-0.035251,
-0.054939,
-0.010019,
-0.025875,
0.035931,
-0.040595,
-0.019532,
-0.007869,
-0.026947,
-0.009649,
0.002227,
0.002678,
0.002068,
0.010523,
0.001152,
-0.015853,
-0.040284,
-0.038718,
0.007426,
0.010031,
0.007246,
0.029290,
0.046033,
-0.033133,
-0.035039,
-0.006855,
0.005837,
-0.007778,
-0.057433,
0.003274,
0.019081,
-0.026135,
0.032083,
0.032123,
0.044941,
0.000724,
-0.014073,
-0.049674,
-0.064829,
-0.055551,
-0.054863,
-0.049789,
-0.045296,
-0.075545,
-0.051492,
-0.035170,
0.020820,
0.037282,
-0.040866,
-0.040100,
0.012015,
-0.050985,
-0.039213,
-0.047080,
0.011094,
-0.059047,
-0.027696,
-0.050768,
-0.040870,
-0.022862,
-0.032362,
-0.045349,
-0.020623,
-0.037648,
-0.019142,
-0.007336,
-0.008939,
-0.071073,
-0.038911,
-0.024193,
-0.029917,
-0.039563,
-0.047495,
-0.023688,
-0.051398,
0.017861,
-0.025344,
-0.048455,
-0.039287,
-0.007953,
0.002338,
-0.006202,
-0.012528,
-0.018188,
-0.052860,
0.000480,
-0.012512,
-0.034318,
-0.039386,
-0.032483,
-0.011870,
-0.044998,
-0.031484,
-0.023416,
-0.030671,
0.011547,
-0.011161,
0.026983,
0.000186,
0.019408,
-0.020898,
0.031081,
0.012170,
-0.012810,
-0.021386,
0.029708,
0.010252,
0.032211,
0.011349,
0.006384,
0.011977,
0.021756,
-0.013975,
-0.005218,
0.030261,
0.006375,
0.021919,
-0.004440,
-0.069607,
-0.049233,
-0.029924,
-0.001916,
-0.036152,
-0.023176,
-0.009778,
0.000711,
0.046994,
0.027134,
-0.058798,
-0.002513,
-0.030594,
0.005092,
-0.016032,
-0.001621,
0.006581,
-0.009543,
-0.006654,
0.017997,
-0.015084,
-0.037461,
-0.065006,
0.011741,
0.003788,
-0.074857,
-0.053436,
-0.065625,
-0.013846,
-0.052870,
-0.065576,
-0.038208,
0.013616,
-0.018821,
0.019061,
-0.001932,
-0.034617,
-0.035444,
-0.037151,
0.013812,
-0.016906,
-0.037527,
-0.036340,
0.002127,
-0.025902,
-0.057868,
-0.015720,
-0.035659,
-0.073460,
-0.046544,
-0.014994,
-0.010566,
0.029314,
0.027329,
0.013118,
0.010299,
0.018719,
-0.005595,
-0.023525,
-0.021212,
-0.025575,
-0.031135,
0.003128,
0.034442,
-0.002735,
0.002922,
-0.013234,
0.017089,
-0.011352,
0.015864,
0.031177,
0.026181,
-0.005852,
-0.035267,
0.001492,
0.008078,
0.035250,
-0.050609,
-0.040857,
0.003390,
-0.014136,
-0.033586,
0.003381,
-0.029667,
-0.003110,
-0.015790,
0.024108,
-0.034336,
-0.025184,
0.015277,
-0.006525,
0.029758,
0.007222,
0.054694,
0.040857,
-0.018696,
-0.028824,
0.045146,
-0.008653,
-0.033466,
0.066369,
0.005183,
0.047928,
0.068600,
-0.052896,
-0.009146,
0.098478,
0.105030,
0.095014,
0.025819,
-0.128560,
-0.084199,
-0.066334,
0.032217,
0.138200,
-0.077414,
-0.066987,
-0.210120,
-0.151570,
0.150460,
-0.184850,
-0.242600,
-0.116150,
-0.091005,
-0.014395,
0.010646,
0.038550,
-0.000820,
-0.012505,
-0.022658,
0.009699,
0.028604,
-0.016591,
0.013276,
-0.031446,
-0.006840,
0.020125,
0.005721,
-0.023399,
-0.004365,
0.034932,
-0.020974,
-0.003674,
0.031197,
0.001701,
0.011458,
-0.027374,
-0.022366,
-0.023016,
-0.016473,
0.088634,
0.054290,
0.104660,
0.044012,
0.043016,
-0.018052,
-0.120330,
-0.079983,
-0.026699,
0.035510,
0.040213,
-0.138410,
-0.113910,
-0.010430,
0.100630,
-0.060688,
-0.030331,
-0.054084,
-0.091625,
-0.072098,
-0.057583,
-0.037292,
-0.137240,
-0.109260,
-0.037416,
0.058215,
0.034322,
-0.016366,
-0.001440,
0.006437,
0.002796,
-0.010948,
0.020696,
-0.028722,
0.006453,
0.026629,
0.025647,
0.016010,
-0.014257,
-0.028785,
-0.017476,
0.007471,
-0.008232,
-0.039334,
0.025317,
-0.003715,
-0.056703,
0.022656,
-0.007248,
0.021515,
-0.009409,
-0.092854,
-0.171310,
-0.085764,
0.011514,
-0.024106,
-0.077916,
-0.145560,
-0.140540,
-0.085174,
-0.000941,
0.014007,
0.082008,
0.109060,
-0.033890,
0.003432,
-0.041545,
-0.065146,
0.030239,
-0.155150,
-0.101710,
-0.084127,
-0.118020,
-0.089171,
-0.128750,
0.035977,
-0.172690,
-0.048391,
0.005995,
-0.002648,
0.015901,
-0.058152,
-0.037692,
-0.013453,
-0.053101,
-0.162320,
0.029244,
0.129170,
0.014846,
-0.035755,
-0.202490,
-0.154030,
0.079306,
0.006136,
-0.048844,
-0.137870,
-0.130450,
-0.073137,
-0.060050,
0.023150,
0.067690,
0.006726,
-0.006892,
0.083980,
0.088535,
0.079610,
0.048898,
-0.020835,
-0.042267,
-0.000657,
0.128870,
0.078509,
0.063945,
-0.030840,
0.051846,
0.055536,
0.059709,
0.116530,
0.033700,
0.099245,
-0.023518,
0.069357,
0.009915,
0.020343,
0.086060,
0.072514,
-0.009231,
0.003753,
0.063909,
-0.011879,
0.116130,
0.061476,
0.048705,
-0.023623,
-0.025377,
0.088351,
0.002482,
-0.096443,
-0.073238,
-0.128920,
-0.170590,
-0.096705,
0.192280,
0.133630,
-0.082781,
-0.059794,
-0.097096,
0.035943,
0.067166,
0.129650,
0.053656,
-0.042266,
-0.114790,
0.086750,
0.106170,
0.095573,
-0.071941,
-0.101460,
0.018739,
-0.026038,
0.069192,
-0.011586,
-0.090904,
0.069832,
-0.019428,
0.100210,
-0.005881,
0.040141,
0.118240,
0.017233,
0.035599,
0.062479,
0.032134,
0.029928,
0.025734,
-0.139140,
-0.054211,
-0.051544,
0.014599,
0.030947,
-0.205370,
-0.098833,
0.037006,
-0.136970,
-0.032115,
0.020713,
0.033843,
0.046153,
-0.044609,
0.082511,
-0.011994,
-0.032102,
-0.036647,
-0.075368,
0.080180,
-0.036079,
-0.126040,
-0.091462,
-0.088208,
-0.051793,
-0.127220,
-0.139610,
-0.048990,
-0.054283,
-0.200170,
-0.087930,
-0.020871,
-0.014011,
-0.015722,
-0.187540,
-0.050035,
-0.119460,
-0.080270,
-0.083729,
-0.137760,
-0.098976,
-0.039219,
0.081689,
0.084861,
-0.075581,
-0.084333,
-0.001951,
-0.005005,
0.035857,
-0.111970,
0.086451,
0.129060,
0.026254,
0.020945,
-0.078027,
0.073886,
0.098832,
0.021803,
-0.092738,
-0.162810,
0.036602,
0.003340,
-0.108470,
-0.188240,
-0.200110,
0.027906,
-0.178420,
-0.120570,
-0.089626,
-0.102740,
-0.138260,
-0.141710,
0.068545,
0.004016,
-0.074551,
0.053422,
0.060520,
0.192080,
0.213510,
0.165900,
0.245330,
0.036684,
0.005413,
-0.038456,
-0.131220,
0.253800,
0.026861,
-0.130270,
-0.039599,
-0.059653,
0.107590,
-0.056511,
-0.140000,
-0.049289,
-0.003392,
0.061750,
-0.031280,
0.011883,
-0.075685,
0.131500,
0.091397,
0.139500,
0.122700,
0.217640,
0.146610,
-0.057185,
-0.026172,
-0.009734,
0.014825,
-0.066134,
0.097238,
-0.069347,
-0.012605,
0.037247,
-0.037743,
-0.006327,
-0.200730,
-0.151310,
-0.029864,
0.093640,
-0.207130,
-0.209480,
-0.025966,
-0.013245,
-0.079195,
-0.073835,
-0.264670,
-0.156910,
-0.020875,
0.018801,
0.021044,
-0.294260,
-0.110670,
0.014101,
-0.003305,
-0.112230,
-0.241290,
-0.027056,
-0.042871,
0.012613,
-0.030806,
-0.072809,
-0.067419,
0.020906,
0.015245,
-0.057593,
-0.064391,
0.079758,
0.109400,
-0.078379,
-0.026318,
-0.070936,
-0.145960,
-0.089519,
-0.084794,
0.035471,
-0.082741,
-0.137260,
-0.095574,
-0.096096,
0.064881,
0.024204,
-0.028678,
-0.018459,
0.095518,
0.068507,
0.049037,
0.055135,
0.022366,
0.087433,
0.102080,
0.118200,
0.098752,
0.132240,
0.187930,
-0.023224,
-0.000899,
0.009533,
-0.017428,
0.047652,
0.022224,
-0.007112,
-0.014360,
-0.020164,
-0.014707,
-0.029301,
-0.040082,
-0.039568,
0.014044,
-0.007886,
-0.046244,
-0.034104,
-0.021883,
0.053378,
0.016201,
-0.042312,
-0.035136,
-0.004829,
-0.001672,
0.008480,
0.127260,
0.114550,
0.172970,
0.016881,
-0.043651,
0.097026,
-0.054668,
0.015803,
-0.015541,
0.004503,
-0.047924,
-0.109270,
-0.079035,
0.040871,
-0.035091,
-0.059678,
-0.103640,
-0.104540,
-0.229300,
-0.054366,
0.006939,
-0.134460,
0.007877,
-0.005951,
-0.027647,
0.129720,
0.082890,
0.058026,
0.029640,
0.024295,
0.088578,
0.050719,
-0.022143,
-0.002517,
0.012181,
0.108730,
0.073723,
0.017838,
0.023026,
0.089058,
0.096982,
-0.011495,
-0.016420,
-0.045822,
0.010955,
0.026286,
-0.073895,
-0.059546,
-0.004085,
0.130390,
0.004712,
-0.037388,
-0.097549,
-0.112800,
-0.003541,
-0.115100,
-0.107570,
0.016483,
0.084189,
0.143520,
-0.075429,
0.043393,
0.040189,
0.058660,
-0.008276,
-0.039367,
0.081378,
0.017747,
0.080722,
0.043885,
-0.100140,
0.005299,
-0.070523,
0.044587,
-0.048778,
-0.006642,
-0.016383,
0.025175,
-0.000164,
0.016065,
-0.012139,
-0.008352,
-0.017749,
-0.006732,
-0.020558,
-0.015470,
0.008508,
0.000010,
0.013462,
0.036738,
0.007908,
-0.015678,
0.025870,
0.001268,
-0.000236,
0.004419,
0.010899,
-0.012981,
-0.023909,
0.023799,
0.038021,
0.055014,
0.002049,
0.025371,
0.012722,
-0.111880,
0.024929,
0.079809,
0.111180,
-0.066181,
-0.173250,
0.000792,
0.085207,
0.126950,
-0.044927,
-0.233090,
-0.060292,
0.057137,
-0.021337,
-0.020827,
-0.034843,
-0.076618,
-0.030519,
-0.069981,
-0.154190,
0.010785,
-0.096929,
-0.018994,
0.094785,
-0.070524,
-0.038211,
0.007505,
0.068640,
0.099553,
-0.011525,
-0.100550,
-0.049714,
-0.045058,
0.052007,
-0.079686,
-0.034734,
0.028739,
0.017270,
-0.057778,
0.033744,
0.029399,
0.016535,
0.022144,
-0.100300,
0.085146,
-0.063898,
-0.008403,
-0.114310,
-0.139070,
0.033766,
-0.018289,
0.037307,
0.048166,
0.075424,
0.108230,
-0.050382,
0.016972,
-0.048417,
-0.008164,
-0.052274,
0.031365,
0.004294,
0.029796,
0.095951,
-0.003679,
-0.099352,
-0.102460,
-0.089976,
0.038521,
0.076901,
0.133230,
0.007329,
-0.050132,
-0.059620,
0.088801,
0.009376,
0.030441,
-0.060592,
-0.102000,
0.047023,
-0.008851,
-0.030459,
-0.030952,
0.070741,
0.203280,
-0.116650,
-0.189120,
-0.034709,
-0.092997,
-0.011949,
-0.016903,
-0.083999,
-0.107250,
-0.195380,
-0.209470,
-0.011128,
-0.091834,
-0.087788,
0.003330,
-0.098429,
-0.021580,
0.033517,
-0.020043,
0.045586,
-0.053025,
-0.114570,
-0.022213,
0.149830,
0.125530,
-0.065303,
0.035578,
-0.041585,
0.083812,
0.050395,
0.086718,
-0.025498,
-0.023940,
-0.154140,
-0.016421,
-0.146930,
0.074647,
0.037089,
0.031280,
0.056693,
0.133260,
0.123350,
0.093621,
0.087674,
-0.012709,
0.064166,
0.092408,
0.001920,
-0.033362,
-0.069454,
-0.025223,
0.076279,
0.072060,
-0.003371,
-0.008125,
-0.017634,
0.036988,
-0.021028,
-0.037935,
-0.011419,
-0.004537,
0.022258,
0.042564,
0.012230,
0.051028,
-0.023467,
0.012922,
0.024230,
-0.014372,
-0.009139,
-0.046427,
0.011001,
0.021692,
-0.063873,
0.008422,
-0.053545,
0.008610,
0.067477,
-0.011219,
0.000453,
0.008630,
0.036008,
0.028960,
-0.007187,
0.109720,
0.004254,
-0.141690,
-0.087659,
-0.025346,
-0.027049,
-0.142740,
0.033515,
0.008022,
-0.101500,
-0.103690,
-0.156050,
0.061297,
-0.118410,
-0.219060,
-0.169670,
-0.072203,
0.181740,
0.051152,
0.051379,
-0.001004,
0.046846,
0.037624,
0.155480,
0.177110,
0.151910,
0.086106,
0.156680,
-0.100920,
-0.133670,
0.101970,
0.073516,
0.152480,
-0.012828,
-0.121620,
0.017301,
0.067343,
0.086513,
-0.104840,
-0.169360,
-0.010947,
-0.040694,
0.068857,
-0.030147,
-0.150260,
-0.003866,
0.063307,
-0.007644,
-0.108190,
-0.114900,
0.097288,
0.057407,
0.042578,
-0.002408,
-0.009345,
-0.007786,
0.020221,
0.015466,
-0.050155,
-0.047262,
-0.024053,
-0.033405,
-0.005814,
0.010799,
0.043920,
0.029567,
0.018605,
-0.016195,
-0.040438,
-0.049718,
-0.011355,
0.015418,
-0.000359,
0.004277,
-0.029685,
0.007975,
0.011420,
-0.131520,
0.197580,
0.252020,
0.102970,
0.130540,
-0.103670,
-0.004766,
0.220810,
0.060165,
0.142780,
-0.065353,
-0.045850,
-0.030541,
-0.009332,
-0.041794,
-0.046253,
-0.016405,
0.052076,
0.097130,
0.055533,
0.005740,
-0.063270,
0.147490,
0.014950,
-0.001481,
0.018227,
0.026610,
0.004507,
0.005630,
-0.026901,
0.007364,
-0.027823,
-0.002581,
0.003696,
-0.032406,
-0.017375,
-0.027713,
-0.024354,
0.012528,
-0.003919,
-0.004453,
-0.042541,
-0.007898,
-0.020819,
0.027177,
0.019201,
-0.007549,
0.014630,
-0.031625,
-0.031133,
-0.037426,
0.014116,
-0.024975,
0.026132,
0.004618,
-0.019676,
-0.036807,
-0.025503,
-0.011051,
-0.006667,
-0.011529,
-0.034546,
-0.006874,
0.007549,
0.003595,
-0.031775,
0.026138,
-0.009936,
-0.027531,
0.009065,
0.025552,
0.001288,
-0.030899,
-0.034367,
-0.021836,
0.025097,
0.013995,
-0.009314,
-0.030759,
-0.031660,
-0.008411,
-0.002909,
-0.031068,
-0.033966,
-0.008458,
-0.021855,
0.012438,
0.003331,
0.023904,
-0.016386,
0.002734,
0.008969,
-0.021485,
-0.018407,
-0.006679,
-0.030777,
0.012130,
0.020483,
0.017655,
0.003007,
-0.034873,
0.006113,
-0.011899,
-0.042921,
0.027709,
0.007387,
0.011914,
-0.018091,
-0.036185,
-0.005647,
-0.020179,
-0.000585,
0.011703,
0.003211,
-0.023311,
-0.030273,
-0.026189,
-0.000840,
-0.004891,
0.015215,
-0.032509,
-0.036146,
-0.008906,
-0.016033,
-0.024672,
-0.024805,
0.016696,
-0.022804,
0.016650,
-0.019259,
-0.004405,
0.012002,
-0.016157,
0.013954,
0.028713,
-0.005606,
0.005850,
-0.014687,
-0.025499,
-0.024655,
0.014260,
-0.024792,
-0.020526,
-0.011007,
0.023907,
-0.010732,
-0.012987,
-0.022354,
0.024378,
-0.029784,
0.009802,
0.025463,
0.007391,
0.015488,
-0.030904,
0.004246,
-0.013093,
0.023731,
-0.039687,
-0.037067,
-0.026550,
0.014464,
-0.043154,
0.016346,
0.018233,
0.032544,
0.010092,
-0.037099,
0.028919,
0.000520,
0.010866,
-0.004945,
-0.035221,
-0.019833,
0.003160,
0.003325,
0.017816,
-0.028971,
-0.039465,
-0.021415,
-0.032501,
-0.027132,
-0.011834,
0.013134,
-0.025298,
-0.028824,
-0.017986,
0.026317,
-0.017228,
0.008702,
-0.004892,
-0.016219,
-0.014164,
-0.037434,
-0.027325,
0.018835,
0.004024,
0.005637,
-0.020202,
0.013045,
-0.024974,
-0.031454,
-0.029748,
0.012123,
-0.009102,
-0.016527,
-0.017367,
0.000162,
-0.022758,
-0.014167,
0.003742,
-0.011899,
0.015069,
-0.027231,
-0.009417,
-0.036369,
-0.033726,
0.002218,
-0.017455,
-0.000710,
0.019004,
-0.008707,
0.015436,
-0.012266,
-0.010131,
0.004866,
-0.041187,
0.006132,
0.006010,
0.011886,
-0.010667,
-0.039708,
0.006509,
-0.019946,
-0.014525,
0.004698,
-0.003157,
-0.026245,
-0.023440,
-0.011026,
-0.033979,
-0.038219,
0.022819,
0.018980,
0.026853,
0.013097,
0.021278,
-0.015419,
-0.006954,
0.022590,
-0.016560,
0.012938,
-0.017061,
-0.006714,
0.003027,
0.026681,
-0.039708,
0.017415,
-0.022965,
-0.021224,
0.013630,
0.025741,
-0.002689,
-0.010908,
-0.035386,
-0.025303,
0.014672,
0.015797,
-0.037377,
-0.004070,
-0.002127,
-0.017788,
0.022841,
-0.027589,
0.016259,
-0.040436,
0.000086,
-0.016554,
-0.037718,
-0.029132,
0.011170,
0.021638,
-0.040361,
0.013427,
-0.024533,
-0.006496,
-0.034443,
0.008578,
0.013110,
-0.001517,
-0.042475,
-0.036313,
-0.021261,
0.025225,
-0.013311,
-0.036566,
0.011534,
-0.034075,
-0.007231,
-0.038014,
-0.010711,
-0.015517,
-0.022706,
0.021384,
0.017117,
0.021708,
-0.031693,
-0.004494,
0.004185,
-0.016290,
-0.042001,
-0.007109,
-0.029309,
-0.036284,
0.027224,
0.015973,
-0.025038,
-0.016087,
-0.022807,
0.005811,
-0.024483,
0.002112,
-0.000567,
-0.030590,
0.017060,
0.005497,
-0.041140,
-0.019315,
-0.005712,
-0.040487,
-0.036830,
0.027235,
0.024379,
0.008217,
-0.011125,
-0.036461,
-0.025808,
0.020356,
-0.028035,
-0.029582,
-0.004774,
0.034726,
-0.001688,
0.017327,
-0.024519,
-0.005058,
-0.018339,
-0.029109,
-0.021610,
0.010943,
-0.006432,
-0.023287,
-0.041778,
-0.030751,
-0.031158,
0.012862,
-0.016393,
-0.028143,
0.020326,
-0.026324,
-0.008170,
0.004728,
0.000925,
-0.026658,
-0.011784,
-0.013233,
-0.021622,
0.005533,
0.019378,
-0.007838,
-0.020075,
0.015411,
-0.017323,
0.026719,
-0.009618,
0.004153,
0.036223,
-0.007333,
-0.040418,
0.019209,
0.000362,
-0.001856,
-0.011917,
0.027656,
-0.001896,
-0.022009,
-0.036520,
0.008891,
0.018218,
0.008531,
-0.013223,
0.024579,
-0.000132,
0.011067,
-0.009014,
0.010462,
-0.021130,
0.025399,
-0.005234,
0.010987,
0.000423,
-0.020175,
-0.007141,
-0.016321,
0.020380,
-0.009155,
0.023247,
0.015967,
-0.034145,
-0.003065,
-0.026137,
-0.015243,
-0.009514,
-0.014589,
-0.013006,
-0.024828,
-0.016211,
0.024307,
0.001238,
-0.027985,
-0.014940,
0.023513,
-0.037664,
-0.005259,
-0.014521,
-0.027298,
-0.028105,
-0.003566,
-0.024844,
0.028352,
0.003618,
-0.000917,
0.003019,
-0.032648,
0.016115,
-0.004302,
-0.021046,
-0.011021,
-0.005104,
0.008559,
0.022168,
-0.035898,
-0.037883,
0.023816,
0.007244,
-0.013939,
-0.039891,
0.027324,
0.012746,
0.009255,
-0.023967,
0.008467,
0.015595,
0.014498,
-0.033634,
0.010070,
0.007443,
0.015284,
-0.042716,
-0.030100,
0.001884,
-0.032832,
-0.039146,
-0.021522,
-0.028623,
0.003877,
0.021860,
0.013831,
0.016293,
-0.042590,
-0.016773,
0.009044,
0.014893,
0.020519,
0.022989,
0.016787,
-0.029490,
0.003552,
-0.037312,
0.009898,
-0.022719,
0.020292,
-0.017196,
-0.021711,
0.005135,
0.019982,
0.023286,
-0.026496,
0.011598,
0.023522,
0.015571,
0.001253,
0.009415,
0.003708,
0.023953,
-0.035229,
-0.040442,
-0.002317,
0.001209,
0.024403,
-0.040177,
0.003823,
0.024156,
0.024312,
-0.039916,
0.017307,
-0.037856,
0.015596,
-0.030737,
0.006535,
-0.032373,
0.017455,
-0.020796,
0.019125,
0.014636,
-0.010701,
0.010583,
-0.019422,
0.002521,
-0.026858,
0.023977,
-0.039420,
-0.002102,
-0.018450,
0.020727,
-0.035213,
0.023948,
0.004088,
0.009688,
0.024856,
0.006881,
-0.026332,
-0.031137,
0.016982,
-0.034385,
-0.007136,
-0.035661,
-0.001459,
0.016248,
0.009034,
-0.012605,
-0.027141,
0.031861,
0.000002,
0.013623,
0.020639,
-0.016185,
-0.019926,
-0.018894,
0.019548,
0.016897,
0.017920,
-0.002309,
-0.041051,
-0.019387,
0.000415,
-0.026888,
-0.011010,
-0.026494,
-0.033206,
-0.010907,
-0.011928,
-0.032205,
-0.014197,
-0.042224,
-0.003225,
0.016332,
-0.033967,
-0.033461,
-0.002303,
-0.000578,
-0.014195,
-0.007098,
-0.010373,
-0.042562,
0.028014,
0.006888,
0.021213,
-0.039820,
0.006322,
-0.024286,
-0.021078,
-0.028958,
-0.034606,
0.004464,
-0.030003,
0.011135,
0.004111,
-0.013305,
0.005904,
-0.036380,
-0.028258,
-0.004750,
0.025157,
-0.039851,
-0.005995,
0.020270,
-0.040184,
-0.037217,
-0.039488,
0.024509,
-0.004839,
0.021676,
-0.027229,
0.020813,
-0.024037,
0.018654,
-0.033416,
0.020944,
-0.016511,
-0.035108,
0.000458,
-0.041156,
0.028795,
-0.032539,
0.021825,
-0.028704,
-0.007077,
-0.028506,
-0.035434,
0.015151,
-0.041757,
0.014990,
0.017077,
-0.013704,
0.015484,
0.010464,
-0.018954,
-0.000936,
-0.020555,
0.014138,
-0.027522,
0.027578,
0.013765,
0.026657,
-0.023852,
-0.012997,
0.009737,
0.019975,
0.024595,
-0.035118,
-0.027569,
0.009972,
-0.013094,
-0.008426,
0.016394,
-0.040910,
0.001968,
-0.010940,
0.004528,
0.003838,
0.014161,
-0.040898,
-0.024319,
-0.033589,
-0.007917,
-0.024798,
-0.018475,
-0.040422,
0.006697,
0.009724,
-0.022256,
-0.005677,
-0.019524,
0.025031,
-0.003830,
0.008075,
-0.006199,
0.020108,
0.009574,
-0.020446,
0.006532,
-0.011366,
0.021306,
-0.022251,
0.020744,
-0.040292,
-0.016381,
0.009980,
-0.019799,
0.023797,
0.004826,
-0.018472,
-0.008545,
0.025161,
0.026714,
0.008696,
-0.001402,
0.009289,
0.027849,
-0.011171,
0.008132,
0.016929,
-0.032217,
0.000608,
0.015207,
-0.028054,
0.025239,
-0.040739,
0.000083,
-0.002269,
-0.019432,
0.023541,
0.025770,
0.022455,
0.004724,
-0.032190,
0.020546,
-0.031708,
-0.012014,
-0.020022,
0.005892,
-0.030950,
-0.005669,
-0.038419,
-0.026749,
0.019923,
0.021267,
-0.012408,
-0.024109,
0.016796,
0.004833,
0.022635,
0.016894,
-0.030423,
-0.036528,
-0.002148,
0.023658,
-0.006994,
-0.029346,
-0.024584,
0.010623,
-0.017221,
0.006270,
0.008700,
0.017756,
-0.002362,
0.019078,
-0.020056,
0.017131,
-0.039478,
0.003819,
-0.012406,
-0.010441,
-0.027081,
0.011446,
0.013107,
-0.014971,
0.028375,
0.017204,
-0.000129,
-0.000912,
-0.025713,
-0.037177,
-0.022370,
0.026859,
-0.019790,
0.012651,
-0.003751,
-0.004292,
-0.036770,
-0.023485,
-0.017202,
-0.020173,
0.003433,
0.011002,
0.015407,
0.026501,
-0.038537,
-0.025670,
-0.018245,
0.000062,
-0.001097,
-0.042512,
-0.016812,
0.008529,
-0.002619,
0.008110,
-0.014397,
0.015159,
-0.006176,
-0.007587,
-0.002832,
0.007874,
-0.004607,
-0.027074,
0.025881,
0.017180,
0.009733,
-0.005909,
0.025437,
0.023556,
-0.014441,
0.015789,
0.006857,
0.026989,
-0.014129,
-0.003457,
-0.005552,
-0.006628,
0.012220,
-0.009216,
0.019171,
-0.006135,
0.019720,
-0.025215,
0.022838,
-0.032054,
0.006403,
-0.036440,
-0.005202,
-0.010552,
-0.033826,
0.015251,
0.013747,
-0.035241,
-0.023843,
-0.036178,
0.010313,
-0.031103,
0.011306,
-0.002041,
-0.007952,
0.016679,
-0.036857,
0.006248,
-0.024734,
0.013492,
-0.037419,
-0.020329,
-0.026698,
0.011708,
-0.010915,
-0.003269,
-0.013098,
-0.040553,
-0.003477,
-0.036979,
-0.001390,
0.006487,
0.002469,
-0.025144,
-0.047286,
-0.033133,
-0.027347,
-0.000167,
-0.004200,
0.009287,
-0.000409,
-0.052691,
0.002925,
0.011510,
-0.017335,
0.014413,
0.002519,
0.002729,
-0.016100,
-0.004830,
0.012106,
0.011956,
0.026884,
-0.011967,
-0.000058,
-0.028452,
-0.019763,
-0.003189,
-0.003736,
0.006591,
0.015605,
0.017413,
-0.009160,
-0.008864,
0.018957,
0.027340,
0.012651,
-0.042017,
-0.056269,
-0.045147,
0.007145,
0.010410,
-0.043882,
-0.009052,
-0.000261,
-0.053949,
-0.042784,
-0.002510,
-0.032030,
-0.012647,
0.012312,
0.017882,
-0.036005,
0.025914,
0.013682,
0.020745,
-0.026070,
0.026785,
-0.031074,
-0.025540,
0.022250,
0.028082,
0.010550,
-0.007624,
0.026649,
0.024027,
0.011402,
0.009100,
-0.017504,
0.010958,
-0.008202,
-0.029758,
-0.012799,
0.022235,
-0.019566,
-0.018665,
-0.022047,
-0.018349,
-0.010042,
-0.030938,
0.019008,
0.014940,
-0.022915,
0.022454,
-0.040888,
0.007907,
0.013429,
-0.004358,
-0.001653,
0.009533,
0.017399,
0.014724,
-0.010793,
-0.010618,
-0.042045,
-0.031941,
0.026798,
-0.028008,
-0.004525,
0.016542,
-0.009281,
-0.024525,
0.010881,
-0.031604,
0.024106,
0.028851,
-0.018110,
0.007389,
-0.012772,
0.012876,
0.019340,
-0.030504,
-0.005468,
-0.026184,
-0.023513,
-0.026057,
-0.033223,
0.005315,
-0.010324,
-0.007960,
-0.032599,
0.003214,
-0.003214,
-0.012011,
0.020828,
-0.042443,
-0.006144,
-0.014355,
-0.039154,
-0.005138,
0.007816,
0.010236,
-0.026583,
-0.027244,
0.021486,
-0.028953,
-0.017548,
-0.006433,
-0.025970,
-0.027994,
-0.009882,
-0.037205,
0.001402,
-0.015618,
0.012538,
-0.027091,
-0.005408,
0.029729,
-0.014910,
-0.004416,
-0.037789,
-0.002266,
-0.014751,
0.024403,
-0.013837,
0.021626,
-0.039136,
-0.000746,
-0.000493,
-0.030162,
-0.025447,
0.006998,
0.032645,
-0.020755,
0.023718,
-0.025642,
-0.031825,
-0.007822,
-0.027482,
0.013051,
-0.027626,
0.026418,
-0.031375,
0.004117,
-0.024013,
-0.007677,
-0.025972,
-0.010240,
-0.016915,
-0.035434,
0.013727,
-0.029876,
-0.033762,
-0.003981,
-0.023602,
0.013355,
-0.017123,
-0.015996,
0.011886,
-0.033872,
0.026829,
-0.005195,
-0.005102,
0.017421,
-0.056339,
-0.029379,
-0.057393,
0.011449,
-0.040011,
-0.025406,
0.000641,
-0.049942,
0.000020,
-0.046284,
0.005423,
-0.032574,
-0.058335,
0.004547,
0.001234,
-0.045268,
0.000097,
-0.042130,
-0.022825,
0.005121,
0.000855,
-0.030252,
0.015682,
-0.014175,
-0.000325,
-0.011801,
-0.021270,
0.003200,
-0.040859,
-0.026936,
0.003078,
-0.056506,
-0.008391,
0.039416,
0.008412,
0.001152,
0.032549,
0.000698,
-0.013873,
-0.053155,
-0.062805,
-0.044167,
-0.050160,
-0.028365,
0.015489,
0.019083,
0.009718,
0.016971,
0.022224,
-0.032617,
0.016131,
-0.015079,
0.006738,
-0.014505,
-0.020612,
-0.017060,
0.017959,
0.002031,
-0.006927,
-0.019121,
0.002257,
-0.006663,
-0.014135,
0.000507,
-0.035345,
0.010829,
0.024674,
-0.021719,
-0.020622,
-0.032161,
-0.025742,
-0.021500,
-0.000387,
0.017282,
-0.015552,
-0.029500,
-0.015149,
-0.017424,
-0.012911,
0.006389,
0.000611,
-0.054677,
-0.003525,
0.017466,
-0.050127,
-0.029208,
0.034006,
-0.015265,
0.008424,
-0.035312,
-0.035361,
-0.009430,
-0.012564,
0.006857,
-0.041081,
0.012103,
-0.041487,
-0.042716,
-0.011907,
-0.036140,
-0.009738,
-0.012627,
0.002964,
-0.021666,
-0.012824,
-0.026082,
-0.034044,
0.001377,
-0.042911,
-0.052171,
-0.015692,
-0.033484,
0.004397,
-0.001308,
-0.008766,
-0.046490,
-0.048615,
0.006397,
-0.022829,
0.023425,
-0.015711,
-0.014094,
0.014339,
-0.030222,
-0.030773,
-0.027135,
0.018476,
-0.019258,
-0.016483,
0.022045,
-0.037223,
0.007922,
0.003425,
-0.001119,
0.004491,
-0.011024,
0.019335,
-0.017472,
-0.006192,
0.014694,
-0.034754,
-0.010314,
-0.023966,
-0.006504,
0.014327,
0.004993,
-0.023133,
-0.016593,
-0.021003,
-0.010863,
-0.036011,
-0.010704,
-0.006431,
-0.022418,
-0.036772,
0.010796,
0.023303,
-0.022708,
0.002146,
0.021195,
-0.019340,
0.008223,
-0.009509,
-0.006502,
-0.006218,
0.005584,
0.019382,
-0.017925,
0.014906,
0.015941,
-0.018850,
-0.024733,
0.007721,
-0.031787,
0.024647,
0.000437,
-0.036738,
-0.019483,
-0.023113,
0.004359,
-0.011805,
0.007506,
-0.014777,
-0.008046,
-0.003257,
-0.017292,
-0.056013,
-0.045020,
0.025452,
0.022427,
-0.010162,
-0.044157,
-0.035531,
-0.023843,
0.031288,
-0.014016,
-0.006994,
-0.005803,
0.021864,
-0.013588,
-0.019632,
0.024365,
0.007653,
-0.012454,
0.026078,
0.021910,
-0.034880,
-0.028086,
-0.027402,
-0.041363,
-0.016195,
-0.033103,
-0.037430,
-0.034764,
-0.016678,
-0.028578,
0.012390,
-0.008425,
-0.034352,
0.009163,
-0.040079,
-0.035642,
-0.038937,
-0.020358,
-0.021560,
-0.033338,
-0.011932,
0.005293,
-0.024917,
-0.016565,
-0.034371,
0.011502,
-0.011841,
0.019194,
-0.010783,
0.026771,
-0.023787,
0.002414,
-0.025107,
0.021803,
-0.013598,
-0.005072,
-0.015855,
-0.012330,
0.015761,
0.014317,
-0.049738,
-0.028539,
0.008840,
-0.042871,
-0.036795,
-0.036545,
-0.023517,
0.006568,
0.016864,
-0.012936,
-0.028294,
-0.010109,
-0.012626,
-0.030684,
-0.037838,
0.005190,
-0.031654,
-0.049197,
0.010424,
-0.005663,
0.014941,
0.018369,
0.010702,
-0.028528,
0.005133,
0.029316,
-0.031547,
-0.000872,
-0.017506,
0.000860,
0.010150,
-0.008972,
0.022323,
-0.021441,
-0.031779,
-0.016354,
-0.025107,
0.028266,
0.007449,
-0.037158,
-0.019883,
0.007990,
0.010222,
-0.004338,
-0.029046,
-0.009334,
-0.000718,
-0.019555,
0.023249,
-0.006514,
0.023545,
0.020727,
0.030127,
-0.014517,
-0.032624,
-0.033821,
-0.004332,
-0.010509,
-0.011075,
0.006458,
-0.015214,
0.010003,
0.029655,
-0.015850,
-0.013516,
-0.016624,
-0.027184,
-0.009917,
-0.024009,
0.020156,
0.010224,
-0.032075,
-0.001871,
-0.014134,
-0.043692,
-0.001791,
-0.012356,
-0.020552,
0.019709,
0.002887,
-0.029035,
-0.017583,
0.030288,
0.006602,
0.006383,
-0.030191,
0.029886,
-0.009454,
0.007711,
0.008048,
-0.024059,
-0.045713,
-0.040330,
-0.044774,
0.005697,
-0.010972,
-0.020572,
0.030584,
0.011569,
-0.001684,
-0.009361,
-0.029728,
-0.038319,
0.013498,
-0.014634,
-0.010105,
-0.021324,
-0.006010,
-0.033778,
0.000948,
0.004891,
-0.047012,
-0.000176,
-0.026786,
-0.029714,
-0.043993,
-0.014210,
0.011626,
-0.044256,
-0.045361,
-0.012677,
-0.005985,
0.013305,
-0.016040,
0.007633,
0.024213,
0.030653,
-0.038510,
0.010553,
-0.005052,
0.020277,
0.015474,
-0.039404,
-0.037371,
-0.023638,
0.017627,
-0.022987,
-0.015596,
-0.011069,
0.005800,
0.002006,
-0.037211,
-0.038897,
-0.017514,
0.022741,
-0.040062,
-0.010545,
-0.003979,
0.006488,
-0.042593,
-0.055975,
-0.055001,
0.011592,
0.026286,
-0.030423,
-0.042108,
0.017424,
-0.010477,
-0.016037,
0.011563,
-0.037276,
-0.023529,
0.025223,
0.007751,
0.005688,
-0.030537,
0.008425,
0.012244,
0.001116,
-0.030475,
0.021916,
-0.045162,
0.021655,
-0.012465,
-0.010629,
-0.028847,
0.013371,
0.032956,
0.006734,
-0.041183,
0.002473,
-0.003224,
-0.009377,
-0.035697,
0.026758,
-0.033227,
0.028519,
-0.020359,
0.012974,
-0.023478,
-0.037676,
-0.038217,
0.021721,
0.001582,
-0.024992,
-0.036345,
0.002109,
0.017644,
-0.026133,
0.017123,
0.005178,
0.005704,
-0.029724,
0.020747,
-0.030337,
0.005631,
0.018789,
0.018940,
-0.011168,
0.015240,
0.004393,
-0.021853,
-0.010713,
0.011913,
-0.021306,
-0.030117,
-0.039967,
0.009366,
-0.007040,
-0.011940,
0.002508,
-0.027250,
0.017772,
0.010100,
-0.013036,
-0.033571,
0.031257,
0.000049,
-0.012356,
0.040977,
0.003185,
-0.017290,
-0.013390,
-0.036397,
-0.006208,
-0.028119,
-0.033617,
0.023138,
0.010109,
0.001943,
-0.015798,
0.006275,
-0.008307,
0.005074,
0.015977,
0.029527,
0.003393,
-0.006237,
-0.011852,
0.005288,
0.010326,
0.014544,
-0.026504,
-0.053499,
0.006737,
-0.004254,
-0.037355,
0.007226,
-0.036957,
-0.001420,
-0.019530,
-0.023070,
-0.027933,
0.014565,
-0.055981,
-0.049300,
-0.016698,
-0.020595,
-0.004019,
0.023087,
0.008620,
-0.007801,
-0.014219,
0.008163,
-0.018045,
-0.019710,
0.027513,
-0.006114,
0.015208,
-0.022875,
-0.037435,
-0.006436,
0.020670,
0.001200,
-0.003739,
0.010403,
-0.000111,
0.005146,
-0.033700,
-0.012289,
-0.005092,
-0.024790,
0.010196,
-0.021386,
-0.009144,
-0.031727,
0.021246,
-0.043252,
0.021722,
-0.040576,
-0.031057,
0.016155,
-0.034182,
-0.023906,
-0.039329,
-0.040309,
0.022263,
0.005501,
0.020636,
-0.016596,
0.010177,
-0.006550,
0.022534,
-0.028763,
-0.015530,
-0.038312,
-0.011235,
0.014341,
-0.016954,
0.007163,
-0.003624,
0.005944,
0.018473,
-0.012717,
0.000179,
0.029057,
0.027071,
-0.018486,
-0.000575,
0.009540,
-0.012366,
-0.042151,
0.022312,
-0.016176,
-0.028545,
0.008358,
-0.042598,
-0.005759,
-0.019502,
-0.020707,
-0.031518,
-0.036960,
0.012934,
0.011225,
-0.005049,
-0.010587,
-0.019577,
0.058165,
0.041784,
0.041073,
0.157910,
-0.230430,
-0.063777,
-0.037855,
0.030517,
-0.239620,
-0.430480,
-0.226500,
-0.282750,
-0.139280,
-0.188940,
-0.062747,
-0.400960,
-0.188540,
-0.145390,
-0.263700,
-0.023585,
-0.196390,
-0.053974,
-0.034163,
-0.159480,
-0.165880,
-0.004965,
-0.019876,
0.039939,
-0.013556,
0.005457,
-0.022337,
0.011259,
0.022848,
0.009357,
-0.001566,
0.000671,
0.002953,
0.001209,
-0.006873,
-0.015988,
0.021389,
0.014383,
0.014125,
0.037096,
-0.008337,
0.024804,
-0.011712,
0.012932,
-0.024084,
-0.023713,
-0.157780,
-0.156700,
0.030647,
0.117850,
0.061185,
-0.020022,
0.059867,
-0.094798,
0.035027,
-0.008479,
-0.037545,
-0.037763,
-0.163880,
0.026042,
0.035717,
0.004780,
-0.046808,
-0.137980,
0.013802,
-0.046296,
0.125850,
0.027817,
-0.041592,
-0.059172,
0.010274,
-0.056579,
0.053952,
-0.012204,
0.006264,
0.004169,
-0.049183,
0.017426,
-0.022921,
-0.041131,
0.015997,
-0.044770,
-0.040905,
-0.038690,
-0.029697,
-0.048688,
-0.032631,
-0.009149,
0.001882,
0.043674,
-0.000315,
0.011238,
0.009937,
-0.029014,
0.019896,
-0.040339,
0.060965,
0.058782,
0.100220,
-0.028303,
0.017727,
0.051488,
0.066997,
-0.003049,
0.034612,
0.098517,
0.037545,
0.022481,
0.024303,
-0.021917,
0.036762,
-0.047474,
0.074268,
0.109800,
0.133190,
0.090463,
-0.226990,
-0.014192,
0.125450,
0.011919,
-0.051607,
-0.023467,
-0.051744,
-0.002743,
0.090755,
0.011818,
-0.071700,
-0.051724,
0.045036,
0.075198,
-0.123310,
-0.259710,
-0.185540,
0.066460,
-0.029360,
-0.265150,
-0.125720,
-0.224050,
-0.152020,
-0.122940,
-0.207070,
0.023912,
-0.051563,
0.085372,
0.075524,
0.018567,
0.070873,
0.030665,
0.051248,
0.015898,
-0.055682,
0.019395,
0.073158,
0.044603,
-0.050350,
-0.053450,
0.156460,
0.150490,
0.041891,
-0.011590,
-0.051590,
0.134190,
0.126300,
0.144670,
-0.089520,
0.055537,
-0.084264,
0.106610,
-0.011556,
-0.084200,
0.154230,
-0.050285,
-0.051250,
0.097441,
0.021989,
0.005857,
0.034902,
0.170960,
0.064546,
-0.012013,
-0.007573,
0.226410,
0.031238,
-0.240770,
-0.097868,
-0.186310,
0.147960,
0.215370,
0.039152,
-0.054029,
-0.052048,
0.069444,
0.134850,
-0.062628,
-0.099673,
0.053771,
-0.046176,
-0.091081,
-0.204800,
0.152580,
0.103340,
0.082934,
-0.042075,
-0.033593,
0.064074,
0.146150,
0.180690,
-0.009794,
-0.101510,
0.103110,
0.091975,
0.119540,
-0.033425,
-0.094872,
0.011136,
0.038321,
0.042755,
-0.072682,
-0.131620,
0.187730,
0.039386,
0.139520,
0.066457,
0.106790,
0.059638,
-0.032913,
-0.030045,
0.112340,
0.055530,
-0.156830,
0.030062,
0.037135,
0.050875,
0.058533,
-0.093519,
0.030845,
-0.149930,
0.113400,
0.025942,
-0.017591,
-0.017105,
-0.189670,
0.070004,
-0.065287,
-0.213350,
-0.076041,
-0.059686,
0.029045,
-0.054437,
-0.105190,
0.007943,
-0.051305,
0.059743,
-0.152050,
0.000453,
-0.126120,
-0.115910,
-0.110850,
-0.112660,
0.024440,
-0.300940,
-0.005511,
-0.045046,
-0.106600,
-0.035698,
-0.329080,
0.017767,
0.144090,
0.001608,
-0.072098,
-0.226560,
0.174500,
0.000279,
0.055849,
-0.000842,
-0.119930,
-0.048515,
0.165020,
0.093676,
0.084845,
-0.022642,
-0.142180,
-0.006882,
-0.112620,
-0.114720,
0.047175,
-0.001474,
-0.198300,
-0.293710,
-0.337940,
-0.097830,
0.011905,
-0.206120,
-0.162710,
-0.156510,
0.048366,
-0.126990,
0.003437,
0.054918,
0.018129,
0.014668,
0.011511,
-0.096716,
0.102000,
0.117520,
0.113140,
0.119860,
-0.100050,
0.079489,
0.129040,
0.022903,
0.047808,
-0.033161,
-0.043850,
0.064066,
-0.038215,
0.029846,
0.093419,
-0.071577,
0.075375,
0.114890,
-0.041732,
0.050191,
-0.031596,
0.004050,
0.008457,
-0.037825,
-0.022429,
0.072102,
-0.032318,
-0.010074,
-0.053435,
-0.093613,
0.100120,
0.034022,
-0.078478,
-0.120290,
-0.317560,
-0.049228,
-0.182070,
-0.200740,
0.065012,
-0.016432,
-0.051447,
0.003720,
-0.133470,
0.010958,
-0.005477,
0.193750,
0.184960,
-0.132930,
-0.041883,
-0.039500,
0.086947,
0.203350,
-0.081276,
0.010660,
-0.058728,
-0.050289,
-0.009748,
-0.112650,
0.056647,
-0.004101,
0.040446,
0.052507,
-0.077872,
0.018093,
0.075858,
0.166690,
-0.012297,
-0.149800,
0.008950,
-0.115510,
-0.104460,
-0.025941,
-0.061311,
0.002505,
-0.140060,
-0.112330,
-0.044144,
-0.030580,
0.089240,
-0.016990,
0.005607,
0.039374,
0.006313,
0.098145,
0.038895,
0.002893,
0.081495,
0.003302,
0.103450,
0.063058,
0.094169,
0.102000,
0.168230,
-0.012636,
0.017474,
-0.034974,
0.004925,
0.026090,
0.016260,
-0.025180,
-0.034348,
-0.059796,
0.003269,
-0.049383,
-0.006951,
-0.055564,
-0.041745,
-0.007667,
-0.015908,
-0.041395,
-0.047957,
0.023897,
0.017592,
-0.043069,
-0.025551,
-0.039182,
-0.011075,
0.018709,
-0.214620,
-0.024350,
0.026728,
-0.046099,
-0.144970,
-0.265700,
-0.208600,
0.085126,
-0.089415,
-0.201630,
-0.105900,
0.012152,
-0.010340,
-0.089750,
-0.135820,
0.057165,
-0.110540,
-0.051072,
-0.058748,
-0.080447,
0.063038,
-0.101250,
0.076483,
0.005138,
-0.100180,
0.114480,
0.051863,
-0.086237,
0.016069,
0.210680,
0.035775,
-0.021498,
-0.196570,
-0.045575,
0.118660,
0.063966,
0.039203,
0.063299,
0.022351,
-0.012804,
-0.036322,
-0.040992,
0.048522,
0.079985,
0.019083,
-0.049166,
-0.139230,
-0.165650,
-0.107650,
-0.004900,
0.006367,
0.057163,
0.019077,
-0.013919,
-0.008651,
0.024840,
0.095891,
-0.010623,
-0.038162,
-0.010850,
0.002238,
0.038842,
0.087132,
0.102960,
-0.020781,
0.058252,
0.017429,
-0.026007,
0.151170,
-0.109510,
-0.079482,
-0.034763,
0.065768,
-0.019833,
-0.121730,
0.029790,
0.059169,
0.016935,
0.011152,
0.023273,
0.028089,
0.019530,
0.007774,
0.019721,
0.037096,
-0.028863,
0.002196,
-0.030078,
0.013866,
0.006220,
-0.027471,
0.015317,
0.009531,
0.044037,
-0.034330,
0.025903,
0.015248,
-0.000045,
0.023614,
-0.030220,
-0.020273,
0.051225,
0.106350,
0.064682,
-0.080966,
-0.130550,
0.036986,
0.157240,
0.086123,
-0.203550,
-0.193280,
-0.052757,
0.067718,
0.005807,
-0.057764,
-0.047913,
-0.050246,
0.088847,
0.156500,
0.033944,
0.035132,
-0.017679,
-0.037791,
-0.096764,
-0.063747,
-0.147240,
-0.188200,
-0.102850,
0.045890,
-0.176390,
-0.182820,
-0.190410,
-0.193100,
-0.021196,
-0.181660,
-0.120510,
-0.157770,
-0.108350,
0.048833,
-0.175230,
-0.051094,
-0.040381,
-0.028935,
0.004663,
-0.057912,
-0.062410,
-0.043864,
-0.006076,
-0.095649,
-0.058422,
0.094796,
0.092250,
0.004730,
-0.051166,
0.107690,
0.116190,
0.007054,
0.037590,
0.026928,
0.099379,
0.070951,
0.047397,
0.018120,
0.079696,
0.043206,
0.171170,
0.039045,
0.037862,
-0.007484,
-0.052592,
-0.036612,
-0.094302,
-0.066489,
0.025506,
-0.019921,
0.108360,
0.012472,
-0.028707,
-0.201670,
-0.082017,
-0.053226,
0.066232,
-0.003749,
-0.112160,
-0.021906,
-0.134380,
-0.047799,
-0.045313,
-0.145420,
-0.157010,
-0.231270,
-0.084499,
0.029427,
-0.197970,
-0.231900,
-0.013174,
0.084233,
0.056144,
-0.005026,
0.025927,
-0.089308,
0.052051,
0.099859,
-0.076056,
-0.272960,
-0.085575,
0.101610,
0.140180,
0.040829,
-0.222170,
-0.151920,
0.137710,
0.310360,
0.020912,
-0.040592,
0.040410,
0.079501,
0.244150,
0.144510,
0.160630,
-0.080570,
0.046949,
-0.038392,
-0.012526,
0.010077,
-0.072893,
-0.066664,
-0.117910,
0.012433,
0.011412,
0.073183,
-0.024202,
0.021480,
0.015002,
-0.011287,
-0.035234,
-0.013571,
0.004990,
0.038928,
-0.028480,
-0.004853,
0.055049,
0.035274,
0.034062,
-0.050629,
0.068840,
0.037016,
0.031883,
-0.015105,
0.025877,
0.035456,
0.002976,
0.077650,
0.011614,
-0.020581,
0.020342,
0.007091,
0.013539,
0.092467,
-0.010871,
0.005691,
0.024516,
-0.008863,
0.013560,
-0.028618,
-0.008065,
0.025494,
0.056765,
0.068968,
0.021026,
0.033726,
-0.003656,
0.032365,
0.077459,
0.102100,
0.063108,
-0.124080,
-0.010906,
-0.016806,
-0.207430,
-0.018488,
-0.223990,
-0.189420,
0.004485,
-0.140730,
-0.004847,
-0.066622,
-0.109130,
-0.126950,
-0.090650,
0.171910,
0.087671,
0.094954,
-0.019884,
0.090753,
0.152380,
0.157600,
0.122360,
-0.002487,
0.305560,
0.081807,
-0.039837,
0.084235,
0.249920,
0.103110,
0.066463,
0.005838,
-0.037617,
0.087758,
0.089147,
-0.026176,
-0.192430,
-0.120840,
0.001468,
-0.016838,
-0.118860,
-0.157910,
-0.168900,
-0.040995,
-0.180840,
-0.136930,
-0.104870,
-0.126640,
-0.182670,
-0.229640,
-0.052732,
-0.009852,
0.013095,
0.016561,
0.055471,
-0.004827,
0.001391,
0.026248,
-0.020989,
-0.006293,
0.015070,
0.016649,
-0.009234,
0.002284,
0.003272,
0.014826,
0.016814,
0.005496,
-0.012217,
0.003143,
-0.003007,
-0.006811,
0.011241,
0.033051,
0.021112,
-0.074123,
0.164050,
-0.052276,
-0.169190,
-0.253320,
-0.019249,
0.110840,
0.200920,
-0.122500,
-0.263550,
-0.156130,
-0.042479,
-0.059991,
-0.100700,
-0.159080,
-0.219670,
-0.155870,
-0.080593,
-0.320620,
-0.137030,
-0.194000,
-0.098514,
-0.102990,
-0.058780,
-0.117020,
0.027425,
-0.043473,
-0.066422,
-0.104910,
0.021840,
0.070207,
0.088705,
-0.064740,
-0.060699,
-0.017493,
-0.048991,
-0.046240,
0.081605,
0.011422,
-0.133230,
-0.252000,
-0.166560,
0.115180,
0.105930,
-0.112570,
-0.100530,
-0.019302,
-0.100270,
-0.015779,
-0.195070,
-0.021483,
0.025920,
-0.026406,
-0.002518,
0.003614,
-0.029230,
0.007092,
-0.009545,
-0.008907,
0.020576,
0.007733,
0.006427,
0.007508,
-0.007444,
0.003450,
0.006310,
-0.019702,
0.030751,
-0.012926,
0.026675,
0.023086,
0.022111,
0.009131,
-0.046330,
0.000723,
0.102110,
0.015040,
0.019002,
0.027991,
0.016256,
-0.046439,
-0.092877,
-0.101130,
-0.103110,
0.012353,
-0.045111,
-0.166720,
-0.197900,
-0.110110,
-0.072623,
-0.108160,
-0.132100,
-0.125140,
0.010333,
0.056590,
-0.083436,
-0.057075,
0.001738,
-0.007101,
0.167040,
0.014266,
-0.043019,
-0.059391,
-0.046861,
0.006875,
-0.026328,
-0.040342,
-0.012649,
-0.027984,
0.003200,
0.044355,
0.024310,
0.007799,
0.012971,
-0.076603,
-0.033401,
0.001171,
0.004062,
-0.048334,
-0.065640,
-0.047155,
-0.020075,
0.000412,
-0.002065,
-0.019813,
-0.064270,
0.026689,
0.037909,
0.038066,
0.081539,
-0.036012,
-0.006153,
-0.018869,
-0.060309,
0.058951,
-0.159510,
0.056311,
0.001251,
0.020323,
0.004493,
0.001160,
0.046579,
-0.022498,
0.040503,
0.082030,
-0.062142,
0.013484,
0.036319,
0.070780,
0.064226,
0.028004,
0.105800,
0.053792,
0.022554,
-0.044474,
0.178960,
0.132130,
0.184010,
0.053977,
0.043665,
-0.016708,
0.008839,
-0.049046,
-0.086823,
-0.181100,
-0.020255,
0.004802,
-0.132030,
-0.097447,
-0.183510,
0.016191,
-0.191740,
-0.157620,
-0.043214,
-0.084531,
-0.140490,
-0.023405,
0.081255,
0.074507,
-0.016612,
-0.054142,
0.097551,
0.077979,
0.099031,
0.066206,
0.010967,
0.019238,
0.008924,
-0.008961,
-0.103200,
0.093978,
0.019869,
0.038757,
0.011189,
-0.097521,
0.008000,
0.076253,
0.070882,
0.096539,
-0.022078,
-0.140260,
-0.058897,
0.036908,
-0.096540,
-0.164030,
-0.208620,
-0.012833,
0.047044,
0.023861,
0.034172,
-0.074296,
-0.105670,
-0.091255,
0.028828,
0.060959,
0.085431,
-0.008443,
0.102290,
0.072713,
-0.058335,
0.039436,
-0.133860,
-0.040910,
-0.033267,
-0.089104,
0.129640,
-0.100820,
-0.127750,
-0.146210,
-0.240350,
0.048682,
0.023860,
-0.038838,
-0.011349,
-0.038155,
0.017788,
0.028362,
-0.065326,
0.020496,
-0.006748,
-0.029621,
-0.073798,
-0.013309,
-0.023235,
0.010892,
0.009073,
-0.016921,
-0.093012,
-0.102890,
-0.042430,
-0.062636,
-0.011661,
0.058272,
0.063801,
-0.090152,
-0.199870,
-0.056455,
-0.071552,
-0.075106,
-0.224420,
-0.240670,
0.048744,
-0.060141,
-0.141690,
-0.167500,
-0.126990,
0.104980,
0.006021,
-0.007717,
-0.152340,
-0.117670,
-0.023719,
0.109860,
0.183320,
0.005194,
0.058691,
0.075965,
0.134830,
-0.035160,
-0.179960,
0.060615,
0.073480,
-0.001889,
-0.048564,
-0.132810,
-0.039877,
0.063233,
0.024385,
-0.037336,
-0.014144,
-0.007191,
0.153700,
0.056612,
0.018568,
-0.108470,
-0.016174,
0.130570,
0.073489,
0.145000,
0.223560,
0.174940,
0.098792,
0.102760,
-0.028458,
-0.004766,
0.093790,
0.024565,
0.106550,
0.058378,
-0.074035,
-0.012200,
-0.000033,
0.107430,
0.119230,
-0.037105,
-0.056015,
-0.025169,
-0.024339,
0.110840,
-0.122580,
-0.017400,
-0.061009,
0.033717,
0.112580,
0.062464,
0.091928,
0.104970,
0.042728,
-0.016106,
0.001867,
0.028144,
0.048066,
-0.091968,
-0.130140,
-0.095018,
-0.017115,
-0.025308,
-0.173880,
-0.207800,
-0.103740,
-0.058887,
-0.161690,
-0.205590,
-0.289090,
-0.061233,
0.016676,
-0.014872,
-0.005107,
-0.090617,
0.041303,
-0.092451,
-0.005296,
-0.048689,
-0.039571,
-0.105190,
0.035679,
-0.053451,
0.052631,
-0.035928,
0.064030,
0.016147,
0.015932,
0.060462,
0.151550,
0.193730,
0.038410,
0.002261,
0.093530,
0.045208,
0.037623,
0.027850,
0.129370,
0.115320,
-0.044607,
0.017740,
-0.032764,
-0.062329,
-0.055959,
-0.100800,
-0.188310,
0.174070,
-0.074756,
-0.009510,
-0.063151,
-0.080819,
0.002679,
-0.052265,
-0.132270,
-0.033274,
-0.101380,
0.084871,
-0.003428,
-0.034010,
0.020162,
0.093785,
-0.063517,
-0.029986,
0.097578,
0.117590,
0.455160,
0.136750,
0.063164,
0.041084,
0.068022,
0.105870,
0.022616,
0.041301,
0.154050,
0.180830,
0.106150,
-0.028335,
0.085034,
0.061800,
0.172160,
0.111970,
0.046166,
0.018357,
0.029782,
0.000378,
0.077556,
-0.145290,
-0.140750,
-0.086024,
-0.055768,
0.025665,
-0.035242,
0.028700,
-0.012190,
-0.021062,
0.005898,
-0.013971,
0.039039,
-0.035254,
0.050333,
0.024996,
0.037446,
-0.022290,
0.030319,
0.060474,
0.059174,
-0.021715,
0.007163,
0.003602,
0.032138,
0.048574,
0.035637,
0.052913,
0.060497,
0.034625,
-0.002987,
-0.149150,
0.013159,
-0.078532,
-0.181120,
-0.116710,
-0.212430,
-0.151360,
-0.059841,
-0.060987,
-0.083903,
-0.120490,
-0.069375,
-0.011676,
-0.118930,
-0.107770,
-0.070254,
0.013202,
0.030834,
-0.020416,
-0.154550,
0.184670,
0.119570,
0.098149,
0.159200,
0.120300,
-0.064221,
-0.020612,
-0.028724,
0.016695,
-0.008736,
-0.045326,
-0.088796,
-0.129690,
-0.039652,
-0.083005,
-0.036428,
-0.094671,
-0.152060,
-0.070500,
0.081915,
-0.039051,
-0.080772,
-0.091101,
-0.066781,
0.017118,
-0.030141,
0.006854,
-0.056532,
0.026041,
-0.027216,
-0.186920,
0.069797,
0.016390,
0.023224,
-0.114320,
-0.205980,
-0.104680,
-0.104330,
-0.103300,
-0.079762,
-0.108630,
-0.101860,
-0.066981,
-0.009521,
-0.055085,
0.136620,
0.105630,
-0.042704,
0.006375,
0.005446,
0.338800,
0.162060,
0.084559,
0.076711,
-0.004506,
0.034527,
0.004167,
0.012422,
-0.007956,
-0.032212,
0.020030,
0.036342,
0.031833,
-0.017278,
-0.050042,
0.026614,
-0.005227,
0.016362,
0.025248,
0.016228,
-0.011416,
0.054506,
0.029838,
0.000507,
-0.001277,
-0.005424,
0.024092,
0.023095,
0.025459,
-0.008269,
0.143590,
0.119780,
0.055168,
-0.118760,
0.017199,
0.138970,
0.075163,
-0.002491,
-0.110400,
-0.029682,
0.088157,
-0.059509,
-0.249640,
-0.163040,
-0.104570,
0.037792,
0.094934,
-0.090308,
0.008184,
0.005376,
0.060064,
0.079035,
-0.100600,
0.047194,
-0.038087,
-0.101580,
-0.073894,
0.004414,
0.045178,
0.018978,
0.039150,
0.012522,
0.010484,
-0.098152,
-0.125250,
0.103060,
0.127170,
0.078545,
-0.054127,
-0.066460,
0.050907,
0.088118,
0.044705,
-0.071097,
-0.029997,
0.043464,
0.038741,
0.015099,
-0.226330,
-0.017269,
-0.016639,
-0.073933,
0.059623,
0.179410,
0.121160,
-0.054490,
-0.137170,
-0.016656,
-0.009411,
0.078484,
0.034696,
-0.048085,
-0.019707,
-0.023337,
0.120710,
0.097182,
-0.042535,
0.025748,
0.057882,
0.066876,
0.130990,
0.015466,
-0.002192,
0.028156,
0.010663,
-0.033345,
-0.064046,
-0.086078,
-0.024811,
0.020522,
-0.067251,
-0.012557,
0.059165,
-0.068027,
-0.018551,
-0.066833,
0.003444,
0.119080,
0.084184,
-0.041384,
-0.087209,
-0.084948,
0.008941,
-0.003997,
-0.042558,
0.019815,
0.122420,
0.083876,
0.070684,
-0.037221,
-0.103330,
0.071911,
0.026742,
0.007858,
-0.001413,
-0.123420,
-0.043415,
-0.114800,
-0.204230,
-0.125140,
0.018113,
-0.225810,
-0.221350,
-0.111940,
-0.208170,
-0.009116,
-0.051396,
-0.038557,
0.089010,
-0.040310,
-0.069567,
0.001621,
0.025936,
0.170010,
0.090488,
0.065205,
0.062053,
0.081336,
0.029840,
0.139320,
0.121270,
0.062188,
0.020404,
0.080109,
0.147010,
0.066761,
0.049611,
0.114250,
0.061569,
0.124850,
0.131930,
0.119260,
0.051748,
0.043061,
0.057841,
0.015455,
-0.088727,
-0.028068,
-0.041375,
-0.050879,
0.028464,
0.019460,
0.050789,
0.041126,
-0.009516,
0.006089,
0.033272,
0.023582,
0.014868,
0.017213,
0.053676,
0.015143,
0.008207,
0.026504,
0.017228,
0.059347,
0.073405,
0.063891,
0.045606,
0.049878,
0.027317,
0.046407,
0.057998,
0.013861,
0.060636,
-0.044021,
0.100270,
0.055279,
-0.053166,
-0.011951,
0.093973,
0.068365,
0.011865,
-0.130640,
-0.183140,
0.066396,
0.004375,
0.017583,
-0.017493,
-0.159110,
-0.081432,
0.004140,
-0.083263,
-0.015410,
-0.206750,
-0.130000,
-0.215390,
-0.056139,
-0.213310,
-0.252210,
0.109240,
0.009953,
0.016121,
0.032758,
-0.084933,
0.152920,
0.050843,
-0.068080,
-0.062191,
-0.080096,
0.098221,
-0.042971,
-0.061639,
-0.138650,
-0.058687,
-0.004331,
-0.022576,
-0.025252,
-0.041628,
-0.037113,
-0.024090,
-0.079947,
-0.029385,
-0.039793,
0.014859,
0.015110,
0.023432,
0.065748,
-0.018356,
0.015861,
-0.054569,
0.012691,
-0.014528,
-0.003031,
-0.033668,
-0.010834,
0.006997,
0.021461,
-0.042475,
0.022437,
0.018392,
-0.049015,
-0.011248,
0.000965,
0.003327,
-0.023150,
0.029256,
0.029645,
0.031675,
0.044843,
-0.041852,
-0.073798,
-0.025562,
-0.001567,
-0.071990,
0.058541,
0.013152,
-0.045122,
0.006409,
0.157850,
0.119420,
0.104050,
-0.069884,
-0.090645,
0.081809,
-0.086174,
-0.029072,
-0.059139,
-0.043162,
0.072667,
-0.087457,
-0.077867,
-0.047318,
0.046979,
-0.024805,
-0.057981,
-0.101190,
-0.028210,
-0.006104,
-0.000303,
-0.138910,
0.040243,
0.053591,
0.091064,
0.126560,
-0.066297,
0.044801,
0.190930,
0.090504,
-0.011725,
-0.028058,
0.170320,
0.182320,
0.092815,
-0.189460,
0.000371,
0.010743,
-0.094188,
-0.011132,
-0.258420,
0.031345,
0.015183,
0.006676,
0.037919,
0.033925,
-0.019767,
0.011188,
-0.016435,
0.041782,
0.021741,
-0.023947,
0.010292,
0.001529,
-0.008864,
-0.021938,
-0.006230,
-0.001743,
-0.005643,
-0.003936,
0.023888,
0.027751,
0.002790,
0.038040,
-0.023794,
-0.004443,
-0.024499,
0.161210,
0.028866,
-0.051973,
-0.038868,
-0.123210,
-0.066603,
-0.115970,
-0.008711,
0.000322,
-0.008675,
-0.083959,
-0.023699,
0.111050,
0.071255,
0.019583,
-0.021186,
0.040304,
0.088020,
0.155530,
-0.110450,
-0.018458,
0.062927,
0.070397,
0.177530,
-0.019985,
-0.060366,
-0.020543,
-0.011816,
-0.046259,
0.010332,
0.036800,
0.051857,
0.039664,
-0.002840,
0.049015,
0.020547,
0.009969,
0.053842,
0.008204,
-0.016869,
-0.046160,
-0.037706,
-0.026346,
-0.087736,
0.020793,
0.034054,
-0.005180,
-0.045562,
-0.028948,
-0.003461,
-0.020380,
0.021452,
0.078624,
0.028311,
-0.008793,
0.034293,
0.046241,
-0.007070,
0.010428,
0.022929,
0.053261,
-0.041077,
-0.037541,
-0.031144,
-0.000028,
0.019499,
-0.094813,
0.008490,
0.090195,
-0.049706,
0.006510,
-0.088167,
-0.086903,
-0.005540,
-0.033001,
-0.026087,
0.007888,
-0.006656,
0.028617,
-0.025820,
0.101930,
0.092688,
0.070187,
0.047789,
-0.134700,
0.042972,
0.002096,
0.013582,
-0.061815,
-0.226130,
-0.008142,
0.014480,
0.053053,
-0.094297,
-0.064909,
-0.048480,
-0.089099,
0.039562,
0.094517,
-0.168170,
-0.075338,
0.012776,
-0.047739,
-0.112660,
-0.161410,
-0.003540,
0.045114,
-0.038116,
-0.147840,
-0.046336,
0.127570,
0.124080,
0.121040,
-0.052788,
-0.045737,
0.044516,
0.022769,
0.073509,
0.035820,
-0.087942,
0.004815,
-0.049134,
0.066446,
0.085892,
-0.032016,
-0.029239,
0.072971,
-0.075032,
-0.216310,
-0.007495,
-0.099714,
-0.014045,
-0.101240,
-0.178000,
0.107170,
0.033554,
0.005584,
0.030992,
0.047580,
0.062222,
0.108960,
0.118620,
0.244310,
-0.057757,
0.050201,
0.110090,
0.032850,
0.057837,
-0.171570,
0.076276,
-0.204580,
-0.211160,
-0.378160,
-0.243390,
-0.100640,
-0.201800,
-0.293280,
-0.330950,
-0.105050,
-0.147870,
-0.220250,
-0.287250,
-0.215620,
-0.082532,
-0.203180,
0.179060,
0.138400,
-0.066615,
-0.041570,
0.017374,
0.192300,
0.127480,
0.042737,
-0.028149,
-0.019317,
0.107920,
0.129950,
0.027501,
-0.134920,
-0.009645,
0.112570,
0.105370,
0.091356,
-0.060089,
0.003343,
0.124020,
0.071692,
0.064823,
-0.059881,
-0.037810,
0.127110,
0.046810,
0.093228,
0.034150,
-0.022312,
0.060749,
0.008920,
0.100510,
-0.002163,
0.096091,
0.075037,
0.107770,
0.045821,
-0.186970,
0.102080,
0.073190,
0.162410,
0.110900,
-0.044657,
-0.034692,
0.166780,
0.111800,
0.131020,
0.020393,
0.046903,
0.130160,
-0.003504,
0.060617,
-0.019341,
-0.016895,
0.077095,
0.025353,
-0.013582,
-0.021205,
-0.070516,
0.016816,
0.006942,
-0.154850,
-0.148730,
0.081948,
0.143030,
0.126160,
0.109500,
-0.105230,
0.110330,
0.105950,
0.153160,
0.203990,
-0.089152,
-0.018003,
-0.021874,
-0.054389,
0.081612,
-0.156510,
-0.103470,
-0.173780,
-0.177750,
-0.037290,
0.111280,
0.037259,
0.076392,
-0.043972,
0.012039,
0.125530,
-0.003803,
0.021270,
-0.031632,
0.007487,
0.023340,
-0.010137,
-0.019395,
-0.075447,
-0.236200,
-0.110470,
-0.025286,
-0.004649,
-0.069697,
-0.085591,
-0.054960,
-0.087629,
-0.023996,
-0.036384,
-0.029104,
0.034218,
-0.108290,
-0.059773,
0.018573,
-0.015829,
0.029473,
-0.033815,
0.038340,
0.157320,
0.094784,
0.123260,
-0.011746,
0.090887,
0.068078,
0.197530,
0.112910,
-0.120340,
0.082225,
0.043500,
0.078283,
0.041368,
-0.131410,
0.107360,
0.100390,
0.063104,
0.084668,
0.037531,
-0.059741,
-0.147850,
-0.143530,
-0.101650,
-0.043273,
-0.079145,
0.041778,
-0.093021,
-0.105930,
0.007959,
0.045776,
-0.072306,
-0.022086,
0.102570,
-0.019032,
0.039914,
-0.024440,
0.057996,
0.187040,
-0.112780,
0.081039,
0.067910,
0.093617,
0.228010,
0.195360,
-0.035000,
-0.188060,
-0.050242,
0.132090,
0.072587,
-0.010069,
-0.114340,
-0.029360,
0.150400,
0.002888,
-0.067063,
-0.052386,
-0.007989,
0.118350,
0.099171,
0.080656,
0.155580,
0.088740,
0.207630,
0.083108,
0.047500,
0.063784,
0.077021,
0.190440,
0.003705,
0.023870,
0.001401,
-0.018061,
-0.041873,
0.009023,
-0.001182,
0.005220,
-0.027755,
0.029970,
0.017643,
-0.007384,
0.015434,
-0.012644,
-0.023238,
-0.025799,
0.016642,
-0.000136,
0.023830,
-0.009001,
-0.037457,
0.038850,
0.039022,
0.024352,
-0.013669,
0.068726,
0.108450,
0.022995,
0.013920,
0.004522,
0.050558,
0.061676,
0.075855,
0.021329,
0.008248,
0.088923,
0.026552,
0.130920,
-0.032165,
-0.001450,
0.083297,
0.072568,
0.056069,
0.005862,
-0.015717,
0.012089,
0.104520,
0.187480,
0.180250,
-0.005466,
-0.031904,
-0.027271,
-0.017995,
-0.061262,
-0.016961,
0.091343,
-0.075196,
-0.037803,
-0.002549,
-0.070255,
0.119480,
-0.005306,
-0.008688,
-0.164030,
-0.008076,
0.064560,
-0.057109,
-0.001958,
-0.008166,
-0.018079,
0.009655,
0.034127,
0.005442,
-0.070234,
-0.116360,
-0.081160,
0.020121,
-0.102120,
-0.021003,
-0.060447,
-0.105030,
0.008589,
0.033417,
-0.054522,
-0.072743,
0.121930,
0.060787,
0.021531,
0.008647,
-0.000945,
0.083434,
0.118540,
0.014822,
-0.004106,
-0.052197,
0.267660,
0.198010,
0.132580,
0.073054,
-0.031556,
-0.018743,
-0.011833,
-0.026513,
0.035832,
-0.000632,
-0.001459,
-0.005915,
0.025356,
-0.002770,
-0.015079,
-0.003545,
-0.006801,
-0.013808,
0.029243,
-0.029478,
-0.001214,
-0.022131,
0.007189,
-0.040057,
-0.001873,
-0.001341,
-0.036447,
-0.011802,
-0.041467,
-0.012866,
-0.109980,
-0.080771,
-0.039436,
-0.154710,
-0.139600,
-0.038622,
0.018168,
-0.075970,
-0.103490,
0.008302,
0.073227,
0.158680,
0.057545,
0.112020,
-0.091710,
-0.043990,
0.120600,
0.005802,
0.088255,
0.078156,
-0.198710,
-0.103970,
-0.119760,
0.039978,
-0.039018,
-0.295740,
-0.213540,
-0.120210,
-0.013753,
-0.058588,
-0.144950,
-0.284020,
-0.148870,
-0.101900,
-0.097388,
-0.130310,
-0.118100,
-0.050040,
-0.095507,
-0.154790,
-0.069693,
-0.020722,
0.035393,
-0.043012,
-0.109660,
0.097133,
0.120780,
0.049175,
-0.063234,
-0.056614,
-0.002722,
-0.023038,
0.001695,
0.068074,
0.011031,
0.081955,
-0.014105,
0.040501,
0.127470,
0.074846,
0.032314,
0.077104,
0.083388,
0.112190,
0.135950,
0.045169,
-0.027510,
0.105720,
0.107700,
0.089121,
0.005191,
-0.024914,
0.010082,
0.012679,
0.022494,
0.048702,
0.178600,
0.088159,
0.153680,
0.073736,
0.031485,
0.098988,
0.145870,
0.109770,
0.088109,
-0.022461,
0.019983,
0.136290,
0.118170,
-0.022628,
0.090003,
0.052267,
-0.005874,
0.052361,
-0.076187,
-0.011742,
0.002315,
-0.139010,
-0.097617,
-0.166170,
-0.093815,
0.057742,
0.051839,
-0.033937,
-0.014301,
-0.032764,
0.063850,
-0.051681,
-0.045108,
0.052482,
0.046444,
-0.028156,
0.005948,
0.092389,
0.079866,
0.042656,
0.184540,
0.021541,
0.117050,
0.124930,
-0.061185,
0.077430,
0.013152,
0.078669,
0.088608,
0.174640,
0.044419,
-0.104550,
-0.091033,
0.081727,
0.154310,
-0.100810,
-0.224850,
-0.078684,
0.088286,
0.103940,
-0.004984,
0.009488,
-0.062743,
0.042699,
0.151520,
0.072008,
0.036938,
0.062052,
0.117330,
0.042340,
-0.076856,
-0.043882,
0.035499,
0.114200,
0.019305,
0.027053,
0.069687,
-0.070449,
0.028520,
-0.036191,
-0.013285,
0.022675,
-0.062490,
-0.031253,
0.032683,
0.058432,
-0.020988,
0.020338,
0.038676,
0.072167,
-0.035968,
0.037583,
0.040162,
0.064107,
0.005194,
-0.045261,
-0.001386,
0.043762,
0.060914,
0.047224,
0.060126,
-0.094798,
-0.149410,
-0.000442,
0.010537,
0.007170,
-0.099537,
-0.135650,
-0.024209,
0.032575,
-0.060789,
-0.220780,
-0.120490,
0.053341,
0.050688,
0.006610,
-0.091312,
0.045946,
0.067945,
0.091932,
-0.134940,
0.043522,
-0.020264,
0.082859,
0.135720,
0.082097,
-0.048995,
-0.116450,
-0.054061,
0.111250,
-0.007932,
-0.042388,
-0.092271,
-0.127780,
0.075534,
0.004272,
-0.080506,
-0.149370,
-0.044914,
0.008826,
-0.044364,
0.000645,
-0.115870,
-0.045759,
-0.040149,
-0.090945,
-0.080576,
-0.106440,
0.013433,
0.002628,
0.026007,
0.039800,
0.008851,
-0.006689,
-0.035472,
0.010394,
-0.030337,
-0.023401,
-0.013704,
0.021470,
-0.009748,
-0.015045,
0.019337,
-0.022711,
-0.012643,
-0.038399,
-0.007577,
-0.012428,
0.029875,
0.026392,
-0.031963,
-0.010687,
-0.040491,
0.004969,
0.038727,
-0.077306,
-0.048650,
-0.035236,
-0.040226,
0.179420,
0.225240,
0.042020,
0.039246,
0.060455,
0.211970,
0.167210,
0.090334,
0.007156,
0.067766,
0.112230,
0.061336,
0.036384,
0.116780,
0.065813,
0.246700,
0.014429,
-0.094259,
0.014169,
0.028871,
-0.048432,
-0.044528,
-0.001409,
-0.015876,
-0.025955,
-0.034672,
-0.000773,
-0.012178,
-0.038775,
0.016173,
-0.035321,
-0.006634,
-0.040450,
-0.004570,
-0.035499,
0.016587,
0.003886,
-0.022648,
-0.017653,
-0.033609,
0.002764,
-0.031851,
0.004002,
-0.018775,
-0.038397,
-0.035549,
-0.020685,
0.017283,
-0.023444,
-0.012766,
-0.037199,
0.018533,
-0.002192,
0.002651,
0.007798,
-0.003358,
0.015503,
-0.041225,
-0.014445,
0.010112,
0.003070,
-0.020648,
-0.024696,
0.016360,
-0.037873,
0.001491,
-0.030284,
-0.023065,
0.008536,
-0.011444,
0.022471,
0.016233,
0.031442,
-0.014560,
0.036383,
-0.021020,
-0.018615,
0.031520,
-0.025549,
-0.022387,
-0.020644,
-0.012854,
0.031435,
-0.007639,
-0.015030,
-0.002691,
-0.034389,
0.022233,
0.011638,
-0.044636,
0.007479,
0.037972,
-0.020378,
-0.014775,
-0.014940,
0.023662,
0.013917,
0.000666,
-0.028287,
-0.028485,
-0.000618,
-0.018443,
0.033846,
-0.002180,
0.022325,
0.033657,
-0.023331,
-0.000036,
-0.031765,
-0.004846,
0.001925,
-0.003081,
0.000570,
0.004763,
0.032518,
0.009422,
-0.004994,
-0.031017,
-0.036301,
-0.022194,
0.010282,
-0.019379,
-0.005480,
-0.040031,
-0.032641,
0.046004,
0.012479,
0.016864,
0.008003,
-0.029015,
0.032914,
-0.020570,
-0.020749,
-0.038356,
-0.024014,
-0.053542,
-0.030235,
-0.003983,
0.016660,
-0.043678,
-0.029278,
-0.023104,
-0.033629,
-0.000234,
-0.007953,
-0.000290,
-0.035480,
0.011017,
-0.002066,
-0.027110,
-0.049220,
-0.033661,
-0.039958,
-0.005200,
-0.016428,
-0.048335,
-0.039783,
-0.020723,
-0.019828,
-0.015480,
-0.040846,
-0.015845,
-0.037585,
0.008849,
0.007096,
-0.014281,
0.002158,
-0.050298,
-0.028491,
-0.051936,
-0.026152,
0.014986,
-0.015602,
0.020281,
-0.020243,
-0.044758,
0.005205,
0.001611,
-0.042719,
-0.034747,
0.000156,
-0.024985,
0.006081,
0.006250,
0.020128,
-0.012157,
0.028917,
0.027264,
-0.028507,
0.021118,
-0.013987,
-0.011335,
0.017151,
0.004125,
-0.000387,
0.027846,
-0.002731,
0.024936,
-0.010270,
0.024907,
-0.017220,
-0.030172,
-0.022483,
0.004907,
-0.017106,
-0.017028,
0.001274,
-0.024709,
0.024519,
0.038466,
-0.035842,
0.019301,
0.005151,
0.001890,
-0.017840,
-0.000184,
-0.016031,
-0.032659,
0.026195,
0.008376,
-0.012924,
0.011141,
0.025450,
-0.028837,
0.017674,
0.019742,
-0.027325,
-0.023386,
-0.037900,
0.021217,
-0.035828,
0.004492,
0.003506,
-0.066011,
-0.023499,
-0.011423,
-0.005070,
-0.048445,
0.005133,
0.022999,
-0.050189,
-0.014686,
0.005176,
0.001177,
-0.001522,
-0.015005,
-0.045802,
0.021230,
0.020191,
0.016093,
0.009596,
0.011553,
0.007598,
-0.036275,
-0.007917,
-0.052793,
0.001631,
-0.029351,
-0.036727,
0.004633,
0.005209,
-0.029220,
-0.017898,
-0.048980,
-0.059773,
-0.041629,
0.001656,
-0.049885,
-0.003126,
-0.046918,
0.016072,
-0.000487,
-0.032968,
-0.020531,
0.032907,
0.030118,
-0.016534,
-0.034633,
-0.036115,
0.021326,
-0.012198,
0.017908,
-0.028511,
-0.019951,
0.030363,
0.027106,
-0.016480,
-0.016475,
-0.023614,
0.003342,
-0.014500,
0.018609,
-0.000930,
0.004317,
-0.028495,
-0.014561,
0.001194,
-0.024988,
-0.013292,
0.002399,
-0.020865,
0.024810,
0.025251,
0.029810,
0.025461,
0.016635,
-0.039860,
-0.022701,
0.009823,
0.008207,
0.003783,
0.039018,
-0.008095,
-0.034759,
0.004579,
-0.004762,
-0.010211,
-0.002955,
-0.043588,
0.005092,
0.025978,
-0.045468,
-0.016073,
-0.037886,
-0.017024,
0.013774,
-0.021782,
-0.025855,
0.019364,
-0.000174,
-0.053934,
-0.011243,
0.002670,
-0.026124,
-0.000051,
0.012253,
0.007048,
-0.031502,
-0.027864,
-0.021922,
0.006824,
0.012327,
-0.030259,
0.010451,
-0.025876,
0.018489,
-0.004171,
-0.034335,
-0.014844,
-0.003965,
0.012437,
0.015263,
-0.016189,
-0.020618,
-0.027202,
-0.008153,
-0.006601,
-0.006592,
0.016314,
-0.033224,
-0.005572,
-0.020704,
0.024547,
0.012587,
0.004576,
-0.023474,
-0.012077,
0.007000,
-0.027530,
0.017072,
-0.020935,
0.023040,
-0.050604,
-0.022225,
0.007711,
0.010099,
-0.008968,
-0.026527,
-0.015874,
-0.012761,
0.021618,
0.002418,
-0.038120,
-0.036433,
0.001967,
-0.044161,
0.029980,
-0.040258,
0.014221,
-0.021180,
-0.022484,
0.014216,
0.000361,
0.011047,
-0.004152,
-0.009171,
-0.026856,
0.004247,
-0.040275,
-0.061013,
-0.057727,
-0.049664,
-0.002782,
-0.016480,
0.005277,
0.003198,
-0.025688,
-0.056732,
-0.010343,
-0.049519,
-0.051270,
-0.024232,
-0.032189,
-0.007202,
-0.028900,
0.010060,
-0.011999,
-0.047644,
-0.010160,
-0.046828,
0.003119,
-0.002764,
0.010161,
-0.020291,
0.021549,
0.022066,
0.015021,
-0.002520,
-0.032664,
-0.005527,
-0.014814,
-0.018902,
0.003965,
-0.008306,
0.001906,
-0.025924,
-0.034649,
-0.026283,
0.011861,
-0.024222,
-0.009718,
0.004414,
0.010262,
0.024451,
-0.029348,
-0.019119,
0.011759,
0.020101,
0.018170,
-0.021253,
-0.016695,
-0.000922,
-0.007609,
0.007383,
-0.055185,
-0.034887,
-0.017328,
0.007841,
-0.006962,
0.005548,
-0.017546,
-0.033073,
-0.004497,
-0.029732,
-0.026789,
-0.015581,
0.029563,
0.006297,
0.010605,
-0.018182,
-0.018132,
-0.016263,
-0.016884,
0.022748,
0.002663,
0.020776,
0.019350,
-0.007182,
0.005245,
0.018873,
-0.029663,
0.004474,
-0.012862,
-0.015247,
0.033102,
-0.017793,
-0.040157,
-0.000709,
0.009407,
0.036139,
0.031857,
0.016708,
-0.037525,
0.020534,
0.001290,
-0.002511,
-0.002059,
-0.029635,
-0.020198,
0.032494,
-0.028759,
-0.020112,
0.012415,
-0.009721,
0.023978,
-0.014078,
-0.042213,
-0.034245,
0.005141,
0.002721,
-0.007561,
0.012326,
0.026052,
0.025944,
0.000242,
-0.002271,
-0.030497,
-0.001401,
0.008554,
0.008552,
-0.013118,
-0.009475,
0.022570,
0.023248,
0.015601,
-0.016708,
0.017202,
-0.018020,
0.011079,
-0.016181,
-0.034243,
0.011648,
0.011493,
0.002492,
-0.011629,
-0.034478,
-0.036258,
-0.035362,
-0.016617,
-0.038142,
-0.035578,
-0.022402,
-0.016417,
-0.020165,
0.008213,
0.002300,
0.012592,
0.006075,
-0.008114,
-0.011094,
-0.003772,
0.003595,
0.012748,
0.021230,
-0.014636,
-0.029672,
-0.030831,
-0.005935,
0.005924,
-0.036373,
-0.055591,
-0.026400,
0.001364,
-0.004936,
-0.000183,
-0.045245,
0.022593,
-0.040134,
-0.015700,
-0.049445,
0.026633,
0.000230,
0.010621,
0.009032,
-0.021430,
-0.021059,
0.007089,
-0.031146,
0.014441,
-0.021931,
-0.021200,
-0.002161,
-0.051091,
0.007590,
-0.007500,
-0.010930,
0.005619,
0.016330,
-0.037746,
-0.006082,
-0.019416,
-0.027354,
0.028752,
-0.012536,
-0.030302,
0.018756,
-0.033447,
0.024880,
-0.019890,
0.006650,
-0.014339,
-0.001548,
0.010158,
0.010555,
0.003775,
-0.019309,
-0.041837,
0.010074,
0.005557,
-0.019536,
0.007072,
-0.007811,
0.024176,
0.014485,
0.027668,
0.000013,
-0.028276,
-0.020050,
-0.006541,
-0.017949,
0.028093,
-0.027107,
-0.007512,
-0.028572,
0.023851,
0.002962,
0.016316,
0.013188,
-0.027152,
0.018943,
0.005798,
-0.008675,
0.006892,
-0.040569,
-0.015918,
-0.047407,
0.017907,
-0.015515,
0.004976,
0.006213,
0.029128,
-0.020550,
0.020209,
0.019157,
-0.032073,
-0.038720,
-0.004821,
-0.014233,
-0.018766,
-0.022436,
-0.015490,
0.011330,
0.024774,
-0.011782,
-0.008998,
-0.000041,
-0.031081,
-0.009160,
-0.019890,
0.008855,
-0.007624,
-0.040183,
-0.043028,
0.026126,
-0.006596,
0.038433,
0.037083,
-0.034766,
-0.029860,
-0.023013,
0.007158,
-0.014290,
-0.032813,
-0.044143,
0.007697,
0.016852,
0.018021,
-0.041321,
-0.046524,
-0.017523,
-0.017960,
-0.026673,
-0.040000,
0.001376,
-0.020815,
0.007600,
-0.023587,
0.005735,
-0.032461,
0.018372,
-0.002815,
-0.000408,
0.012073,
-0.017480,
0.016037,
-0.031331,
0.029171,
0.017695,
-0.005032,
0.009458,
0.012561,
0.003309,
-0.037853,
-0.032602,
0.009010,
-0.030403,
-0.024150,
0.027693,
-0.012570,
-0.023533,
-0.034186,
0.018087,
-0.021621,
0.014875,
-0.033497,
0.023323,
-0.011963,
0.023636,
-0.011279,
-0.039823,
0.012219,
-0.043930,
-0.000832,
0.010097,
-0.032324,
0.005919,
-0.040629,
-0.000732,
0.048892,
-0.029391,
-0.000806,
-0.034490,
-0.006139,
0.008893,
-0.050964,
-0.009470,
-0.036605,
-0.031753,
0.006415,
-0.004803,
-0.014058,
-0.052180,
-0.037320,
0.013498,
-0.042004,
0.034088,
0.012318,
-0.005103,
-0.053132,
-0.022511,
-0.001385,
0.004987,
0.024864,
-0.026914,
0.028443,
-0.013606,
-0.015013,
-0.025248,
-0.015545,
-0.001978,
0.000290,
0.019898,
-0.016492,
-0.003015,
-0.019295,
-0.039454,
-0.024601,
-0.018053,
-0.036242,
-0.009483,
0.019186,
-0.018966,
-0.021289,
0.012206,
-0.013979,
-0.011875,
-0.025822,
-0.000124,
-0.021387,
0.010286,
-0.027078,
-0.001428,
0.025094,
-0.017013,
-0.033526,
-0.006732,
0.025358,
0.002911,
-0.023395,
0.025417,
-0.022362,
-0.023035,
0.014225,
-0.028173,
0.002200,
0.016730,
-0.019680,
-0.014714,
-0.013049,
0.010189,
0.005530,
0.026578,
-0.009826,
-0.034856,
-0.034247,
-0.025145,
0.023949,
-0.018465,
0.003973,
-0.016334,
0.017780,
0.007571,
-0.002427,
-0.001308,
-0.035078,
-0.011976,
0.016760,
-0.013025,
0.010518,
0.012131,
-0.025027,
0.005442,
-0.032168,
0.010111,
0.010661,
-0.006056,
-0.021516,
-0.002896,
0.016677,
-0.031582,
0.009224,
0.009640,
0.005382,
0.025978,
0.023680,
0.020462,
-0.028659,
0.026334,
-0.003899,
0.001891,
-0.024842,
-0.013477,
-0.021226,
-0.008038,
-0.028918,
0.011461,
0.010656,
-0.002254,
-0.018065,
-0.021363,
0.028412,
-0.021334,
-0.014004,
0.025110,
-0.014849,
0.012322,
-0.024377,
-0.011447,
-0.018574,
-0.018592,
0.020190,
0.006487,
-0.009927,
0.014693,
-0.028650,
-0.033551,
-0.005597,
0.012315,
0.019523,
0.000442,
-0.024264,
0.023737,
-0.027129,
-0.022282,
0.000681,
0.023408,
0.002897,
-0.029391,
0.009910,
-0.040396,
-0.009363,
-0.018598,
-0.031630,
0.009917,
-0.032986,
-0.019631,
0.022084,
0.019645,
0.006741,
0.005900,
-0.002846,
-0.019973,
-0.032157,
0.019396,
-0.015015,
-0.004281,
0.012580,
-0.014146,
0.020963,
0.015545,
-0.035912,
-0.041042,
0.004873,
-0.016370,
-0.028140,
-0.036073,
0.002655,
0.023257,
-0.003822,
0.016961,
-0.031831,
-0.005213,
-0.039566,
-0.005432,
0.017756,
-0.018003,
-0.022765,
0.015780,
-0.023290,
-0.009918,
0.025235,
0.027450,
0.001508,
0.018875,
-0.005345,
-0.023713,
0.012787,
-0.026791,
0.027076,
-0.008574,
-0.032923,
0.006982,
0.027472,
-0.034793,
-0.010119,
0.015584,
0.024482,
0.006510,
-0.025269,
-0.022895,
-0.019625,
-0.039700,
-0.036916,
-0.027049,
-0.033505,
-0.004151,
-0.001883,
0.020231,
0.006894,
-0.015367,
-0.036306,
-0.025278,
0.030101,
0.020556,
-0.023604,
-0.027908,
-0.031480,
0.000059,
0.013679,
-0.026131,
-0.015639,
-0.037155,
0.001417,
-0.001443,
0.004738,
-0.006496,
-0.020229,
0.019021,
-0.008533,
-0.011655,
0.006056,
-0.024749,
-0.020658,
0.022357,
-0.032437,
-0.003064,
-0.041119,
0.013232,
-0.012900,
-0.029665,
0.010271,
-0.023998,
-0.025143,
-0.024891,
-0.038864,
0.010341,
0.007840,
0.021726,
0.019480,
-0.000872,
-0.033758,
0.022332,
-0.013736,
0.001583,
-0.024365,
0.022318,
0.013205,
0.005000,
-0.035884,
-0.000389,
0.013323,
-0.011052,
0.004191,
-0.035621,
0.001903,
0.004852,
-0.035298,
-0.027577,
-0.009700,
-0.039226,
0.017294,
0.022750,
0.016371,
-0.004045,
-0.018191,
0.002119,
0.020813,
0.014236,
-0.008934,
-0.001244,
0.028798,
-0.014951,
0.013887,
0.028265,
-0.009999,
-0.032799,
-0.035974,
-0.004814,
-0.026239,
-0.009519,
-0.028615,
0.028823,
0.009733,
-0.038848,
-0.031920,
0.026511,
-0.024275,
-0.008086,
0.006643,
-0.006003,
0.012936,
-0.026443,
0.016595,
-0.034352,
-0.030219,
-0.022869,
0.009623,
0.018776,
0.034613,
-0.006571,
-0.013183,
-0.039900,
-0.006846,
-0.005352,
0.020070,
-0.021942,
0.004816,
0.016145,
-0.013318,
0.022398,
-0.035548,
0.009796,
-0.017642,
-0.017505,
0.008391,
0.026766,
-0.031791,
-0.021275,
-0.034074,
0.024258,
-0.007664,
-0.012298,
0.022285,
-0.009861,
0.002378,
0.025216,
-0.017785,
-0.036914,
-0.001971,
-0.036196,
-0.009135,
-0.011697,
-0.023528,
-0.028992,
0.007090,
0.022693,
0.023223,
-0.013819,
-0.027708,
-0.026727,
-0.003467,
-0.019646,
-0.020288,
-0.002419,
-0.007117,
-0.019966,
-0.002838,
-0.008462,
-0.040157,
-0.036146,
-0.021423,
0.028492,
0.003684,
-0.014433,
0.004124,
-0.017297,
0.012099,
-0.010519,
0.018259,
0.024114,
0.026721,
-0.009609,
-0.016851,
0.026907,
-0.028664,
-0.014207,
-0.014172,
0.021353,
-0.014303,
-0.026702,
-0.021129,
-0.017337,
-0.016230,
-0.012281,
-0.010345,
0.007072,
0.025224,
0.001105,
-0.039047,
-0.025252,
0.000812,
-0.005274,
0.027836,
-0.038892,
-0.028712,
-0.031830,
-0.022867,
0.020257,
0.008432,
-0.000033,
-0.007306,
-0.023117,
0.026715,
-0.032704,
-0.032385,
0.006625,
0.001942,
0.020222,
0.001727,
0.019277,
-0.022060,
0.018898,
0.027612,
-0.006749,
0.028592,
-0.029031,
0.024678,
-0.000189,
0.019047,
-0.015383,
0.010193,
-0.035901,
-0.004981,
-0.015977,
0.025997,
0.008204,
-0.021524,
-0.030217,
-0.017101,
0.003039,
-0.007559,
0.005536,
0.026901,
0.021488,
-0.005079,
-0.008472,
0.013276,
-0.037192,
-0.015947,
-0.011230,
0.004595,
0.002405,
0.011074,
0.019475,
-0.006097,
-0.022778,
-0.020891,
-0.027493,
-0.028020,
-0.024923,
-0.011062,
-0.029407,
0.032346,
-0.015252,
0.003230,
-0.023965,
-0.038041,
0.012390,
0.013024,
0.010733,
0.006761,
-0.005540,
-0.024496,
0.000923,
-0.014716,
-0.003228,
-0.039195,
0.011985,
0.019595,
-0.014816,
-0.009950,
0.027873,
-0.023492,
0.025154,
0.010440,
0.006483,
0.011899,
-0.016701,
-0.001006,
-0.034045,
-0.027166,
0.023866,
0.010151,
0.027295,
0.025631,
0.012358,
-0.000573,
-0.028142,
0.028880,
0.001616,
0.009923,
0.024104,
-0.027033,
-0.036671,
0.007903,
0.021745,
0.004964,
0.021064,
-0.004467,
0.018831,
-0.036674,
0.025581,
-0.032406,
-0.026022,
0.000996,
0.004827,
-0.030967,
-0.030826,
0.025908,
0.000818,
0.013242,
0.014514,
0.003174,
0.027008,
-0.041254,
-0.029396,
-0.020311,
-0.018577,
0.008528,
0.000219,
-0.027635,
-0.038048,
0.007725,
-0.004840,
0.007572,
-0.027734,
0.002217,
-0.022475,
-0.024436,
-0.030234,
-0.002975,
-0.035880,
0.027993,
-0.030417,
-0.032400,
0.026784,
0.003977,
-0.014696,
-0.040850,
-0.041222,
-0.039528,
-0.026961,
-0.005862,
-0.006816,
-0.026997,
-0.026620,
0.026483,
-0.027033,
0.013955,
-0.032890,
0.008632,
0.011501,
0.011303,
0.014695,
-0.021631,
0.020603,
0.008590,
0.005029,
0.018059,
-0.007589,
0.005517,
-0.013920,
-0.033346,
-0.006849,
-0.023401,
-0.026069,
-0.008224,
0.021622,
-0.007030,
-0.019072,
0.020776,
-0.016024,
0.025905,
-0.019380,
-0.020157,
-0.003746,
-0.025115,
-0.026880,
0.024511,
0.003451,
-0.016513,
0.029989,
-0.019639,
-0.005295,
0.009346,
-0.023168,
0.025422,
0.021318,
-0.014275,
0.019982,
-0.006447,
-0.000258,
0.018554,
0.020699,
-0.029867,
-0.022022,
0.029711,
-0.035157,
-0.008692,
0.023601,
-0.020147,
-0.013955,
-0.023575,
-0.010061,
-0.020374,
0.002761,
-0.014471,
-0.005276,
-0.029405,
0.010471,
-0.024274,
-0.029388,
0.019031,
-0.021535,
0.024697,
-0.003334,
-0.033187,
0.012883,
-0.024156,
-0.036303,
-0.023541,
-0.026689,
0.028301,
0.023265,
-0.022836,
-0.031149,
0.020627,
0.028551,
-0.038868,
-0.005023,
-0.033732,
-0.026766,
-0.015467,
0.020215,
0.011242,
-0.003193,
-0.031193,
-0.004043,
-0.028676,
-0.037683,
0.023788,
0.020876,
0.001125,
0.003494,
-0.029551,
0.029165,
-0.035734,
-0.018581,
-0.004536,
-0.021930,
-0.027742,
0.015284,
-0.022753,
-0.008002,
0.019480,
-0.013770,
0.025803,
-0.039543,
-0.006767,
0.028059,
0.014552,
-0.041270,
-0.004635,
-0.038094,
0.026100,
-0.020331,
0.025340,
0.023544,
0.004614,
0.020929,
-0.002576,
0.013906,
-0.032107,
0.012867,
0.024595,
0.021395,
0.017980,
0.006665,
-0.002930,
-0.010007,
-0.013532,
-0.019665,
-0.018765,
-0.001349,
0.009016,
0.012024,
-0.026813,
-0.004873,
-0.038124,
-0.024209,
0.013519,
0.015092,
0.003096,
-0.039802,
0.004097,
-0.016006,
-0.019315,
-0.003623,
0.005999,
-0.004337,
0.008676,
0.020834,
-0.008287,
0.017260,
-0.002695,
0.018692,
-0.037227,
-0.031958,
-0.000887,
-0.020485,
-0.027453,
-0.024303,
-0.029610,
-0.038158,
0.010472,
-0.007777,
0.003465,
-0.018004,
-0.040654,
-0.000799,
-0.036441,
-0.039958,
-0.030942,
0.024754,
-0.011022,
-0.004642,
0.002396,
