0.047546,
0.016302,
0.052349,
0.020704,
0.069430,
-0.081268,
-0.034816,
-0.026040,
-0.115250,
-0.200380,
-0.084553,
-0.005471,
-0.060610,
0.013894,
-0.180190,
0.037433,
0.039096,
0.032775,
-0.063864,
-0.045723,
-0.004450,
0.067508,
0.042600,
0.052421,
0.006518,
0.040784,
0.080750,
0.043396,
-0.260650,
-0.099522,
-0.090797,
0.052044,
-0.085491,
0.009102,
-0.041357,
-0.062121,
-0.047527,
-0.032754,
0.096753,
-0.117040,
0.038187,
-0.080687,
-0.067932,
0.030953,
0.034343,
0.027293,
0.012287,
0.027251,
-0.140270,
0.002245,
-0.003007,
-0.182710,
-0.027429,
-0.098295,
0.018409,
-0.058933,
-0.047104,
-0.226770,
-0.154120,
0.003560,
0.069527,
-0.021195,
-0.024182,
0.004771,
0.059367,
-0.133950,
-0.116500,
0.063867,
0.096739,
-0.041707,
0.011170,
-0.075262,
0.030971,
0.038190,
-0.100290,
-0.021745,
-0.106360,
0.093258,
-0.059546,
-0.012388,
-0.024290,
-0.083400,
0.067209,
-0.074629,
0.057024,
0.049075,
0.001204,
0.038644,
0.101640,
0.018365,
-0.051660,
0.078966,
-0.092206,
-0.006982,
0.029583,
-0.067524,
-0.055724,
-0.111110,
0.006150,
-0.082000,
0.019168,
-0.040809,
-0.073211,
-0.084614,
-0.102170,
-0.049333,
0.044677,
-0.106670,
-0.073340,
-0.051333,
-0.102980,
0.080873,
0.006131,
0.030307,
0.042638,
-0.152480,
0.062249,
-0.018465,
0.044254,
-0.028476,
-0.087690,
-0.024084,
-0.019757,
0.038191,
0.104790,
-0.020243,
-0.010730,
0.193190,
0.009193,
0.020191,
0.087269,
0.010829,
0.122270,
-0.036267,
0.045939,
0.063001,
-0.071109,
0.023760,
0.002533,
0.182080,
0.030357,
-0.023907,
0.127180,
-0.061931,
-0.038377,
-0.024889,
0.027997,
0.079955,
-0.055638,
-0.132600,
0.052632,
0.081391,
0.069916,
0.052146,
-0.031653,
0.144190,
-0.016478,
0.045586,
-0.018015,
-0.118180,
0.006077,
0.015905,
0.014243,
-0.001804,
0.081268,
0.065987,
0.030993,
0.059933,
-0.099945,
0.011759,
-0.066344,
-0.045765,
-0.107660,
0.014166,
-0.057197,
0.221980,
0.012697,
0.015744,
-0.007857,
0.020678,
0.048234,
-0.006862,
-0.002569,
-0.032345,
-0.000641,
-0.294570,
0.063045,
0.052816,
-0.016068,
-0.049455,
-0.063249,
-0.044233,
-0.078368,
-0.041853,
0.000703,
0.003288,
-0.004642,
0.013238,
0.016093,
-0.052721,
-0.121600,
0.011776,
0.045384,
-0.091035,
0.019642,
-0.017686,
-0.083441,
0.132730,
0.040422,
-0.082704,
-0.083328,
-0.073238,
-0.166300,
-0.086128,
-0.023935,
-0.012572,
0.031025,
-0.022126,
0.084300,
-0.043632,
0.046401,
-0.040341,
-0.131740,
-0.008560,
0.109520,
0.016766,
0.092717,
-0.070446,
-0.173070,
0.034753,
0.033485,
0.128890,
0.030947,
0.085197,
0.021707,
-0.026871,
0.006468,
-0.097255,
0.071784,
-0.027094,
0.014187,
0.053691,
-0.036729,
0.014422,
-0.028790,
0.033888,
-0.054820,
-0.017021,
0.008161,
-0.110130,
-0.015392,
0.023600,
0.168750,
-0.081483,
-0.178210,
-0.149480,
0.009651,
0.065733,
-0.097615,
-0.042006,
-0.041845,
0.010780,
-0.021021,
0.036954,
0.195780,
-0.030051,
-0.002425,
0.012886,
0.021063,
-0.104100,
-0.057022,
-0.052568,
-0.203190,
0.003134,
0.087065,
-0.053935,
0.083896,
0.081440,
0.031004,
0.164170,
-0.090214,
-0.026146,
-0.031920,
0.052726,
-0.014503,
-0.050788,
0.068832,
0.010718,
-0.015549,
-0.082183,
-0.112910,
0.109840,
0.120900,
-0.009894,
-0.058947,
0.120780,
-0.070001,
-0.087084,
0.086346,
0.063823,
-0.001178,
0.052432,
0.085544,
0.211770,
0.067703,
-0.049536,
0.020992,
0.107970,
-0.060672,
0.044554,
0.004760,
0.100380,
-0.037910,
-0.049312,
0.084527,
-0.057852,
-0.182440,
0.051642,
0.082518,
0.013350,
-0.301480,
-0.019017,
-0.309190,
0.045797,
-0.023565,
0.052675,
-0.094840,
0.140170,
0.121430,
0.065419,
-0.069124,
0.023790,
0.155640,
-0.003396,
-0.002306,
0.008236,
0.024135,
0.029188,
-0.065149,
0.076668,
-0.023344,
-0.044531,
0.013343,
0.081926,
-0.255930,
0.010519,
0.049468,
0.023745,
-0.128580,
0.013129,
0.010918,
-0.011013,
-0.067682,
0.351590,
-0.010684,
-0.058286,
0.067564,
0.075632,
0.016754,
-0.086462,
0.037310,
-0.014354,
-0.020843,
0.007711,
-0.094907,
-0.074109,
0.087803,
-0.121830,
-0.113780,
0.109830,
-0.054486,
-0.031773,
-0.234090,
0.074842,
-0.169500,
0.078165,
0.037176,
-0.032384,
-0.146550,
-0.278620,
-0.053908,
0.077928,
0.082593,
0.081076,
0.114770,
0.083511,
-0.070764,
-0.070398,
-0.037557,
-0.007943,
0.018125,
-0.084308,
0.031744,
0.007984,
-0.024527,
-0.033013,
-0.009627,
-0.195920,
-0.094551,
-0.106330,
0.154130,
-0.004994,
0.016019,
-0.011178,
0.004270,
0.036321,
-0.034711,
-0.035058,
-0.052743,
-0.033524,
0.080107,
-0.120520,
-0.057330,
0.122330,
0.077808,
0.053429,
0.083520,
0.025013,
0.013837,
0.049699,
0.091113,
-0.165620,
-0.028696,
0.122130,
0.079609,
0.119380,
-0.056573,
-0.042762,
0.142610,
-0.010944,
-0.050965,
-0.061188,
-0.079738,
-0.069912,
0.041496,
0.025796,
-0.053935,
0.013417,
0.033718,
-0.042605,
0.245540,
-0.117810,
-0.131560,
0.063244,
0.139390,
0.020720,
0.108790,
0.134510,
-0.133800,
-0.120080,
-0.029055,
0.038489,
0.075787,
-0.116180,
-0.021655,
0.005590,
-0.017180,
0.008791,
0.064921,
-0.047816,
-0.024888,
-0.056645,
-0.072700,
-0.057430,
0.096223,
0.034257,
-0.004320,
-0.122940,
0.123430,
-0.108260,
0.098197,
-0.098266,
0.038475,
-0.110530,
-0.081819,
0.095206,
0.069687,
-0.108510,
0.071721,
-0.032300,
0.033835,
0.046283,
0.012799,
0.062508,
0.023639,
0.009541,
-0.017037,
-0.211150,
-0.009323,
0.033177,
0.017712,
0.031040,
0.096713,
0.052514,
0.000750,
0.111100,
0.074572,
-0.057809,
0.150850,
0.135730,
0.173510,
0.091214,
-0.077828,
0.010436,
-0.199430,
0.071375,
0.022294,
0.032359,
0.079152,
-0.137840,
-0.087938,
0.026965,
-0.059678,
0.014475,
-0.083470,
-0.100640,
0.011752,
0.025928,
-0.077683,
-0.142540,
0.179250,
-0.135310,
0.071728,
0.068417,
0.037436,
0.067455,
0.029184,
-0.037558,
-0.065634,
-0.132570,
0.055419,
-0.040340,
-0.104400,
0.077822,
-0.012607,
-0.151570,
-0.003799,
-0.105110,
0.033649,
0.036744,
-0.029931,
0.109320,
0.055444,
0.025565,
-0.009015,
-0.019303,
0.087682,
0.035454,
-0.056947,
-0.079342,
0.066935,
-0.040569,
-0.025178,
0.088128,
-0.048317,
0.028054,
0.246520,
-0.069556,
0.014750,
-0.069804,
0.079777,
0.113850,
0.324600,
-0.064756,
0.010068,
-0.060950,
-0.001685,
-0.039314,
0.104190,
0.075061,
-0.044609,
-0.035238,
-0.069041,
0.045653,
0.043121,
-0.040769,
-0.030017,
0.050300,
-0.014666,
-0.025611,
-0.006594,
-0.086330,
-0.012249,
0.063614,
-0.172020,
-0.021633,
-0.096493,
0.014393,
0.107870,
-0.143590,
0.027143,
-0.016846,
-0.017543,
-0.181090,
0.076759,
-0.106900,
-0.013270,
0.228400,
-0.103610,
-0.096482,
0.078222,
0.008401,
0.002406,
0.028837,
-0.041714,
0.072221,
-0.026131,
0.039009,
-0.000084,
-0.041484,
0.071260,
-0.018779,
-0.192140,
-0.055634,
-0.126870,
-0.063841,
0.072114,
0.055916,
-0.169080,
-0.081806,
-0.042421,
0.033839,
0.057472,
-0.093099,
-0.032436,
-0.049804,
-0.013542,
0.035018,
-0.093539,
0.151720,
0.037203,
0.033506,
-0.034254,
-0.030317,
0.077643,
0.002499,
-0.060003,
-0.093644,
0.084809,
0.035943,
-0.127450,
-0.182600,
-0.015913,
0.005188,
-0.080321,
0.042232,
-0.056822,
-0.028897,
-0.096737,
0.090055,
0.078720,
-0.158660,
0.148870,
-0.039360,
0.066183,
-0.086852,
0.055515,
-0.091762,
0.069013,
-0.120610,
0.074906,
0.091799,
0.042710,
0.083590,
-0.027145,
-0.164740,
-0.243800,
0.091032,
-0.059302,
0.070871,
-0.079754,
0.022509,
-0.003943,
-0.021271,
0.076416,
0.076249,
-0.052718,
-0.015506,
-0.065098,
-0.040638,
-0.046694,
0.055507,
-0.018778,
0.072692,
-0.061239,
0.040134,
-0.217100,
-0.008961,
0.058138,
0.075318,
0.035606,
0.007016,
-0.086237,
-0.111680,
0.017519,
-0.039322,
-0.082568,
-0.083884,
0.045198,
0.058689,
0.034158,
-0.085724,
0.024577,
-0.009910,
-0.115600,
0.082876,
-0.002486,
-0.074917,
-0.022126,
0.057089,
0.149830,
0.148860,
-0.065251,
-0.067344,
0.034072,
-0.096778,
0.081005,
-0.041666,
-0.016544,
0.017393,
-0.040586,
-0.052191,
0.084449,
-0.038349,
-0.144120,
0.065797,
-0.064127,
-0.114010,
0.080320,
0.036423,
-0.077148,
-0.006697,
0.157110,
0.084930,
0.042320,
0.119050,
0.054205,
-0.031299,
0.170230,
0.019726,
0.076703,
-0.111320,
0.100220,
-0.139640,
-0.168350,
-0.041329,
-0.002466,
-0.031324,
-0.088809,
-0.256790,
-0.072850,
0.074015,
0.051936,
-0.037432,
0.022486,
0.084610,
0.081014,
0.036653,
-0.033272,
0.026266,
0.039240,
0.122720,
0.071483,
-0.008348,
0.033269,
0.020563,
-0.037901,
0.064070,
-0.032200,
-0.099139,
-0.022881,
0.071782,
-0.104150,
0.030199,
-0.034056,
-0.096669,
-0.025772,
-0.312900,
-0.246600,
-0.108990,
-0.055112,
-0.005049,
0.004279,
-0.144030,
-0.012755,
0.069339,
0.171250,
0.093635,
-0.011089,
-0.023682,
-0.075154,
-0.048753,
0.009097,
0.078401,
0.030820,
-0.050464,
-0.041294,
0.103290,
0.192300,
-0.079782,
-0.054846,
-0.040833,
0.036133,
-0.025553,
-0.092777,
-0.034164,
0.057144,
-0.080936,
-0.110220,
0.064617,
0.052713,
-0.066395,
-0.139190,
0.095406,
0.039271,
0.033518,
-0.036156,
0.154360,
0.010946,
0.000857,
0.041884,
-0.064334,
0.140210,
0.085544,
0.117070,
-0.108830,
-0.014849,
-0.169580,
-0.066464,
0.100550,
-0.094998,
-0.138700,
-0.039106,
-0.127650,
0.010263,
0.042430,
-0.029067,
-0.017342,
-0.119090,
0.161050,
-0.076486,
0.008829,
0.082770,
-0.099185,
-0.156120,
-0.043585,
0.032675,
-0.008230,
-0.013797,
0.044182,
0.007869,
-0.062420,
0.010055,
-0.039490,
-0.062760,
-0.049171,
0.059943,
0.048617,
-0.145960,
-0.109730,
-0.024438,
0.004030,
-0.078621,
0.029004,
-0.001253,
-0.020122,
0.012334,
-0.002438,
0.033976,
-0.008092,
-0.002756,
0.089430,
-0.049413,
-0.017862,
0.067038,
-0.101350,
-0.015394,
0.066967,
-0.009673,
-0.103790,
-0.048559,
-0.151570,
-0.033594,
0.029504,
0.003361,
0.067167,
0.065599,
0.038354,
-0.151280,
-0.061597,
0.020510,
-0.121890,
-0.129400,
-0.016904,
-0.083798,
-0.030310,
0.035358,
-0.054824,
-0.156260,
-0.061413,
0.006676,
-0.046143,
-0.030928,
-0.050156,
-0.053930,
-0.010715,
-0.141020,
0.096407,
-0.046145,
-0.010087,
-0.076445,
-0.015778,
0.047840,
-0.095806,
0.035616,
0.035936,
-0.098770,
0.096949,
-0.028856,
-0.060039,
-0.010120,
-0.209940,
-0.216550,
-0.151140,
-0.027970,
0.070819,
-0.215720,
0.063476,
-0.107200,
0.004699,
-0.011809,
-0.025844,
0.050341,
-0.022962,
-0.079133,
-0.070874,
0.041238,
0.041451,
-0.073999,
0.010440,
-0.043291,
-0.067984,
0.037786,
0.017152,
-0.067572,
-0.070621,
-0.011056,
0.009216,
-0.063404,
0.029377,
0.040364,
-0.030387,
-0.074187,
-0.038096,
0.040167,
0.027768,
-0.042175,
-0.141880,
-0.047975,
-0.037397,
0.028446,
-0.006465,
-0.070472,
-0.038849,
-0.037826,
0.077915,
0.028805,
-0.123090,
0.078168,
0.081371,
0.065085,
0.084532,
-0.045199,
-0.011724,
-0.138690,
-0.028867,
-0.087321,
-0.075766,
-0.050892,
-0.151380,
0.150490,
-0.089619,
-0.068218,
0.058772,
0.178560,
0.003193,
-0.056387,
0.015295,
0.114200,
-0.047345,
0.040630,
-0.096518,
-0.002489,
0.086020,
-0.045529,
-0.031466,
0.035631,
-0.018563,
0.015822,
0.111610,
0.215030,
-0.069200,
-0.157160,
0.084723,
-0.004825,
0.001995,
0.072801,
-0.017178,
0.049751,
0.076887,
-0.014445,
-0.057593,
0.105050,
0.090168,
-0.069296,
-0.093165,
-0.064763,
0.038332,
0.062537,
-0.062051,
0.060840,
0.085560,
-0.006777,
0.039435,
-0.085728,
0.080096,
-0.034035,
0.019944,
0.048368,
-0.017574,
-0.003364,
0.058589,
0.082340,
-0.005515,
-0.087629,
-0.103910,
-0.006094,
0.022404,
0.009446,
-0.063272,
0.029665,
0.005138,
-0.005683,
-0.001288,
0.042497,
-0.033323,
0.020008,
0.079367,
-0.033170,
0.155240,
-0.022297,
-0.065396,
0.030974,
-0.059067,
-0.106450,
0.018711,
0.020983,
-0.005663,
0.029641,
0.036944,
-0.003535,
-0.012502,
0.047956,
-0.115980,
0.150470,
-0.033263,
-0.072149,
0.010817,
0.174690,
-0.028305,
0.077395,
-0.053518,
0.050439,
-0.055135,
-0.092680,
0.002971,
0.063036,
0.128300,
-0.068926,
0.013820,
-0.031182,
0.026652,
0.010986,
-0.017937,
0.040451,
-0.078249,
0.066138,
0.194820,
-0.133820,
-0.071151,
-0.003362,
-0.063459,
0.045641,
-0.018828,
0.060175,
0.033827,
0.090359,
-0.013266,
0.139380,
-0.042386,
0.168220,
0.073805,
-0.019184,
-0.069138,
0.071559,
-0.069142,
0.053758,
-0.121970,
0.053565,
0.067239,
-0.044036,
-0.067082,
0.059556,
-0.012852,
0.033668,
-0.043792,
0.080430,
-0.001998,
0.028236,
-0.004554,
0.113010,
-0.096959,
-0.057219,
-0.063143,
-0.007434,
-0.024439,
-0.036658,
0.058736,
0.038439,
-0.204920,
-0.105980,
-0.024957,
0.148600,
-0.081996,
-0.026491,
0.026792,
0.073492,
-0.063245,
-0.080458,
0.221240,
0.064663,
0.189930,
0.034428,
-0.005107,
0.008683,
0.143710,
-0.000185,
-0.037129,
-0.164440,
-0.109040,
-0.027205,
-0.022457,
-0.061786,
0.047040,
-0.065019,
-0.072468,
-0.006759,
-0.044147,
0.050568,
0.088437,
-0.184180,
0.106000,
0.012947,
-0.020659,
-0.025256,
0.055613,
0.033246,
0.093105,
0.033225,
0.118730,
0.024437,
0.053251,
-0.080792,
0.097397,
-0.050765,
-0.081763,
-0.010871,
0.115270,
0.050254,
0.062068,
-0.050412,
0.056579,
0.204170,
0.013636,
-0.066143,
-0.066933,
0.053940,
0.217760,
-0.040784,
0.085245,
0.109600,
-0.171560,
-0.002564,
0.124940,
-0.082168,
0.021024,
-0.086391,
0.205460,
0.015651,
-0.014172,
0.058544,
0.002172,
0.056082,
-0.076019,
0.114360,
-0.040415,
0.012512,
0.276910,
0.009538,
-0.098868,
0.084152,
0.020077,
-0.147410,
-0.056414,
0.014347,
-0.162290,
0.083998,
-0.050375,
-0.053091,
-0.030189,
-0.280360,
0.032424,
0.007351,
-0.038811,
0.080491,
-0.002939,
-0.071696,
0.050373,
-0.039158,
0.168500,
-0.005220,
0.076260,
0.086772,
-0.005270,
0.007909,
-0.054176,
-0.007252,
-0.067560,
-0.077611,
-0.169200,
0.000481,
0.150790,
0.059077,
0.084585,
-0.016461,
0.018020,
-0.076565,
-0.019562,
0.095961,
0.149700,
-0.119820,
-0.009867,
0.069938,
-0.089328,
-0.015535,
-0.015589,
-0.043084,
0.051428,
0.101510,
-0.063473,
0.024796,
-0.113370,
0.028839,
0.026263,
-0.065012,
-0.015154,
-0.101530,
-0.057491,
0.138780,
-0.044779,
-0.065029,
0.053025,
0.064927,
-0.122140,
-0.065646,
0.069745,
-0.074933,
-0.103010,
-0.059366,
0.035841,
-0.019059,
-0.026288,
-0.143270,
0.152550,
-0.000307,
-0.091118,
0.084886,
0.103510,
-0.038122,
-0.023625,
0.084394,
-0.027821,
0.136970,
0.065880,
0.010666,
0.085181,
-0.051808,
0.007875,
-0.042589,
-0.043288,
0.075915,
0.022438,
0.052784,
-0.041192,
0.139840,
0.005468,
0.047789,
-0.055493,
0.049109,
0.114140,
-0.032401,
-0.000488,
0.076607,
0.231890,
-0.032040,
0.202780,
-0.056576,
-0.242820,
0.162540,
-0.040346,
0.053260,
-0.007276,
-0.054822,
0.024550,
-0.162790,
-0.039989,
0.062741,
-0.081997,
-0.137670,
-0.208270,
0.068871,
-0.080171,
-0.061875,
-0.025007,
0.010731,
-0.030047,
0.054682,
0.005026,
-0.111200,
-0.107020,
0.004663,
0.006741,
-0.002716,
-0.004789,
0.148350,
-0.060219,
0.031528,
-0.010275,
0.022954,
-0.140550,
-0.025989,
-0.029114,
-0.117610,
-0.042037,
0.018263,
-0.110340,
0.060439,
-0.139280,
0.042884,
0.215660,
-0.066012,
-0.073912,
-0.056094,
0.011592,
0.025122,
-0.020714,
0.088115,
-0.036352,
-0.179530,
-0.076773,
0.013256,
0.035034,
0.020535,
-0.125040,
-0.028887,
-0.049535,
-0.080678,
-0.057336,
-0.063598,
-0.000644,
-0.067546,
0.177130,
-0.040708,
0.016698,
-0.043614,
0.051533,
0.014428,
0.060196,
-0.114770,
-0.041477,
0.065076,
-0.009612,
-0.008998,
0.018644,
0.070925,
-0.068089,
-0.196570,
0.078668,
-0.015847,
0.004151,
-0.042815,
-0.036520,
0.002525,
-0.116080,
0.051464,
-0.074004,
0.029315,
-0.009567,
-0.092904,
0.057693,
-0.026324,
0.045458,
0.070913,
-0.041180,
-0.012154,
-0.058541,
0.017396,
0.037129,
0.049565,
-0.079911,
-0.022807,
0.035072,
0.026869,
-0.032276,
-0.177770,
0.071383,
0.068721,
-0.105010,
-0.047895,
-0.132240,
-0.060706,
-0.040745,
0.102600,
0.058242,
0.072117,
-0.009428,
0.012506,
0.026710,
-0.013414,
0.064634,
0.014694,
0.020783,
-0.018552,
-0.070566,
-0.044998,
-0.043656,
0.065172,
-0.114680,
0.110470,
0.114320,
0.090396,
-0.001333,
0.182910,
0.066522,
0.169770,
0.101980,
0.082478,
-0.014877,
0.075497,
0.086237,
0.187420,
-0.002808,
-0.208310,
-0.092312,
-0.204650,
0.012553,
-0.010366,
0.018955,
0.097777,
-0.183930,
0.079781,
-0.003709,
-0.020479,
0.039700,
0.009322,
-0.045648,
0.034589,
-0.090262,
-0.040811,
0.107210,
-0.065508,
-0.141550,
-0.233890,
0.020470,
-0.036430,
-0.029884,
0.007398,
0.025446,
0.076103,
-0.048463,
0.068728,
0.061118,
0.203310,
-0.039423,
0.062040,
-0.167040,
0.057921,
0.000759,
0.031566,
0.057787,
0.064439,
0.027707,
0.066148,
-0.141400,
0.073988,
0.072382,
-0.089079,
-0.077343,
-0.179380,
-0.042039,
-0.055751,
-0.081180,
-0.082112,
0.068830,
-0.065091,
-0.073327,
-0.019767,
0.037584,
0.131070,
-0.024287,
-0.261460,
0.038772,
0.238150,
0.020956,
-0.082383,
-0.079892,
-0.074130,
-0.060817,
0.091957,
0.026693,
-0.010897,
-0.093031,
-0.310960,
0.128040,
0.031529,
-0.037457,
-0.051627,
-0.093067,
-0.003517,
-0.064301,
0.059067,
0.063830,
0.148540,
0.011791,
0.051295,
0.178360,
-0.003797,
0.088582,
-0.029851,
-0.069336,
-0.189080,
-0.128260,
0.037449,
0.011600,
0.055546,
0.094416,
-0.020893,
0.119660,
-0.112740,
0.112260,
-0.017728,
-0.028247,
-0.060505,
-0.043175,
-0.024842,
0.075489,
-0.023707,
-0.001432,
0.129300,
0.170940,
-0.115330,
-0.086939,
0.088783,
0.062928,
0.011733,
0.058363,
0.090754,
-0.029666,
-0.027233,
0.022782,
-0.054001,
0.058281,
-0.083738,
-0.118220,
-0.058712,
-0.035692,
0.001911,
0.063971,
0.085600,
-0.039636,
-0.033768,
-0.007185,
0.121640,
-0.038540,
-0.042805,
0.036875,
-0.073032,
-0.058038,
-0.062177,
-0.034937,
-0.093257,
0.056536,
-0.095443,
-0.053961,
-0.051110,
0.032426,
0.012927,
-0.026259,
-0.024750,
0.156670,
-0.068606,
0.210300,
0.191500,
0.138760,
-0.082127,
-0.159300,
-0.055955,
0.161710,
0.053942,
0.077285,
-0.110990,
-0.092694,
0.041992,
-0.074479,
0.044166,
0.028501,
0.027265,
0.043476,
-0.115010,
0.040351,
0.019790,
0.025955,
0.087453,
0.183660,
-0.034439,
-0.011382,
-0.115690,
-0.049103,
0.102680,
-0.069933,
0.011008,
-0.065431,
0.141480,
-0.108070,
-0.143160,
-0.061118,
-0.029160,
-0.143510,
0.052843,
-0.066821,
0.011521,
0.051481,
-0.032697,
-0.035674,
0.037441,
-0.014563,
-0.001868,
-0.031195,
0.022867,
0.040742,
0.015267,
-0.032090,
-0.043948,
-0.028583,
0.116580,
0.077472,
0.006718,
-0.063911,
0.098173,
-0.080538,
-0.182360,
-0.089161,
0.088949,
-0.050979,
-0.018369,
0.090958,
-0.008436,
0.090222,
-0.062725,
0.153090,
0.045685,
-0.111730,
-0.039665,
-0.039013,
-0.150810,
0.028621,
-0.007418,
-0.066176,
-0.032662,
-0.070594,
-0.077152,
-0.013999,
-0.027697,
-0.002016,
0.079753,
-0.099207,
0.082816,
0.072450,
-0.169650,
0.095384,
0.123110,
0.051251,
-0.013182,
-0.098970,
-0.078494,
-0.088609,
-0.016444,
-0.030106,
0.128470,
-0.068228,
-0.089904,
0.065949,
-0.123500,
0.073455,
-0.020541,
0.049612,
-0.052283,
0.028475,
0.063615,
0.263680,
-0.009437,
-0.084509,
-0.249720,
0.015724,
0.079912,
-0.034997,
0.040713,
-0.025793,
0.000294,
-0.105980,
-0.042822,
0.172630,
0.092614,
0.053107,
0.106050,
-0.130950,
-0.041011,
-0.102870,
0.226690,
-0.047523,
0.075438,
0.063765,
0.017120,
0.117840,
0.035269,
0.099948,
-0.159840,
-0.034836,
-0.064144,
0.081110,
0.015277,
-0.012937,
-0.052995,
0.113290,
0.034096,
0.043689,
-0.028026,
0.069894,
-0.024814,
-0.024834,
-0.105630,
-0.106370,
0.072218,
0.032805,
-0.040560,
0.009892,
-0.025525,
0.103980,
0.038737,
0.104720,
-0.106170,
0.062958,
-0.009850,
0.073040,
-0.008330,
0.102970,
-0.092960,
-0.053680,
-0.032840,
0.081546,
-0.023126,
0.041239,
0.133040,
0.021076,
0.114050,
-0.019962,
-0.052329,
-0.044579,
0.066198,
0.022217,
-0.065812,
0.066305,
0.013014,
0.063408,
0.051658,
0.154580,
0.053173,
0.059616,
-0.089394,
-0.041983,
-0.070417,
0.014457,
0.085246,
0.072134,
0.017120,
-0.023781,
0.001123,
-0.034955,
-0.033726,
0.006882,
-0.017274,
0.037013,
-0.026124,
0.069329,
-0.075855,
0.177750,
-0.047727,
0.052434,
-0.118900,
0.016522,
-0.118630,
-0.056704,
0.094400,
-0.021184,
0.102710,
0.072855,
-0.006679,
0.000232,
-0.194190,
0.062432,
0.070526,
0.015898,
0.084949,
0.014101,
-0.008985,
0.207000,
0.023597,
-0.032542,
-0.057277,
-0.009200,
-0.127980,
0.040171,
0.216380,
0.085542,
-0.008784,
0.056966,
-0.096412,
-0.065397,
-0.064205,
0.180070,
-0.103380,
0.076232,
-0.081339,
0.057231,
0.011352,
0.089058,
0.002431,
0.066549,
-0.042746,
0.077431,
-0.020783,
0.033644,
0.071269,
0.082102,
0.014841,
-0.222740,
0.186000,
-0.052547,
-0.035364,
0.018681,
0.044399,
-0.094956,
0.017057,
0.011471,
-0.018157,
0.089930,
-0.036952,
-0.054337,
-0.040080,
-0.083414,
0.157210,
0.025240,
-0.140450,
-0.052609,
0.016377,
0.024665,
0.029243,
-0.050549,
-0.135380,
-0.034058,
0.028747,
0.088463,
-0.072442,
-0.133740,
-0.020084,
-0.079072,
-0.015516,
-0.018458,
-0.056871,
0.050103,
0.007934,
-0.013542,
-0.018415,
-0.008117,
0.048713,
-0.006780,
-0.058597,
-0.012473,
-0.071994,
0.042294,
0.015818,
-0.019038,
0.020782,
-0.168960,
0.061593,
0.028463,
0.002931,
-0.090763,
0.033093,
-0.022489,
-0.050346,
0.053362,
-0.023920,
0.073489,
-0.036105,
-0.007744,
0.029411,
0.043882,
-0.048413,
-0.048943,
0.071311,
-0.013235,
-0.047218,
-0.011168,
-0.032711,
0.050389,
-0.027374,
-0.056063,
-0.101880,
0.003338,
-0.113570,
-0.032425,
0.011735,
-0.000722,
-0.054420,
0.055101,
-0.082201,
-0.020402,
-0.047033,
-0.093687,
0.040603,
-0.039791,
-0.092677,
0.026842,
0.058369,
0.016863,
-0.027716,
-0.059858,
0.009557,
0.023875,
-0.047320,
-0.086441,
-0.029774,
0.007876,
-0.010789,
-0.018360,
0.028858,
-0.029598,
-0.130240,
-0.030520,
-0.081394,
-0.114490,
-0.142480,
0.026925,
-0.057603,
0.019327,
-0.004275,
-0.049188,
-0.123450,
-0.018916,
-0.088972,
0.009477,
-0.013602,
0.010533,
-0.047864,
0.039270,
0.089875,
-0.001669,
-0.146380,
0.051532,
0.059843,
0.072580,
0.069828,
-0.124600,
-0.048188,
-0.078611,
-0.055137,
-0.066421,
-0.123320,
-0.095512,
-0.068215,
-0.076912,
0.024499,
-0.001850,
-0.048444,
0.047415,
-0.040806,
-0.163550,
-0.051645,
-0.047151,
-0.075877,
-0.034671,
-0.184690,
-0.019570,
-0.002764,
-0.076331,
0.087325,
0.008985,
-0.065404,
-0.017200,
-0.041208,
0.040579,
-0.116060,
-0.072533,
-0.012244,
0.079380,
0.012038,
-0.077791,
-0.073632,
-0.034582,
-0.010821,
-0.025465,
0.078796,
0.033959,
0.030034,
0.029649,
0.035609,
0.033469,
0.003184,
-0.017720,
-0.014426,
-0.073096,
0.022730,
0.037794,
0.116870,
-0.000052,
0.102410,
0.167260,
0.059848,
-0.142120,
0.106190,
0.054593,
-0.088792,
-0.090576,
0.029892,
-0.065345,
0.014012,
0.066520,
0.068582,
0.116830,
-0.147380,
-0.080226,
0.156100,
-0.085138,
-0.176870,
0.098133,
0.091940,
0.069920,
-0.032701,
0.016400,
-0.074192,
-0.064202,
0.077669,
0.005500,
0.025587,
0.140350,
0.045150,
0.102300,
-0.090349,
-0.071663,
-0.029189,
0.107770,
0.093988,
0.041883,
-0.022572,
-0.053696,
-0.042457,
-0.005882,
-0.065325,
-0.024676,
-0.060553,
0.109860,
-0.087849,
-0.037176,
0.079475,
0.132020,
0.067324,
0.019154,
-0.005598,
0.034805,
0.068007,
-0.083017,
0.076363,
-0.226140,
0.045536,
-0.020552,
-0.027869,
0.025984,
0.038609,
0.016444,
-0.010744,
-0.060000,
0.056920,
0.083063,
0.036713,
-0.010950,
-0.039293,
0.016407,
-0.121150,
0.055469,
-0.109270,
0.037519,
-0.021309,
-0.012601,
0.078649,
-0.035126,
0.119320,
0.083911,
0.167880,
-0.192400,
-0.036416,
0.089049,
0.004654,
-0.016941,
0.074060,
-0.018845,
0.093083,
0.074085,
-0.069845,
-0.046845,
-0.072114,
-0.050302,
-0.016384,
0.145230,
0.000306,
0.073387,
-0.041735,
-0.073365,
-0.177200,
0.056658,
-0.010495,
0.022583,
0.129110,
0.174490,
0.054943,
0.078799,
-0.083639,
-0.077242,
0.176850,
-0.098933,
-0.032221,
0.041470,
0.082461,
0.029316,
-0.093049,
-0.011348,
-0.015771,
0.055525,
0.180620,
-0.237870,
0.026783,
0.016907,
-0.097417,
0.060626,
-0.078447,
-0.306500,
0.067588,
0.076992,
-0.165030,
0.072468,
0.101850,
0.020057,
0.055507,
-0.062927,
-0.011904,
0.107920,
-0.001752,
0.072241,
0.028414,
0.111980,
-0.078796,
0.000910,
-0.008802,
0.049752,
-0.049029,
0.163730,
0.009391,
-0.066921,
-0.075309,
0.180320,
0.009582,
-0.087586,
-0.205520,
-0.073732,
-0.081940,
0.019811,
-0.053748,
-0.035194,
0.102930,
0.083004,
0.084901,
0.081885,
-0.064390,
-0.029590,
0.048238,
-0.043518,
0.111890,
0.137800,
0.242010,
-0.151360,
0.018364,
0.006523,
0.071392,
0.156940,
0.082410,
0.004099,
-0.111530,
-0.065607,
-0.081484,
-0.071158,
0.021625,
0.056177,
0.081472,
0.016817,
0.015464,
-0.069722,
-0.195160,
-0.001248,
-0.108340,
0.090200,
0.055419,
-0.038059,
-0.082152,
0.179570,
-0.038680,
0.012920,
-0.098903,
0.090012,
0.025759,
0.072495,
0.002505,
-0.080148,
0.134740,
0.043977,
-0.063183,
-0.096116,
0.043453,
-0.103040,
0.015636,
-0.059376,
-0.069003,
0.102750,
0.024731,
0.007382,
-0.022600,
-0.072322,
-0.065130,
0.000285,
-0.118360,
-0.099545,
0.055986,
-0.007188,
-0.102270,
-0.040736,
-0.077578,
0.152040,
-0.065416,
-0.006384,
-0.102620,
-0.108550,
0.050369,
-0.059494,
-0.062231,
-0.028337,
-0.109070,
0.081182,
0.091236,
0.050869,
-0.073651,
-0.040613,
0.027043,
-0.072120,
-0.224060,
-0.084251,
-0.124790,
-0.220630,
-0.049171,
0.048204,
-0.225370,
0.011526,
-0.170740,
0.067371,
-0.032617,
0.015078,
-0.064411,
0.059315,
0.102560,
-0.091795,
0.087072,
-0.052231,
0.054386,
-0.086053,
-0.023723,
0.063168,
-0.084683,
0.191670,
-0.070363,
-0.067484,
0.029686,
-0.010035,
-0.207600,
-0.008154,
0.171780,
-0.025763,
-0.032210,
-0.074237,
0.033120,
0.063446,
-0.077000,
0.128610,
0.068843,
-0.053473,
0.053158,
-0.187020,
-0.060862,
-0.101340,
-0.100600,
-0.120350,
0.230330,
-0.127750,
0.067107,
-0.002598,
0.030060,
0.040249,
0.049130,
-0.148770,
0.057294,
-0.009545,
0.077223,
-0.048986,
0.035693,
0.051415,
-0.046214,
0.093247,
-0.081059,
-0.016718,
-0.045738,
-0.013999,
0.096627,
-0.039468,
-0.023518,
-0.250930,
0.098919,
-0.011872,
0.087146,
0.067544,
0.096950,
0.018329,
0.001429,
-0.160450,
0.051138,
-0.035762,
0.131940,
-0.142810,
0.091283,
0.033794,
0.033866,
-0.152960,
0.021950,
0.024867,
0.030583,
0.023761,
-0.020850,
0.045739,
0.006293,
0.172160,
0.011301,
-0.256330,
-0.147640,
0.001131,
0.072413,
-0.187340,
0.157720,
-0.098550,
-0.001281,
-0.091462,
-0.065972,
-0.103580,
0.080769,
-0.058787,
-0.053598,
0.033096,
0.029242,
-0.001223,
-0.051522,
0.044675,
0.032104,
-0.059833,
0.035854,
-0.096661,
0.017096,
-0.047186,
0.028547,
-0.062501,
-0.003512,
0.015578,
0.059349,
0.074598,
-0.026865,
-0.098598,
-0.050231,
0.021494,
-0.013638,
-0.072225,
0.048061,
0.068170,
-0.078113,
-0.074080,
-0.022602,
-0.034126,
0.013492,
0.002262,
-0.003449,
-0.016705,
-0.006558,
-0.127090,
-0.014870,
-0.001613,
-0.085235,
0.031734,
-0.100340,
0.026266,
0.054321,
0.078711,
0.085231,
0.069970,
0.001946,
0.051555,
-0.025464,
-0.053200,
-0.029146,
-0.046940,
-0.015655,
-0.086657,
0.075340,
-0.023683,
0.054049,
0.013872,
-0.075091,
0.012645,
0.066867,
0.003793,
0.017319,
0.045705,
0.046609,
-0.112240,
-0.003949,
-0.022527,
-0.081795,
-0.044817,
-0.021215,
0.050632,
0.076881,
-0.017902,
0.085936,
-0.069657,
-0.123120,
0.018046,
-0.028281,
-0.012291,
0.049384,
-0.022198,
-0.007491,
-0.047066,
-0.004023,
-0.089770,
-0.107990,
-0.052311,
-0.037003,
-0.027431,
0.003054,
0.068456,
0.008948,
-0.000034,
-0.047247,
-0.078366,
-0.038846,
-0.041254,
0.063134,
-0.089043,
0.029512,
-0.055594,
-0.023580,
0.026121,
-0.018492,
0.082519,
0.072458,
0.014956,
-0.078139,
-0.115910,
-0.029430,
-0.002296,
0.003869,
0.017751,
-0.014251,
0.003839,
-0.012912,
0.059926,
-0.011160,
-0.009002,
-0.077032,
-0.035691,
0.020803,
0.022967,
-0.064953,
0.055012,
-0.019822,
-0.109110,
-0.026785,
-0.063427,
0.020959,
0.095369,
-0.033002,
0.014145,
-0.079105,
-0.059362,
-0.025240,
0.046653,
-0.073031,
0.000287,
0.031260,
-0.015041,
-0.100150,
-0.078956,
0.037666,
-0.050152,
0.065119,
-0.011976,
-0.072640,
-0.043463,
-0.004425,
0.058091,
-0.008643,
-0.019227,
-0.025632,
-0.006135,
-0.067449,
0.039576,
-0.069025,
0.047031,
0.034171,
0.010142,
-0.026393,
-0.039064,
-0.026636,
-0.015293,
-0.044415,
-0.040107,
-0.078457,
-0.047473,
0.035411,
-0.105940,
-0.103600,
-0.008668,
-0.021828,
-0.077245,
0.020461,
-0.099869,
-0.057649,
0.025012,
0.013823,
-0.102480,
0.009927,
0.032349,
0.084776,
-0.057503,
0.060435,
0.079282,
-0.033410,
-0.005038,
0.038514,
-0.086087,
-0.091502,
0.049862,
0.018778,
-0.018573,
-0.011502,
0.067492,
0.008966,
-0.031844,
0.071071,
-0.089679,
0.042973,
-0.106660,
-0.070978,
-0.004940,
-0.058300,
-0.038572,
-0.018780,
-0.091103,
-0.075624,
0.034210,
0.055461,
-0.138980,
0.076751,
0.067686,
0.066596,
-0.053489,
0.054215,
0.052993,
-0.036109,
-0.049875,
-0.070721,
0.055651,
-0.014218,
-0.084637,
-0.009273,
-0.044777,
-0.004388,
-0.084986,
-0.098868,
-0.025996,
-0.048281,
0.007515,
-0.093245,
-0.074537,
0.073818,
0.024815,
-0.006151,
0.078929,
-0.089140,
-0.070125,
-0.027972,
-0.096188,
-0.049075,
0.079943,
-0.005772,
-0.070300,
0.009644,
0.026681,
0.030581,
0.056289,
-0.075263,
0.077118,
0.127460,
0.106920,
0.053550,
0.060565,
-0.029304,
0.099576,
0.114270,
-0.094562,
-0.056954,
0.026933,
-0.203720,
-0.013325,
-0.008673,
0.026720,
-0.017416,
-0.173940,
0.007367,
-0.058645,
-0.018321,
0.081846,
-0.086507,
0.098535,
0.074779,
0.012954,
-0.028093,
-0.101960,
-0.008085,
0.005592,
0.077711,
-0.012976,
-0.011730,
-0.011847,
-0.035965,
0.046119,
-0.012920,
-0.062709,
0.041703,
0.110810,
0.009128,
0.114350,
0.002473,
-0.140830,
0.031463,
0.176860,
0.079617,
-0.188070,
-0.038446,
-0.050669,
0.081752,
-0.117020,
0.084200,
0.109080,
0.174530,
-0.064002,
-0.186370,
0.004426,
-0.028945,
0.095535,
0.046290,
0.171370,
0.067327,
-0.019825,
0.100350,
-0.007233,
-0.132130,
0.012829,
-0.004214,
0.161830,
0.042961,
-0.037378,
0.146530,
-0.047863,
0.041403,
-0.196270,
0.105530,
-0.012409,
0.000617,
0.049438,
-0.211470,
-0.071930,
-0.105520,
-0.070956,
-0.049376,
-0.039866,
-0.084269,
0.076257,
0.055485,
-0.085250,
0.105720,
-0.053824,
-0.115230,
0.237250,
-0.030299,
0.083331,
-0.000906,
-0.096670,
0.014671,
0.067305,
0.151170,
-0.391370,
-0.033553,
-0.251490,
-0.014629,
0.035157,
-0.034998,
-0.068203,
0.062036,
-0.018538,
-0.019094,
0.068736,
-0.090972,
0.030745,
-0.072895,
-0.120050,
-0.035624,
-0.059046,
0.049570,
-0.022414,
0.032276,
0.011502,
-0.131860,
-0.123070,
0.059972,
0.033811,
-0.092345,
0.092956,
-0.022956,
0.054073,
0.110020,
-0.054207,
-0.134060,
0.033988,
-0.085205,
0.062399,
-0.008139,
0.134230,
0.059731,
-0.001649,
0.017465,
0.042333,
-0.008730,
-0.014934,
0.020315,
-0.149390,
-0.058864,
0.180970,
0.076005,
0.107040,
-0.221440,
0.018071,
-0.068530,
0.064094,
0.023574,
-0.068169,
-0.160300,
0.118170,
0.130710,
-0.127280,
0.254330,
0.006659,
-0.006762,
-0.066907,
-0.097950,
0.112960,
0.014081,
-0.088609,
-0.118300,
-0.103410,
0.053311,
0.118810,
0.055348,
-0.106630,
0.230070,
0.094034,
-0.048420,
-0.000391,
-0.067507,
-0.010085,
0.081384,
0.092513,
-0.018551,
0.090079,
-0.232100,
-0.056530,
0.160960,
-0.063854,
-0.069507,
-0.191570,
-0.009524,
0.115880,
-0.076252,
0.002049,
0.063802,
-0.022931,
0.129620,
0.166110,
0.075837,
-0.093864,
0.075318,
-0.041976,
0.015166,
0.010229,
0.039790,
-0.021423,
0.082940,
0.041750,
-0.032607,
-0.035536,
0.007290,
0.135640,
0.090233,
-0.041206,
-0.033562,
-0.050441,
0.001660,
-0.020735,
0.088190,
-0.148660,
-0.099512,
-0.094984,
-0.045523,
-0.015223,
0.028198,
-0.001529,
-0.065148,
0.012338,
0.077663,
-0.003121,
-0.038065,
-0.016140,
0.089896,
0.008672,
-0.062646,
0.149490,
-0.302570,
-0.084069,
-0.068337,
0.042495,
-0.027832,
-0.041228,
0.005687,
0.070181,
-0.064843,
-0.076825,
0.159070,
-0.157930,
-0.064761,
0.045518,
-0.050475,
-0.013330,
0.121770,
0.073690,
0.043998,
-0.030767,
-0.005837,
0.068243,
0.007088,
-0.002742,
-0.035534,
0.017011,
-0.063827,
-0.077344,
0.070064,
0.115870,
0.005387,
-0.123350,
0.007923,
-0.128230,
0.149760,
0.057625,
-0.008619,
0.066164,
0.026416,
0.007355,
0.074390,
-0.083547,
-0.117910,
-0.252460,
-0.220120,
-0.132420,
0.028617,
0.138800,
0.003496,
-0.143580,
-0.064901,
0.157460,
0.044550,
-0.010527,
-0.065509,
-0.048574,
0.018555,
-0.046843,
-0.080207,
-0.053538,
0.178540,
-0.044850,
-0.038328,
-0.049341,
0.030089,
-0.176000,
0.005071,
0.063044,
0.128200,
0.033322,
-0.091941,
0.075225,
0.079396,
0.097767,
-0.171930,
-0.160510,
0.027882,
-0.009473,
0.157420,
0.047441,
0.011158,
-0.136610,
-0.087789,
0.080891,
0.115360,
0.053405,
0.060216,
-0.060114,
-0.061942,
0.137200,
-0.091748,
0.046977,
0.050975,
-0.072822,
-0.065132,
-0.066443,
0.039568,
-0.225390,
0.058911,
0.042180,
0.079765,
-0.067990,
-0.022040,
-0.051059,
-0.051401,
0.193170,
0.014996,
0.040080,
-0.079269,
-0.112990,
0.134310,
-0.136090,
0.053581,
-0.002769,
-0.063689,
0.013530,
0.024031,
0.029538,
0.019056,
-0.128820,
0.159050,
-0.065479,
-0.083609,
0.068880,
-0.077682,
0.045925,
0.154370,
-0.044927,
-0.014675,
-0.037515,
-0.062011,
-0.088663,
-0.163560,
-0.024816,
-0.027282,
-0.255880,
-0.034264,
-0.089462,
0.003222,
-0.019853,
0.003680,
0.031109,
-0.022148,
-0.108710,
0.062436,
0.006054,
0.036478,
0.072873,
-0.030389,
-0.050598,
-0.032475,
0.105850,
-0.089231,
0.264900,
-0.211400,
-0.092382,
0.062171,
-0.003564,
-0.006731,
0.009916,
0.054075,
0.013130,
0.153130,
0.135150,
-0.047785,
0.120310,
-0.018131,
-0.026669,
-0.044125,
-0.041610,
-0.012952,
-0.147930,
0.026377,
-0.112890,
-0.023578,
0.040351,
0.024634,
0.083188,
-0.156590,
-0.077578,
-0.001889,
0.079538,
0.047101,
0.000376,
0.041370,
-0.014946,
-0.021506,
-0.066675,
-0.089046,
-0.023448,
-0.091459,
0.053468,
0.087092,
-0.004013,
-0.102880,
0.051208,
-0.184150,
-0.052071,
0.056614,
0.026761,
-0.156690,
0.067397,
0.116680,
-0.047935,
-0.022438,
-0.002137,
0.073574,
0.037315,
0.027465,
0.166960,
0.088730,
0.016225,
-0.044334,
0.063005,
0.062578,
0.006491,
0.084930,
-0.060842,
-0.007525,
-0.126740,
0.069675,
0.112030,
-0.112120,
-0.001379,
0.105360,
0.012850,
-0.004646,
0.254130,
-0.065986,
0.019620,
-0.212040,
0.012879,
0.074528,
-0.090044,
0.028583,
-0.069359,
0.039930,
-0.000196,
-0.007553,
0.065390,
-0.041621,
0.016954,
-0.029386,
0.068892,
0.153440,
0.051353,
0.021779,
-0.040618,
-0.071554,
-0.001042,
0.050491,
-0.054431,
0.123450,
-0.034434,
-0.050917,
-0.099819,
0.039057,
0.049601,
-0.009933,
-0.004377,
-0.028153,
0.060255,
0.006140,
-0.015800,
-0.072296,
0.044771,
0.014973,
-0.078282,
0.058932,
0.073356,
0.059476,
0.099249,
0.067961,
-0.161610,
-0.078082,
0.061745,
0.035881,
-0.018833,
0.008154,
-0.057489,
0.084260,
-0.004404,
0.005524,
-0.090812,
0.083907,
-0.107480,
-0.022730,
0.148330,
0.073041,
-0.142170,
0.033087,
0.084395,
-0.034731,
0.019483,
-0.012702,
0.066888,
-0.010284,
0.006978,
0.219550,
0.074252,
0.066366,
-0.087268,
0.067979,
-0.028032,
0.075246,
-0.040638,
-0.007876,
-0.038991,
-0.107880,
-0.000742,
0.189730,
-0.056765,
-0.144800,
0.060000,
-0.023406,
-0.027123,
-0.062232,
-0.018779,
-0.103570,
0.133060,
0.047093,
0.162810,
-0.055155,
0.072486,
0.076517,
0.208980,
0.041368,
-0.027115,
-0.013124,
-0.043233,
-0.079071,
-0.031984,
-0.071647,
0.023472,
0.085799,
-0.007086,
0.054144,
-0.042872,
-0.043778,
0.093334,
0.031389,
0.115910,
-0.065837,
0.017903,
-0.032221,
0.257010,
0.073115,
-0.035634,
0.034558,
0.043059,
0.012563,
0.002068,
0.098904,
0.073398,
0.032047,
-0.073867,
0.135000,
-0.058209,
-0.061792,
0.100480,
-0.031333,
0.097407,
0.034013,
0.053246,
-0.125980,
0.018432,
0.120060,
0.132590,
0.055709,
-0.002562,
0.078290,
0.026117,
0.093712,
0.054242,
-0.151740,
-0.189720,
0.139820,
0.030483,
-0.016442,
0.014176,
0.109510,
0.099354,
-0.035223,
0.032977,
0.072875,
-0.039548,
-0.097044,
-0.129030,
-0.057381,
-0.012991,
0.074925,
-0.094384,
0.214840,
-0.057054,
0.001233,
0.003018,
0.047206,
0.036044,
-0.070902,
-0.108400,
0.138050,
-0.030219,
0.056799,
-0.026400,
0.030681,
-0.059030,
0.040317,
0.012778,
0.017296,
0.044321,
-0.022213,
0.196710,
-0.053425,
0.141120,
-0.106210,
-0.084200,
0.053431,
0.026617,
-0.054503,
0.088581,
-0.007193,
-0.048771,
0.051744,
0.026178,
0.033105,
-0.147700,
0.061319,
0.069969,
0.154910,
0.027052,
-0.044152,
-0.018298,
0.012980,
0.137240,
0.183190,
0.045599,
0.046970,
0.068628,
-0.024860,
-0.089859,
0.009426,
-0.154260,
-0.036218,
0.074888,
-0.212220,
0.142000,
0.028261,
-0.055230,
-0.059693,
-0.011235,
0.014748,
0.016269,
-0.096009,
0.058813,
0.092762,
-0.004663,
-0.037289,
-0.002997,
-0.067813,
0.095220,
0.064965,
-0.049160,
-0.034284,
-0.094161,
-0.195460,
0.137160,
-0.056135,
0.045464,
-0.013033,
-0.070253,
0.214440,
-0.127200,
0.009353,
-0.085157,
-0.001680,
0.059001,
0.089527,
-0.079153,
0.057675,
-0.004644,
0.022823,
0.050769,
-0.047965,
0.068918,
0.157360,
-0.055459,
0.045146,
-0.029612,
-0.060170,
-0.021300,
0.076752,
0.016848,
-0.104590,
-0.103700,
0.051520,
0.128890,
-0.172780,
-0.011237,
0.007992,
-0.055249,
0.088747,
-0.145000,
0.034446,
-0.081395,
-0.005711,
0.045840,
-0.078500,
0.122790,
-0.009559,
-0.051266,
0.076106,
-0.019111,
0.016967,
0.214530,
0.101070,
-0.033969,
-0.018136,
-0.042994,
0.046179,
-0.029718,
-0.167800,
-0.051381,
-0.082704,
0.078003,
0.180860,
-0.026480,
-0.005389,
0.030452,
0.010643,
0.136420,
0.225890,
-0.064773,
-0.041973,
-0.040384,
-0.080920,
-0.048087,
-0.090610,
-0.144110,
-0.013005,
-0.090694,
0.060693,
0.015839,
0.020240,
-0.043212,
-0.057872,
0.019442,
0.084144,
-0.062989,
0.019965,
0.115000,
0.086207,
0.071886,
-0.035305,
-0.073944,
-0.031041,
-0.048479,
0.122170,
0.071797,
0.156980,
-0.083967,
0.022568,
-0.120350,
-0.035967,
0.032375,
-0.052835,
-0.114180,
-0.008084,
-0.054377,
-0.029693,
0.023398,
-0.050244,
-0.085436,
0.083845,
-0.081206,
-0.067961,
0.018718,
0.095124,
0.070538,
-0.003821,
-0.107430,
-0.214040,
0.053032,
-0.136690,
-0.031505,
0.188800,
-0.125020,
0.042470,
0.210340,
0.005565,
0.053806,
0.135960,
-0.103460,
0.029469,
0.015414,
0.066640,
-0.053348,
0.025022,
0.059566,
0.049111,
0.100630,
-0.233800,
-0.109860,
-0.088084,
0.013055,
-0.065492,
-0.011183,
-0.086607,
-0.021043,
-0.048965,
0.012209,
0.160850,
-0.005869,
-0.131880,
0.044930,
0.053488,
0.087396,
0.021045,
0.052590,
0.075173,
-0.049044,
-0.023841,
0.139490,
0.016638,
0.035232,
0.042908,
-0.047642,
-0.045212,
-0.212440,
0.050106,
0.149470,
-0.074446,
-0.059057,
0.102750,
-0.110870,
0.039146,
-0.062728,
-0.037808,
0.076646,
-0.031630,
-0.066875,
0.105080,
0.037354,
-0.031909,
-0.205130,
-0.115660,
-0.280950,
-0.012802,
0.183160,
0.015108,
0.036180,
-0.133600,
0.103520,
-0.016750,
-0.104150,
0.004338,
0.111990,
-0.021609,
0.089945,
0.050460,
0.084927,
0.240180,
0.044050,
-0.042994,
0.089073,
-0.092995,
-0.138450,
0.035433,
0.033303,
0.019212,
-0.086521,
0.020377,
-0.049570,
0.082315,
0.005298,
-0.056074,
0.087470,
0.226900,
-0.007005,
0.118890,
0.176010,
0.042789,
-0.108810,
-0.036068,
0.072222,
0.030849,
0.129680,
0.038665,
0.046167,
0.041702,
0.118650,
0.005397,
0.001846,
0.063535,
0.095161,
-0.013077,
-0.022990,
0.023316,
-0.060924,
0.025332,
0.094465,
0.072908,
-0.029014,
0.032358,
0.018143,
-0.196420,
0.192630,
0.055076,
0.124860,
-0.019119,
-0.160440,
0.241390,
-0.032102,
-0.016107,
-0.058318,
0.065797,
0.002842,
-0.014929,
-0.052917,
0.085287,
-0.065724,
-0.132710,
-0.037000,
-0.111690,
-0.007569,
0.084355,
-0.070368,
-0.073920,
0.067573,
0.061134,
-0.089674,
0.025415,
-0.160010,
-0.106020,
0.020305,
0.024789,
-0.031227,
0.319010,
0.048417,
0.028351,
0.115890,
-0.202920,
0.071353,
-0.086500,
-0.035695,
0.052651,
-0.002820,
0.010660,
-0.088813,
-0.073784,
-0.035768,
-0.075310,
-0.055607,
-0.082535,
-0.097029,
-0.014680,
-0.000568,
-0.035444,
-0.076231,
-0.084599,
0.037260,
-0.026052,
0.076644,
-0.047240,
-0.106510,
-0.020869,
0.031932,
0.000836,
0.008750,
-0.033461,
-0.152730,
-0.163620,
0.059048,
-0.036261,
0.030420,
0.008343,
0.149050,
0.045797,
0.015502,
0.170420,
0.016577,
0.072000,
-0.033755,
0.032597,
0.032997,
-0.008354,
-0.189620,
0.071796,
0.080427,
-0.060314,
-0.021673,
-0.041095,
-0.047034,
0.077647,
0.142220,
-0.088776,
-0.163290,
-0.120260,
-0.003350,
0.017890,
0.176990,
-0.187890,
-0.053197,
-0.017937,
0.095853,
-0.006782,
-0.147210,
-0.106960,
-0.016368,
0.056540,
0.153990,
-0.003741,
-0.071882,
0.073941,
0.089433,
-0.041531,
0.025724,
-0.050830,
-0.096293,
-0.018809,
-0.078294,
0.166870,
0.053260,
0.029092,
-0.083426,
0.018611,
0.022868,
0.103900,
-0.152660,
0.036836,
-0.055374,
-0.019056,
-0.063447,
0.052627,
-0.008971,
0.048902,
-0.005092,
-0.101200,
0.086728,
0.003302,
-0.052232,
-0.262300,
-0.208410,
0.029132,
-0.043708,
0.085939,
0.086265,
0.018658,
-0.042720,
-0.006924,
0.088399,
-0.028581,
-0.022199,
-0.050606,
0.026296,
-0.041584,
-0.016347,
0.062657,
-0.054458,
-0.064827,
-0.057011,
-0.122590,
-0.252110,
-0.077973,
-0.011124,
-0.200770,
0.044943,
-0.046878,
0.032692,
0.007883,
-0.023498,
-0.016152,
-0.168070,
0.045113,
-0.037656,
-0.083884,
0.027335,
-0.057690,
-0.065679,
0.012611,
0.027363,
-0.070842,
-0.028756,
-0.002716,
0.018880,
0.123380,
-0.291380,
-0.034110,
0.092144,
-0.006718,
0.049404,
-0.008328,
0.019051,
0.031099,
-0.036392,
0.058028,
-0.072731,
0.056082,
-0.009923,
0.046847,
0.024045,
-0.120550,
-0.023094,
0.002867,
0.063604,
0.030202,
-0.017058,
-0.050792,
0.007043,
-0.050478,
0.044017,
-0.168630,
-0.001978,
-0.218290,
-0.140310,
-0.077396,
-0.115830,
0.022853,
-0.035684,
0.202120,
-0.018187,
0.078294,
0.118800,
-0.010708,
0.032599,
0.116160,
-0.029437,
0.046741,
-0.061670,
0.029976,
-0.134160,
0.006602,
-0.014796,
0.073820,
0.002255,
0.013937,
-0.037569,
0.046322,
-0.047237,
0.004657,
0.043303,
-0.005672,
0.025914,
-0.002847,
0.039718,
-0.154520,
0.054264,
-0.077995,
-0.032227,
-0.076210,
-0.033528,
-0.010545,
0.150570,
0.015019,
-0.016694,
-0.003058,
0.035338,
-0.132190,
-0.055843,
-0.021330,
-0.028008,
0.017607,
0.027442,
-0.001069,
0.093171,
-0.010577,
-0.049887,
-0.057211,
-0.116990,
0.060683,
-0.000924,
-0.103980,
0.096284,
-0.054628,
0.039477,
-0.040214,
-0.077218,
-0.015403,
0.025097,
-0.026317,
-0.086140,
-0.046473,
-0.130100,
0.011668,
0.023474,
-0.052709,
-0.015155,
0.084165,
0.003605,
0.053160,
-0.188560,
0.033008,
0.049363,
-0.047358,
-0.095525,
-0.068589,
-0.052635,
-0.061138,
-0.028355,
0.080420,
0.058855,
-0.079372,
-0.017346,
-0.004743,
-0.024773,
-0.063700,
0.045078,
-0.082171,
-0.074249,
0.076075,
-0.079419,
-0.014483,
0.020294,
0.020581,
-0.125290,
-0.011954,
-0.012903,
-0.019096,
-0.140950,
-0.087275,
0.065548,
0.005450,
0.034914,
0.050750,
0.075939,
0.014696,
-0.167210,
-0.076423,
-0.033885,
-0.004703,
-0.017175,
0.073999,
-0.031829,
0.047981,
-0.063490,
-0.096356,
-0.085598,
-0.086059,
-0.083548,
0.012027,
-0.074201,
0.058854,
-0.134650,
0.055710,
0.013644,
-0.056036,
0.081773,
-0.006876,
-0.084470,
-0.040459,
-0.058154,
0.043388,
-0.009164,
0.077714,
-0.001639,
-0.056054,
-0.095181,
-0.066708,
-0.026754,
-0.021440,
-0.201390,
0.007043,
0.009713,
-0.056038,
0.011688,
0.048319,
-0.104060,
-0.038684,
-0.157420,
-0.035629,
-0.121900,
-0.015951,
-0.110620,
-0.006980,
-0.028130,
-0.062477,
0.061838,
-0.155980,
-0.072157,
0.075591,
0.023907,
-0.096095,
-0.033648,
0.064471,
-0.029865,
-0.213860,
0.081294,
-0.077376,
0.020130,
-0.048889,
-0.030449,
-0.082189,
-0.052700,
0.024893,
0.055144,
-0.082452,
-0.057639,
0.166170,
-0.050744,
-0.062353,
0.048137,
-0.099100,
0.012937,
0.077245,
-0.048145,
-0.047950,
-0.059370,
-0.045711,
-0.099658,
-0.035439,
-0.063317,
-0.012695,
-0.074961,
0.022875,
0.028282,
-0.028095,
0.033916,
0.016363,
-0.081707,
-0.029022,
-0.007759,
-0.067072,
0.001486,
0.081731,
-0.019505,
-0.025800,
0.025226,
-0.030770,
-0.015580,
0.087003,
-0.130670,
0.048709,
0.073768,
-0.081726,
-0.023310,
0.087879,
0.050594,
0.070203,
-0.157150,
-0.060683,
-0.083191,
-0.018795,
-0.080126,
0.001370,
-0.036973,
0.072068,
0.019838,
0.004854,
-0.042703,
-0.168310,
-0.066285,
-0.142120,
-0.071774,
0.081792,
-0.066561,
-0.014210,
-0.123930,
0.006830,
0.023195,
-0.041279,
-0.070568,
-0.033967,
-0.032070,
0.048793,
0.041989,
-0.080065,
-0.025872,
0.001340,
0.012489,
0.037839,
-0.077890,
0.050023,
0.025044,
0.087843,
-0.038441,
-0.009936,
0.089970,
-0.143370,
0.031487,
-0.026308,
-0.044563,
0.031570,
0.069164,
-0.016006,
-0.170560,
-0.097418,
-0.073302,
-0.036012,
0.035028,
0.067790,
-0.108930,
-0.080210,
0.084692,
0.046640,
0.045563,
-0.005322,
-0.078502,
-0.233970,
0.046513,
-0.051698,
-0.066366,
0.010467,
-0.157760,
0.007686,
-0.002746,
-0.105890,
0.012422,
0.024189,
-0.091087,
0.017344,
-0.049673,
-0.141040,
-0.296330,
-0.052895,
-0.044388,
-0.035832,
0.124060,
-0.082513,
0.099665,
0.063064,
-0.095509,
-0.054091,
-0.040195,
0.057413,
-0.081092,
-0.074886,
0.044248,
0.020037,
-0.068769,
0.042590,
0.046972,
0.070879,
-0.164800,
-0.098126,
-0.362430,
0.102410,
-0.067143,
-0.068593,
-0.029934,
0.006556,
0.067468,
-0.028119,
0.055320,
0.051256,
0.033341,
-0.121790,
-0.068830,
-0.097183,
-0.124120,
-0.056249,
-0.045229,
0.095304,
0.044945,
-0.048195,
0.101910,
0.084059,
-0.174830,
0.068237,
0.138800,
-0.133430,
0.009710,
-0.139120,
0.056646,
-0.029822,
0.009183,
-0.002793,
-0.095484,
0.016046,
0.050552,
-0.135740,
-0.070380,
-0.059656,
-0.076181,
-0.103080,
0.123540,
-0.046567,
-0.230430,
0.070953,
-0.066639,
-0.109140,
-0.083046,
-0.063363,
0.000823,
0.055529,
0.001078,
0.046668,
-0.017504,
0.007258,
-0.000324,
0.065298,
0.119400,
0.027551,
0.040795,
0.025003,
0.045450,
-0.208410,
0.091753,
-0.163640,
-0.033804,
0.060368,
-0.060611,
0.062587,
-0.107670,
-0.131410,
-0.016198,
0.148810,
-0.178470,
0.056095,
-0.025465,
0.046288,
0.023845,
-0.118680,
0.177140,
-0.074576,
0.003884,
0.037510,
0.011407,
-0.089736,
0.012297,
-0.051764,
-0.062892,
-0.056222,
-0.122520,
-0.070872,
-0.023005,
-0.077245,
0.054573,
-0.017333,
-0.022854,
0.043933,
-0.044954,
-0.094578,
-0.011058,
-0.011137,
-0.082777,
-0.027157,
0.033695,
-0.027833,
-0.049165,
-0.009621,
-0.049908,
0.018820,
-0.027799,
-0.031056,
0.012305,
-0.088646,
0.052320,
-0.090294,
0.021644,
0.028818,
-0.075358,
0.059819,
0.028636,
-0.126230,
-0.090978,
-0.117530,
-0.016489,
-0.038419,
-0.066174,
-0.065216,
-0.063371,
-0.062833,
-0.094710,
0.039365,
-0.035077,
0.009399,
-0.075833,
0.042032,
-0.091676,
0.017244,
-0.053364,
0.019883,
0.018828,
0.088596,
-0.070670,
-0.042508,
-0.127170,
-0.081136,
0.019916,
-0.012607,
-0.075490,
0.017465,
0.018919,
0.082388,
0.019761,
-0.044316,
-0.070584,
-0.081071,
-0.018479,
-0.010401,
-0.021266,
0.011006,
0.005728,
-0.044833,
-0.077131,
-0.029818,
0.066152,
-0.003185,
0.058357,
-0.058004,
-0.012661,
-0.050560,
-0.018439,
0.027713,
0.087754,
-0.043746,
-0.131790,
0.082567,
-0.022850,
-0.040263,
-0.063449,
0.026785,
-0.024492,
-0.011147,
0.080942,
-0.066053,
-0.004317,
-0.089871,
-0.030397,
-0.001798,
-0.124000,
-0.112320,
-0.023389,
0.004886,
-0.002910,
-0.046853,
-0.036505,
-0.045470,
-0.005905,
0.046404,
-0.178850,
-0.053073,
-0.073144,
-0.028393,
0.029071,
-0.064406,
0.079032,
-0.063986,
-0.085241,
-0.066419,
-0.129960,
-0.049238,
-0.017468,
-0.060834,
-0.037858,
0.227420,
0.081366,
0.065557,
-0.011967,
-0.024220,
-0.068085,
0.081362,
-0.016936,
-0.136200,
-0.009438,
0.056545,
-0.265410,
-0.114050,
0.115550,
0.088601,
0.070922,
0.048346,
-0.158140,
-0.087489,
0.029577,
0.041293,
0.060273,
0.028323,
-0.004416,
0.010851,
0.049339,
0.022586,
0.073971,
-0.157230,
0.180480,
0.168080,
0.017789,
0.015619,
0.018727,
0.061849,
-0.042258,
-0.025878,
-0.023370,
0.030799,
-0.080589,
0.047197,
0.035358,
-0.091511,
0.068181,
0.005206,
-0.049609,
-0.267830,
0.136910,
-0.079749,
0.126020,
-0.031903,
0.006832,
-0.013320,
-0.081571,
0.190500,
0.004995,
-0.107820,
0.113200,
-0.049512,
-0.059634,
-0.012724,
0.077409,
0.033964,
-0.017190,
-0.230320,
-0.008734,
0.058966,
-0.061158,
-0.051411,
-0.132800,
-0.261320,
-0.092540,
-0.076399,
0.087392,
0.062926,
-0.007864,
0.148190,
0.082985,
0.031939,
0.066869,
-0.108160,
-0.039578,
-0.069129,
0.072515,
0.054221,
-0.064117,
-0.004211,
0.064613,
-0.046773,
0.083034,
-0.100980,
-0.079381,
0.077808,
0.094415,
0.012669,
0.088480,
-0.186920,
0.196680,
-0.014821,
-0.217720,
0.094827,
-0.241940,
0.102250,
-0.092993,
-0.086993,
-0.155500,
-0.046579,
0.020396,
-0.012809,
-0.080276,
0.052357,
-0.039812,
-0.071551,
-0.015921,
-0.074221,
-0.027870,
-0.076387,
-0.031673,
-0.090255,
0.019514,
-0.003378,
-0.082067,
-0.047650,
0.000381,
0.033402,
-0.077749,
-0.101950,
-0.096441,
-0.116860,
0.052371,
0.018031,
-0.143790,
-0.013915,
0.037505,
-0.041388,
0.085703,
0.077518,
-0.012247,
-0.012642,
0.029907,
-0.077908,
-0.056065,
0.018186,
0.030812,
-0.041381,
-0.031516,
-0.055600,
0.137290,
-0.065687,
-0.085816,
0.023845,
0.069289,
-0.043230,
-0.083782,
0.075199,
0.013332,
-0.045643,
0.023255,
-0.062686,
-0.004580,
0.031565,
-0.111290,
-0.019735,
-0.012253,
0.056324,
0.009571,
0.082489,
0.038072,
0.007506,
-0.038064,
-0.090037,
-0.099408,
0.032189,
-0.159620,
-0.112240,
-0.020251,
-0.041332,
-0.031999,
0.075418,
0.038564,
-0.040415,
-0.011648,
-0.041055,
-0.046827,
-0.111960,
-0.019953,
0.091714,
0.046895,
-0.023767,
-0.090005,
0.002305,
0.011956,
0.031252,
0.087398,
-0.065718,
-0.077635,
-0.066625,
-0.092480,
-0.064913,
0.014018,
-0.101020,
0.051571,
0.047111,
0.029012,
-0.014760,
-0.136120,
0.045060,
0.071404,
-0.022816,
-0.017075,
0.027539,
0.072281,
-0.052971,
-0.060584,
0.078755,
-0.032751,
-0.138940,
0.067941,
-0.079620,
0.047143,
-0.120390,
-0.113250,
0.015668,
-0.110540,
-0.029651,
-0.100290,
-0.092993,
0.087174,
-0.024792,
-0.079183,
0.072081,
-0.020182,
-0.074931,
0.012459,
0.114160,
0.006675,
0.092471,
0.138550,
-0.066865,
0.051055,
-0.037656,
0.006732,
0.127730,
0.108910,
0.041303,
0.023944,
0.028405,
0.161270,
0.163150,
0.080343,
0.030500,
-0.089390,
0.026079,
-0.066684,
-0.085926,
-0.056534,
0.042128,
-0.112120,
-0.058099,
-0.071890,
0.115080,
0.061979,
0.014860,
0.042898,
0.033637,
-0.049772,
-0.004823,
-0.074813,
-0.064269,
0.115370,
-0.113500,
-0.092636,
-0.028826,
0.023045,
-0.073308,
-0.011459,
-0.027887,
0.190300,
0.010677,
0.178380,
-0.029883,
0.099258,
0.071514,
-0.064382,
-0.004137,
0.234850,
-0.041652,
-0.215740,
0.077014,
0.039882,
-0.050846,
-0.115480,
-0.043422,
-0.083951,
0.162700,
0.063194,
-0.122500,
0.133610,
-0.031487,
0.072030,
-0.001824,
0.063737,
-0.027241,
0.023046,
-0.055812,
0.042716,
-0.109410,
-0.048124,
0.128040,
-0.106470,
0.035649,
-0.150320,
-0.080426,
-0.044329,
-0.009258,
-0.356110,
-0.040060,
-0.146460,
0.031541,
-0.021024,
-0.027050,
-0.158760,
-0.112360,
0.077817,
0.102190,
-0.034666,
-0.081536,
0.014330,
0.061703,
0.026677,
0.008322,
0.075066,
0.182250,
0.049625,
0.027476,
-0.003067,
0.079803,
-0.002593,
-0.066871,
0.176130,
0.013316,
-0.133620,
-0.028823,
0.025002,
0.015312,
0.123480,
-0.155710,
0.044757,
-0.032009,
-0.024617,
-0.000262,
0.019573,
0.157320,
-0.074528,
0.010885,
-0.058836,
0.118260,
0.140190,
0.093018,
-0.031621,
0.073808,
0.063963,
-0.018135,
0.089869,
0.051894,
0.045818,
-0.038649,
0.002666,
0.168100,
-0.008824,
0.014166,
0.110450,
-0.109310,
0.065251,
0.091414,
0.049341,
0.141740,
0.089461,
-0.063378,
0.018013,
0.018347,
0.002680,
0.050004,
0.073233,
-0.063413,
0.072962,
-0.033741,
0.146350,
0.139620,
0.185030,
-0.107690,
-0.023311,
0.032854,
-0.042388,
-0.048878,
0.053837,
-0.109230,
-0.057538,
0.131960,
0.175820,
0.265860,
0.119260,
0.026477,
-0.149420,
-0.043862,
0.106450,
0.168340,
-0.032870,
0.074730,
0.012979,
0.105030,
-0.057791,
0.025508,
-0.026753,
-0.187120,
0.032472,
-0.070769,
-0.066285,
-0.068925,
0.047083,
0.054882,
0.112490,
0.009101,
-0.037013,
0.144000,
-0.005643,
0.071710,
0.047702,
-0.047400,
0.016958,
0.064846,
0.029636,
-0.000475,
0.023886,
0.163040,
-0.030058,
0.057086,
0.022100,
0.011523,
0.031436,
-0.057632,
0.009713,
0.094796,
-0.049660,
-0.032472,
0.036838,
-0.017809,
0.089755,
0.025196,
0.040138,
-0.095973,
-0.025747,
-0.064563,
0.047767,
-0.022497,
0.034127,
0.050488,
-0.041752,
0.093066,
-0.236630,
0.161250,
-0.164840,
0.058168,
0.031217,
0.001489,
0.179190,
0.069623,
-0.058542,
-0.051957,
-0.016869,
0.012581,
-0.051419,
-0.007404,
-0.050193,
0.083108,
0.015628,
0.058780,
0.044755,
0.012434,
0.074975,
-0.184540,
-0.077315,
-0.056419,
-0.179950,
0.078561,
-0.020918,
0.033848,
-0.154480,
-0.062813,
0.063216,
-0.119360,
0.038214,
-0.010830,
0.011444,
-0.041929,
-0.038000,
0.115310,
-0.088225,
-0.053279,
0.032764,
-0.013999,
0.004910,
-0.002317,
-0.011711,
0.035181,
-0.001640,
-0.012862,
0.082849,
-0.039095,
0.049860,
-0.053843,
0.034386,
0.083591,
0.001134,
-0.079274,
-0.042290,
0.005636,
-0.130140,
0.040791,
0.184900,
-0.103660,
-0.066330,
-0.101730,
-0.045346,
0.019291,
0.044224,
-0.042642,
0.140620,
0.025150,
0.008032,
0.064595,
0.004881,
-0.068707,
0.059520,
0.094226,
-0.005834,
-0.121890,
0.043487,
0.091295,
-0.026676,
-0.006820,
0.077406,
0.036991,
-0.010394,
-0.233900,
0.047062,
0.020350,
0.028268,
0.139060,
0.064075,
0.045395,
-0.089553,
0.003492,
0.062686,
-0.029489,
-0.118610,
-0.078553,
0.163350,
-0.030468,
-0.049001,
-0.099140,
-0.102820,
0.049738,
-0.020699,
-0.046524,
-0.018253,
-0.009154,
-0.059785,
0.019512,
-0.018256,
-0.052379,
0.004477,
-0.031917,
-0.045899,
0.070334,
-0.112540,
-0.077320,
-0.044542,
-0.169920,
0.001288,
-0.182180,
-0.046990,
-0.058814,
-0.027522,
-0.059678,
0.170830,
-0.029892,
0.029745,
0.066649,
-0.083443,
-0.054010,
-0.021558,
-0.023701,
-0.076570,
-0.059627,
-0.104630,
0.016297,
-0.257790,
0.000656,
0.063282,
-0.071421,
-0.008163,
-0.050389,
-0.121810,
-0.053177,
-0.067107,
-0.117420,
-0.078590,
-0.079521,
-0.081691,
0.035593,
0.125160,
-0.028953,
-0.034921,
0.037261,
-0.077342,
-0.035804,
-0.031347,
-0.038220,
-0.054627,
-0.125970,
0.021117,
-0.060489,
0.121810,
0.073459,
0.001151,
0.059515,
0.034037,
-0.096244,
0.082999,
0.137350,
0.012953,
0.067940,
0.074897,
-0.021324,
-0.014853,
-0.139200,
0.120560,
-0.035465,
-0.226120,
0.067540,
-0.081523,
0.034508,
0.009955,
0.033034,
-0.029240,
0.147420,
-0.088368,
0.001429,
-0.005782,
0.025382,
0.041793,
0.071257,
-0.023648,
-0.185770,
-0.047621,
0.014098,
-0.014707,
-0.047311,
0.050530,
-0.063204,
-0.036763,
-0.059986,
0.004447,
0.118490,
-0.002784,
-0.074296,
0.089365,
0.052211,
-0.119800,
-0.118250,
0.186740,
-0.174450,
0.032312,
-0.005016,
0.055217,
-0.136140,
0.004297,
-0.022000,
0.081287,
0.082558,
-0.082835,
0.076571,
0.011548,
-0.075352,
-0.135470,
0.082901,
-0.028825,
0.031304,
-0.062600,
0.092794,
0.070910,
-0.073624,
0.096204,
0.025049,
-0.143650,
-0.120280,
-0.084110,
0.069816,
-0.155280,
-0.109200,
-0.159520,
0.051212,
-0.110770,
0.049451,
-0.241070,
0.008904,
-0.144200,
-0.083317,
0.072815,
0.033279,
-0.067228,
-0.075702,
0.084697,
-0.028791,
-0.088955,
-0.033893,
-0.034580,
-0.041772,
-0.075643,
-0.115150,
-0.084927,
0.025494,
-0.112360,
-0.036072,
-0.085909,
0.003917,
-0.042331,
0.016369,
0.049919,
-0.087635,
0.012724,
-0.022986,
-0.072289,
0.031031,
-0.030535,
-0.040780,
0.010899,
-0.021714,
-0.060986,
0.018558,
-0.028810,
0.049621,
-0.075831,
0.073482,
-0.026684,
0.081823,
-0.021828,
-0.002560,
0.028121,
0.043221,
0.041570,
-0.094439,
0.031251,
0.069659,
-0.043861,
-0.032361,
0.032100,
0.041559,
-0.045107,
0.002544,
-0.095411,
0.047675,
-0.014241,
-0.072453,
-0.087977,
-0.007496,
0.004984,
-0.021767,
0.008468,
-0.060397,
-0.054537,
0.056232,
-0.072829,
0.016830,
-0.019654,
-0.072671,
-0.037230,
0.031935,
0.095548,
0.028458,
-0.022706,
-0.090692,
-0.044669,
-0.030282,
-0.046712,
0.028440,
-0.027816,
-0.080553,
0.010065,
0.036219,
-0.075165,
-0.039997,
0.068735,
-0.055038,
-0.099943,
-0.121040,
-0.079416,
-0.055386,
0.063124,
-0.088937,
0.015015,
-0.047069,
-0.066289,
-0.007461,
-0.056454,
-0.037562,
-0.024827,
-0.073344,
0.063882,
-0.135110,
-0.005681,
0.043719,
0.039604,
0.088054,
-0.057052,
-0.124020,
-0.082516,
-0.012667,
0.018299,
0.023569,
-0.076450,
0.066796,
-0.035068,
-0.051059,
-0.051978,
-0.072079,
-0.090840,
-0.089424,
-0.050550,
-0.031185,
-0.046030,
0.061948,
0.009583,
-0.058582,
-0.077339,
0.020537,
0.029245,
0.003888,
-0.088091,
-0.146390,
0.080714,
-0.058869,
-0.076029,
-0.023337,
0.032904,
0.031879,
0.017219,
-0.058909,
-0.081960,
-0.009645,
0.052101,
0.052088,
0.004216,
-0.008544,
0.011624,
-0.133230,
0.005523,
0.054353,
0.058702,
-0.115450,
0.064043,
-0.003703,
-0.093452,
0.075425,
-0.142460,
0.005164,
-0.053267,
-0.065634,
-0.008209,
0.069938,
0.013360,
0.024438,
-0.084073,
0.040564,
-0.028557,
0.042270,
0.115040,
0.003583,
-0.093980,
-0.147210,
-0.132820,
0.085284,
-0.025650,
0.075110,
0.020104,
-0.146240,
-0.036060,
-0.080401,
-0.066440,
0.003779,
0.035372,
-0.023825,
-0.005999,
-0.013864,
-0.008554,
-0.074230,
0.026288,
0.071264,
0.045918,
0.095560,
-0.070823,
-0.032968,
-0.010135,
-0.053522,
0.091284,
0.001127,
0.027345,
-0.063133,
-0.071626,
-0.019068,
-0.174920,
-0.069858,
0.040801,
0.029676,
-0.113730,
-0.077187,
-0.042693,
0.000161,
0.051915,
-0.077839,
-0.091323,
-0.052410,
-0.085832,
0.005294,
-0.026224,
-0.061007,
0.009609,
0.004277,
-0.014770,
-0.046456,
0.083535,
-0.068847,
-0.072070,
0.075721,
-0.019198,
-0.039744,
0.011585,
-0.072900,
-0.039925,
-0.181060,
-0.062405,
-0.012254,
-0.094665,
0.057105,
-0.057173,
-0.000134,
-0.058026,
0.055429,
0.027838,
-0.004114,
-0.025828,
-0.005671,
0.034476,
0.093160,
0.000960,
-0.009414,
-0.158530,
0.042629,
-0.050405,
0.048196,
0.024772,
0.096839,
-0.042077,
-0.051740,
-0.115090,
-0.046703,
0.060354,
-0.014260,
-0.071334,
0.130540,
-0.222270,
-0.033379,
0.083776,
-0.070945,
0.037779,
0.024171,
-0.092046,
0.058898,
-0.082924,
0.087702,
-0.011430,
-0.036946,
0.102830,
0.024914,
0.213920,
-0.110910,
0.059843,
-0.052236,
-0.003667,
0.050139,
0.013564,
0.000378,
-0.057078,
-0.036991,
0.042753,
-0.034775,
0.051176,
0.092113,
0.107270,
-0.146910,
0.105620,
0.097242,
0.162730,
0.051051,
-0.130020,
-0.252540,
-0.044763,
-0.025976,
0.014974,
0.066003,
-0.122520,
0.024709,
0.062285,
0.107820,
-0.033086,
0.065784,
0.029023,
-0.077381,
0.044840,
0.046208,
-0.043361,
-0.036865,
0.034918,
-0.002420,
-0.009185,
-0.176140,
0.018456,
-0.022614,
0.001410,
0.061755,
0.118040,
-0.103990,
-0.006711,
-0.050102,
0.181740,
0.036115,
-0.137680,
-0.000750,
-0.060159,
-0.244860,
-0.006939,
-0.018906,
-0.007288,
0.011943,
0.011327,
0.087566,
-0.115420,
0.020697,
-0.021147,
0.141340,
0.014544,
-0.038678,
-0.121620,
-0.082392,
-0.122040,
-0.080608,
0.061150,
0.063996,
0.227530,
-0.105930,
0.115780,
-0.052365,
0.034295,
-0.063230,
0.035441,
-0.158340,
0.001502,
-0.032027,
-0.114810,
0.013280,
0.004415,
-0.054469,
-0.055573,
0.021783,
-0.004258,
-0.044912,
0.057681,
0.018313,
-0.051234,
0.003570,
0.063488,
-0.069364,
0.018508,
0.034266,
-0.073973,
-0.033784,
-0.165860,
-0.046182,
0.010797,
0.068607,
0.110040,
0.041178,
-0.033465,
0.053151,
0.078800,
0.107530,
0.065255,
0.087347,
0.027494,
-0.006261,
0.013849,
-0.016926,
0.134020,
-0.020429,
0.035474,
0.015744,
0.147810,
-0.000749,
0.111950,
-0.093527,
-0.012934,
-0.055270,
-0.059262,
-0.022052,
0.013853,
-0.023455,
-0.019575,
-0.005815,
0.134170,
0.124630,
0.040893,
0.069693,
-0.075116,
0.067115,
0.039134,
0.072013,
0.045655,
0.040788,
-0.008242,
-0.019151,
0.205780,
0.005859,
0.061058,
-0.081033,
-0.074036,
0.020893,
0.049545,
-0.005095,
-0.086250,
-0.015673,
0.077559,
-0.008838,
-0.096187,
0.055921,
0.033059,
0.068043,
0.065391,
-0.020383,
-0.084748,
-0.160140,
0.059343,
0.142650,
0.071184,
0.248730,
0.054792,
-0.027831,
0.123270,
0.001535,
0.009608,
0.163630,
-0.101350,
-0.054145,
-0.046794,
-0.007871,
0.068290,
-0.008549,
0.057357,
-0.075456,
-0.087136,
-0.155830,
-0.030880,
-0.022653,
0.006494,
-0.056861,
-0.030633,
0.035633,
0.048700,
0.122420,
-0.203910,
0.203720,
-0.234690,
0.016504,
-0.006675,
0.076330,
-0.063852,
0.038927,
0.045576,
-0.070241,
-0.063110,
-0.074817,
-0.059806,
-0.052030,
0.036534,
0.069510,
-0.076866,
0.166790,
0.168270,
-0.085622,
-0.061670,
0.013596,
-0.001476,
0.058787,
0.205850,
-0.003355,
-0.012383,
0.001325,
-0.117100,
-0.099342,
-0.074342,
0.024978,
-0.014712,
0.236410,
0.003342,
-0.015402,
0.042728,
-0.076135,
0.069124,
0.006111,
0.037958,
0.129920,
0.007999,
0.050821,
0.008933,
0.049319,
-0.197970,
0.045579,
0.095033,
0.021050,
-0.035140,
-0.025756,
-0.057160,
0.003276,
-0.008200,
-0.018115,
-0.043998,
-0.021762,
0.131280,
0.012292,
0.064161,
0.071063,
0.021349,
0.096431,
0.022527,
-0.043355,
-0.041849,
-0.140160,
0.075412,
-0.023057,
0.036306,
0.011429,
-0.001502,
-0.096501,
0.035181,
0.132440,
0.080964,
-0.133340,
-0.009529,
0.071483,
-0.091097,
-0.059739,
0.029882,
0.057406,
-0.049906,
-0.034662,
-0.084955,
0.153200,
0.009500,
-0.040402,
0.004497,
0.043472,
-0.015741,
-0.178160,
0.023826,
-0.300010,
-0.164090,
0.008981,
0.054128,
-0.016833,
0.095984,
-0.152750,
0.063703,
0.058274,
0.052606,
-0.029094,
0.094766,
-0.079609,
0.066209,
-0.046713,
0.042108,
-0.115860,
0.075912,
-0.154560,
-0.029065,
0.061850,
-0.035440,
0.086434,
0.135240,
0.022990,
-0.104920,
0.132840,
-0.173060,
-0.019722,
-0.098524,
-0.034011,
0.054247,
-0.171060,
0.097052,
0.048779,
-0.075120,
0.004811,
0.099278,
-0.054120,
-0.008009,
-0.073032,
-0.007155,
0.136310,
0.003037,
-0.067937,
-0.032409,
-0.079364,
-0.064749,
-0.137360,
-0.030368,
0.041300,
0.036409,
-0.115080,
-0.129390,
0.042926,
0.048834,
0.112480,
0.025218,
0.049985,
-0.055129,
-0.056549,
0.107680,
0.043068,
0.131090,
0.024192,
-0.040754,
0.058428,
-0.038418,
0.046754,
0.058948,
-0.024003,
-0.042595,
0.095131,
0.054667,
-0.071326,
0.078465,
-0.084633,
0.072359,
-0.087936,
0.041927,
0.068367,
0.076575,
-0.077243,
0.024801,
0.008000,
-0.029251,
0.161610,
0.005325,
-0.081195,
-0.111300,
-0.015431,
0.144300,
0.142800,
-0.158520,
-0.024791,
0.001320,
0.046351,
0.082055,
0.085439,
-0.018499,
-0.044003,
-0.015680,
-0.160130,
0.028677,
0.001513,
0.119790,
-0.011708,
-0.052091,
0.008498,
0.087351,
0.002936,
-0.043624,
0.120530,
0.023696,
0.124130,
-0.167100,
-0.210410,
0.144100,
-0.119660,
0.018397,
0.090554,
-0.264630,
-0.135440,
0.121890,
0.016388,
0.054397,
0.261620,
0.037718,
0.026898,
0.032474,
-0.007392,
0.017770,
-0.082646,
-0.023103,
-0.067379,
-0.030245,
-0.174660,
0.077717,
0.126070,
-0.072752,
-0.012641,
0.030274,
-0.026771,
-0.011436,
0.129200,
-0.261440,
-0.062396,
-0.023401,
-0.000738,
0.036096,
0.069685,
-0.036331,
-0.148370,
-0.004191,
0.001811,
0.001785,
-0.075497,
0.085068,
-0.124030,
-0.048004,
0.062668,
-0.086517,
0.052927,
-0.045336,
0.020565,
-0.040226,
-0.122380,
0.045751,
-0.030527,
-0.171170,
-0.013717,
0.007483,
0.210060,
0.018803,
0.126880,
-0.003313,
-0.048448,
0.029394,
-0.136200,
0.048253,
0.055915,
0.073727,
0.214000,
-0.071493,
-0.076627,
0.081880,
-0.135390,
0.069810,
-0.086459,
-0.076952,
-0.021554,
-0.059194,
-0.031228,
0.056018,
0.210210,
-0.178900,
-0.090657,
-0.020871,
-0.030936,
-0.074944,
0.020026,
-0.046294,
-0.074602,
-0.088606,
0.089128,
0.093950,
0.004165,
0.090762,
-0.009622,
-0.179860,
-0.035252,
-0.111340,
0.038767,
0.035111,
0.025658,
-0.038853,
0.075268,
0.109440,
-0.029832,
0.189270,
0.132970,
0.045422,
-0.020252,
0.065117,
-0.081184,
0.078137,
0.085042,
-0.022313,
0.028783,
0.043621,
0.161670,
-0.012723,
-0.020466,
-0.061796,
-0.029656,
-0.036072,
0.120610,
0.050364,
0.141610,
-0.014265,
0.165640,
0.026183,
0.088272,
0.175400,
0.004373,
0.007182,
0.179930,
0.213660,
-0.080913,
0.068562,
-0.102080,
0.002849,
-0.056236,
-0.021010,
-0.023167,
0.066747,
0.097176,
0.028343,
0.009558,
-0.052521,
-0.060535,
0.025898,
0.060945,
-0.092057,
0.044245,
0.208600,
-0.067392,
0.006141,
-0.018912,
0.208400,
0.001449,
0.172620,
-0.100180,
-0.000738,
-0.083693,
0.081913,
-0.019566,
-0.005610,
0.090174,
-0.068345,
0.025285,
-0.011798,
0.021997,
-0.097016,
-0.036182,
-0.052216,
-0.113770,
0.019273,
0.121940,
-0.133920,
-0.031078,
-0.030915,
0.158100,
-0.051939,
-0.088617,
-0.056869,
-0.040034,
-0.161730,
0.121010,
0.014519,
0.040227,
0.091090,
-0.120500,
0.147070,
-0.083874,
-0.019216,
0.186860,
0.084465,
-0.035056,
-0.142660,
-0.004118,
0.038929,
0.073555,
-0.149660,
0.054221,
-0.051874,
-0.072960,
0.009026,
-0.082235,
-0.003557,
-0.053615,
0.049056,
0.126330,
0.064290,
-0.060306,
0.021491,
-0.140180,
0.039209,
0.076388,
0.052585,
0.103500,
-0.091359,
-0.042803,
-0.054204,
-0.024071,
-0.074842,
0.015441,
-0.052144,
-0.016149,
0.159000,
-0.043316,
0.000003,
0.139310,
0.042144,
-0.067772,
0.034185,
-0.051909,
-0.154080,
0.060164,
-0.052611,
-0.023512,
-0.032874,
-0.185640,
-0.056372,
0.093091,
0.133860,
0.014757,
0.134000,
-0.071547,
-0.068344,
0.013703,
0.124290,
-0.037550,
-0.123980,
0.010744,
0.061933,
-0.024680,
0.114900,
-0.071833,
-0.023306,
-0.079290,
0.150670,
0.047908,
-0.080560,
-0.062516,
-0.009913,
0.057639,
0.017551,
0.109710,
-0.187050,
-0.078866,
-0.093060,
0.060504,
0.023985,
-0.025534,
0.208820,
-0.008635,
0.224370,
0.049652,
0.170550,
0.063059,
-0.104530,
0.002368,
0.049990,
0.022140,
0.021589,
0.060683,
0.062906,
-0.117000,
-0.037696,
0.104710,
0.050109,
0.057201,
-0.077300,
0.004878,
0.076795,
-0.012779,
0.053491,
0.114990,
0.090343,
-0.002415,
-0.033101,
-0.021855,
0.023273,
-0.191180,
-0.045650,
-0.015435,
0.027117,
0.217600,
-0.059622,
-0.056566,
0.118070,
-0.034787,
0.058545,
-0.045295,
-0.059944,
0.129470,
-0.001382,
-0.033209,
0.118220,
0.002428,
0.042347,
-0.040130,
-0.085633,
-0.182770,
0.027067,
0.120190,
-0.027673,
-0.004694,
-0.010295,
0.083693,
-0.085740,
0.015215,
0.123950,
0.024520,
-0.019055,
-0.033827,
-0.019272,
-0.009112,
0.213360,
0.041505,
0.079196,
-0.019435,
0.049876,
0.072722,
0.002772,
0.011055,
0.015719,
-0.035214,
-0.058193,
0.154760,
-0.075165,
0.037141,
0.003690,
0.104200,
-0.089542,
-0.041114,
0.055244,
0.085482,
0.004924,
0.095760,
0.034429,
-0.304470,
0.057799,
0.094889,
-0.035186,
0.113170,
0.129450,
0.001120,
0.077471,
-0.013050,
0.067413,
0.015529,
-0.265210,
0.020334,
0.078285,
-0.054875,
-0.027004,
0.065863,
-0.051358,
0.010437,
-0.197060,
-0.034110,
-0.073063,
-0.025492,
0.033531,
0.198910,
-0.069031,
0.003184,
0.062898,
0.085704,
-0.075276,
-0.021881,
0.010676,
0.016151,
-0.070495,
-0.067729,
0.064801,
-0.015687,
-0.011907,
-0.051591,
-0.064599,
-0.005064,
-0.017357,
-0.073314,
-0.078712,
-0.072910,
0.160420,
-0.075248,
0.010618,
0.028692,
-0.032576,
-0.167090,
-0.083080,
0.069826,
-0.062643,
0.126210,
-0.036741,
-0.156050,
-0.126710,
-0.063066,
0.070186,
0.018830,
-0.001520,
-0.058396,
-0.102680,
-0.103450,
0.149700,
0.034171,
0.087793,
0.017864,
-0.005192,
0.012039,
0.126780,
-0.044592,
-0.000539,
-0.223910,
0.043830,
0.047254,
0.017627,
-0.005037,
0.027113,
-0.012013,
0.122240,
0.082330,
-0.196910,
0.032423,
0.039409,
-0.026333,
-0.011735,
0.049185,
-0.052639,
-0.032942,
-0.040358,
-0.102170,
0.098728,
0.126750,
-0.183890,
-0.030034,
-0.037880,
-0.049337,
-0.123200,
0.102460,
0.025292,
0.009291,
0.012788,
0.061881,
0.166940,
0.006027,
0.084083,
-0.132750,
-0.029374,
0.138580,
0.036806,
-0.089493,
-0.112970,
-0.030488,
0.004942,
-0.048321,
0.040935,
0.005913,
-0.036262,
0.151860,
-0.046816,
-0.089911,
-0.079348,
-0.159250,
-0.005401,
0.198180,
-0.091465,
0.070193,
0.190030,
0.073676,
0.190680,
-0.019471,
-0.096729,
0.258980,
-0.035310,
-0.006039,
0.098439,
0.082241,
0.090960,
-0.063494,
0.003595,
-0.001539,
-0.032561,
-0.083815,
0.040626,
-0.081622,
-0.133760,
0.071375,
0.102340,
0.046161,
0.077754,
0.053442,
-0.040973,
0.010839,
0.159260,
-0.093136,
-0.057104,
-0.090772,
0.082365,
0.202740,
0.037367,
-0.070383,
-0.020370,
0.076979,
-0.000005,
0.010554,
-0.017034,
0.049511,
0.276130,
0.118030,
-0.008295,
-0.040158,
-0.013346,
-0.025006,
-0.060740,
0.116030,
0.027313,
0.072634,
0.062471,
0.130870,
-0.007031,
-0.067206,
0.030674,
0.018744,
-0.140230,
0.054845,
-0.012093,
-0.050952,
0.039509,
-0.086603,
0.083588,
0.014466,
-0.064826,
-0.002922,
-0.000804,
0.017406,
0.050715,
-0.007074,
-0.041886,
-0.084769,
-0.136220,
-0.078318,
0.074019,
-0.003264,
-0.065204,
0.091738,
0.023437,
-0.011914,
0.044284,
0.027650,
-0.067758,
-0.049106,
0.030249,
0.235670,
-0.091612,
0.045073,
0.042667,
0.011956,
-0.024046,
-0.185330,
0.268430,
-0.021594,
0.052151,
0.027795,
-0.055532,
0.026258,
-0.097748,
-0.161460,
0.025711,
-0.100470,
0.039993,
0.092259,
-0.021352,
-0.014238,
-0.171260,
0.039596,
-0.009638,
-0.115920,
0.022301,
0.057933,
-0.072064,
-0.239710,
0.118070,
-0.126570,
-0.046830,
-0.104150,
-0.003412,
-0.030702,
0.034432,
-0.037777,
-0.061208,
0.061539,
0.017232,
-0.061920,
0.057092,
-0.001087,
-0.045871,
-0.030417,
-0.054841,
-0.043250,
0.064618,
0.073373,
-0.064840,
0.074874,
0.025599,
-0.146770,
0.058389,
-0.084769,
0.138920,
0.006579,
0.139810,
0.061687,
-0.205850,
0.099224,
0.130070,
0.008640,
-0.001692,
-0.024254,
0.047539,
0.053316,
-0.010209,
0.032954,
0.059394,
0.035916,
-0.074149,
0.095091,
-0.040444,
-0.065237,
-0.093083,
0.137550,
0.168840,
0.053866,
0.008851,
-0.001670,
0.038736,
0.018911,
0.120570,
0.000173,
0.012749,
0.013514,
0.009062,
0.088428,
0.037341,
0.076105,
-0.051397,
0.027916,
-0.127700,
0.041959,
0.064666,
0.040682,
-0.020322,
0.064743,
0.087268,
0.026823,
0.028985,
0.054690,
0.094747,
-0.056537,
-0.097038,
-0.008928,
-0.046791,
0.056269,
0.037434,
-0.194200,
-0.009261,
-0.063131,
-0.072876,
0.075766,
0.068189,
-0.042167,
-0.044066,
-0.082317,
0.073285,
0.235260,
0.074763,
-0.073194,
-0.155010,
-0.048148,
0.130990,
0.214990,
0.033624,
0.019644,
-0.132500,
0.029709,
-0.095093,
-0.015512,
0.042242,
-0.129010,
0.088217,
0.076888,
0.003874,
0.019675,
0.046059,
0.072334,
0.081818,
0.052337,
0.040204,
0.137190,
0.048410,
0.034332,
-0.033776,
0.184660,
-0.039731,
0.057109,
-0.001142,
-0.241120,
0.091887,
0.107660,
-0.114850,
-0.168510,
-0.057794,
-0.054320,
0.025473,
0.042771,
-0.167950,
0.082901,
0.006154,
0.019187,
0.061894,
-0.083137,
-0.080780,
-0.000519,
-0.025230,
-0.026576,
0.021922,
0.085024,
0.064816,
0.000466,
-0.051016,
0.002793,
0.012169,
-0.040663,
-0.119000,
0.053758,
-0.231620,
-0.033023,
0.000546,
0.080836,
-0.053800,
-0.097266,
0.241970,
-0.109310,
0.033240,
-0.094692,
-0.085819,
-0.072378,
-0.000646,
-0.039004,
-0.204310,
0.042630,
0.020581,
-0.075895,
0.044276,
-0.125160,
-0.051484,
-0.007237,
0.020052,
-0.074040,
-0.016069,
-0.050351,
-0.103330,
-0.169900,
-0.066429,
0.010279,
0.002871,
0.207600,
0.029997,
0.066295,
-0.003294,
-0.145130,
0.031526,
0.076770,
-0.024755,
0.074822,
-0.061859,
-0.058267,
0.005496,
0.049443,
0.096066,
0.019303,
-0.147740,
-0.023130,
0.010646,
0.049929,
0.059521,
-0.041984,
-0.071625,
0.002829,
0.015695,
0.129930,
0.062806,
0.061791,
-0.079351,
-0.141630,
-0.038980,
0.012656,
0.082104,
0.098814,
-0.095435,
-0.182280,
-0.045822,
-0.085841,
-0.156230,
0.002631,
-0.008354,
0.031800,
0.062594,
-0.015172,
-0.059625,
0.060800,
0.049446,
0.038747,
-0.025854,
0.033732,
-0.028227,
0.031009,
-0.046772,
0.035341,
0.004854,
-0.094166,
0.033386,
0.203010,
-0.031661,
-0.203450,
0.055923,
-0.153080,
0.032276,
0.100920,
0.146410,
-0.177860,
-0.168910,
-0.086863,
-0.077076,
0.037576,
-0.040994,
0.069291,
-0.024028,
0.050504,
0.088906,
0.071534,
-0.027978,
0.058020,
0.076528,
0.045360,
0.096803,
0.138980,
0.061244,
-0.017791,
-0.311540,
0.136150,
0.113200,
-0.036434,
0.141480,
0.055459,
-0.028066,
-0.084646,
0.049838,
-0.038986,
-0.202580,
-0.095740,
0.053926,
-0.080492,
-0.010763,
-0.084786,
0.009418,
0.032241,
-0.001173,
0.048652,
0.116070,
-0.064150,
-0.022126,
-0.042251,
-0.005818,
0.161670,
-0.075667,
-0.098344,
0.040825,
-0.050015,
-0.090144,
0.007092,
0.012323,
-0.101690,
-0.036038,
0.066633,
-0.258250,
0.204050,
0.041892,
-0.021940,
-0.012843,
0.089286,
-0.014382,
0.007462,
0.046253,
0.060570,
0.066528,
-0.064819,
0.132410,
0.026189,
0.009503,
-0.033521,
0.119210,
-0.077410,
-0.108060,
0.071642,
-0.053079,
0.059356,
-0.090852,
-0.025028,
0.006476,
0.061600,
0.175120,
-0.100650,
-0.128120,
-0.133650,
-0.102160,
0.016293,
0.222530,
0.047494,
-0.208270,
-0.085710,
0.202020,
-0.042666,
0.121820,
-0.041531,
0.148960,
-0.012992,
0.028613,
0.203820,
-0.059983,
-0.077419,
0.014901,
-0.082202,
-0.108180,
0.075989,
0.050814,
-0.032369,
-0.046721,
-0.049076,
0.013861,
0.135770,
-0.057850,
-0.012546,
0.034496,
-0.159240,
0.059130,
-0.158350,
0.005274,
0.023707,
-0.007110,
0.120130,
-0.039279,
-0.067331,
-0.047291,
-0.017924,
-0.135350,
-0.008250,
0.011242,
0.036651,
-0.186770,
0.027324,
0.019137,
-0.045599,
-0.015272,
-0.051872,
-0.089657,
0.003174,
0.000894,
0.025732,
-0.023636,
-0.012647,
0.162370,
-0.106720,
-0.029733,
-0.234940,
0.212780,
0.085672,
-0.190000,
0.039691,
-0.136160,
0.071164,
-0.124370,
0.006738,
-0.053788,
0.075819,
-0.035580,
-0.024350,
-0.013023,
0.064100,
0.082526,
0.021185,
-0.047470,
-0.056564,
-0.063885,
-0.073570,
-0.051262,
0.104580,
-0.112970,
-0.014834,
-0.015383,
-0.133590,
0.034155,
0.042412,
0.072191,
0.003076,
-0.034224,
0.005541,
0.030137,
0.053036,
-0.011675,
0.031655,
0.061231,
0.072685,
-0.037021,
-0.096371,
-0.023831,
0.083465,
0.112540,
-0.037524,
-0.020570,
0.097210,
0.162680,
-0.110310,
0.169540,
-0.266660,
-0.039999,
0.046086,
-0.035350,
0.078782,
0.082983,
0.117540,
-0.018836,
0.053617,
0.082772,
-0.194920,
-0.032585,
0.055156,
0.025142,
-0.023144,
-0.001729,
0.146120,
-0.058597,
-0.036361,
0.114090,
0.129980,
0.053578,
-0.035921,
0.157070,
-0.092142,
-0.063968,
-0.138810,
0.011215,
0.010962,
0.037828,
-0.069592,
-0.025812,
-0.000837,
-0.035621,
0.050949,
0.081781,
-0.058829,
-0.047259,
-0.102620,
-0.040177,
-0.046295,
0.237290,
-0.044642,
-0.078735,
-0.085404,
0.034709,
-0.085350,
0.012180,
-0.048857,
0.012697,
-0.050326,
-0.110970,
-0.015268,
-0.070975,
-0.095616,
0.014016,
0.080799,
-0.043977,
0.071807,
-0.029121,
0.098129,
0.016928,
0.111650,
-0.053554,
-0.055424,
0.096662,
0.075906,
0.018064,
-0.004877,
0.031350,
-0.102400,
-0.058299,
0.026404,
-0.008157,
-0.032941,
0.004988,
-0.028584,
-0.158400,
0.066570,
-0.046765,
-0.055959,
0.068408,
0.019000,
-0.006474,
0.100300,
-0.164990,
-0.115770,
-0.205860,
-0.050180,
0.066224,
0.123240,
-0.023587,
0.124720,
-0.207550,
-0.008533,
-0.072485,
-0.042477,
0.047905,
-0.052078,
0.032305,
-0.062796,
-0.183450,
-0.088366,
0.059634,
0.093557,
-0.010199,
0.157930,
-0.057941,
0.066898,
0.112550,
-0.108370,
-0.064702,
-0.082070,
0.153800,
-0.056193,
0.130900,
-0.061145,
0.023161,
-0.123440,
0.149870,
-0.199130,
-0.010487,
-0.036007,
0.007531,
-0.064937,
-0.023444,
-0.164650,
-0.055853,
-0.086767,
-0.072833,
-0.021525,
-0.056504,
-0.027258,
-0.061230,
-0.039530,
-0.096505,
-0.018244,
0.041954,
-0.040577,
0.085144,
0.022212,
0.025652,
0.077300,
0.139510,
-0.013123,
-0.061447,
-0.177810,
0.037399,
0.068534,
-0.040678,
0.059007,
0.117810,
-0.023663,
0.078515,
-0.085572,
0.016266,
-0.087296,
-0.023487,
-0.276450,
-0.068625,
0.031048,
0.195030,
-0.219380,
0.064558,
0.114440,
-0.081640,
0.133160,
0.054695,
0.061683,
0.023567,
-0.005612,
-0.000461,
-0.011853,
-0.029999,
0.007360,
-0.162730,
-0.023124,
-0.028779,
-0.045854,
0.012055,
0.135110,
0.089988,
-0.035111,
-0.018678,
0.064906,
-0.039533,
-0.054447,
0.075533,
0.026546,
0.033296,
-0.078533,
0.056463,
0.070069,
-0.197670,
0.084093,
-0.019850,
0.001304,
-0.217400,
0.044372,
0.017334,
-0.065246,
0.118400,
0.071782,
-0.059670,
-0.035080,
0.266860,
-0.006256,
-0.120260,
-0.049761,
-0.006607,
-0.136550,
-0.078205,
-0.077174,
-0.048370,
0.051967,
0.075975,
0.035085,
0.131470,
-0.071299,
0.079480,
-0.032338,
-0.103740,
0.119240,
-0.010116,
-0.089316,
-0.085378,
-0.024636,
0.048952,
-0.056734,
-0.025023,
-0.095982,
0.042059,
0.049000,
-0.036714,
0.043082,
0.095711,
0.045192,
-0.074494,
0.013362,
-0.037981,
-0.032620,
-0.079653,
-0.026958,
-0.007482,
-0.052381,
-0.030331,
0.137640,
-0.126830,
0.126360,
0.027471,
-0.080305,
0.039984,
-0.067787,
0.154910,
0.043278,
-0.023615,
-0.085908,
0.209630,
0.045319,
0.037894,
-0.064125,
-0.005894,
-0.012575,
0.012507,
-0.025384,
0.093258,
-0.098711,
0.055926,
-0.023044,
-0.017281,
0.007691,
0.115600,
-0.066761,
-0.062091,
0.183460,
0.080383,
-0.177660,
-0.043573,
-0.134750,
0.023234,
0.103800,
0.101110,
0.011584,
-0.070012,
0.052914,
0.079101,
-0.081800,
-0.108920,
0.043953,
-0.063635,
-0.076771,
-0.007165,
-0.071644,
0.072867,
0.021980,
-0.264200,
-0.047810,
0.055482,
-0.023502,
-0.025554,
0.103240,
-0.041220,
0.039711,
0.043757,
-0.014588,
0.048541,
0.015702,
-0.137110,
-0.004921,
0.014327,
-0.306790,
0.221260,
0.025244,
0.033239,
-0.028851,
-0.004695,
0.168300,
-0.158210,
0.007390,
-0.064416,
-0.058558,
-0.106870,
-0.088480,
-0.020385,
-0.001962,
-0.215840,
0.068120,
0.126140,
0.068508,
0.028668,
0.132370,
-0.030879,
0.021153,
0.057358,
-0.079480,
-0.022057,
0.174220,
-0.184740,
-0.060310,
0.042009,
0.081392,
-0.006004,
0.127040,
-0.090818,
0.041238,
0.076376,
-0.085387,
-0.014074,
0.045300,
-0.037740,
0.018152,
-0.001582,
0.056831,
0.109210,
-0.018544,
-0.037932,
-0.004622,
-0.016256,
-0.079502,
0.088917,
0.037452,
-0.060554,
-0.051779,
0.062078,
0.032678,
-0.052252,
-0.171020,
-0.104230,
-0.003092,
0.022265,
-0.064678,
0.124960,
-0.018255,
-0.095327,
0.045331,
-0.001421,
-0.015167,
-0.120390,
0.047276,
0.032406,
-0.033870,
0.095622,
-0.017293,
0.049371,
-0.046211,
0.076163,
0.114850,
-0.005001,
-0.042288,
0.026367,
0.068425,
-0.061669,
-0.093467,
-0.053066,
-0.029252,
0.066638,
0.157820,
-0.011665,
0.119160,
-0.092372,
-0.100370,
0.009038,
-0.111570,
0.018761,
0.147110,
0.044546,
-0.067617,
0.142640,
0.089476,
-0.026704,
0.162710,
0.050005,
-0.045135,
-0.018963,
-0.017280,
0.196370,
-0.014685,
0.066456,
0.016736,
0.036353,
-0.138690,
0.063407,
-0.001697,
-0.106490,
-0.005450,
-0.003795,
-0.016643,
0.060054,
0.112380,
-0.109830,
0.123060,
-0.133770,
-0.039268,
0.094652,
-0.039738,
-0.038123,
-0.071470,
0.154130,
-0.100290,
0.004794,
0.079142,
-0.032101,
0.033287,
0.014998,
0.070258,
0.006213,
0.140890,
0.254550,
-0.002963,
-0.006741,
0.082126,
-0.035901,
0.063137,
0.021214,
-0.027643,
-0.008237,
0.120040,
0.042587,
0.016881,
-0.069726,
0.063436,
-0.150030,
-0.082674,
-0.018902,
0.069485,
0.066397,
0.078824,
-0.027187,
0.083248,
-0.030427,
0.034535,
-0.023373,
0.066236,
-0.102370,
0.026608,
-0.208440,
-0.029738,
-0.024009,
0.154050,
0.063564,
0.080891,
-0.052264,
-0.045005,
-0.031928,
0.063716,
-0.010784,
-0.008847,
0.082648,
-0.050315,
-0.026218,
0.097458,
-0.100150,
0.014278,
0.134880,
-0.031322,
-0.014838,
-0.015650,
-0.040246,
0.047085,
-0.015114,
-0.012345,
-0.039117,
0.049535,
-0.127850,
0.113230,
-0.076685,
0.146720,
-0.009424,
0.012787,
-0.041150,
0.049425,
-0.064093,
-0.043889,
-0.009269,
-0.075060,
0.002954,
0.160620,
-0.070784,
-0.044974,
-0.050725,
0.138820,
-0.373070,
-0.074178,
-0.060021,
-0.104940,
-0.091475,
0.142210,
0.012671,
0.089061,
0.045742,
0.107520,
0.180390,
0.051022,
0.098498,
-0.066883,
0.009457,
0.032833,
-0.076293,
-0.046889,
-0.080930,
0.015340,
0.042054,
0.231000,
0.066996,
0.036430,
0.023651,
-0.041535,
-0.085077,
-0.232860,
-0.001862,
-0.037175,
0.126460,
-0.078397,
0.089780,
0.066578,
0.018585,
0.066677,
-0.004028,
-0.009057,
0.079574,
-0.025493,
-0.107570,
0.009875,
-0.051730,
0.041655,
-0.161880,
0.137060,
0.268520,
-0.079110,
0.012767,
0.033959,
0.041454,
-0.011242,
0.093562,
0.010578,
0.039961,
0.195250,
-0.167220,
-0.044558,
-0.088692,
-0.091139,
0.076519,
0.101170,
0.034495,
0.014581,
-0.074404,
0.005340,
-0.103450,
0.068735,
0.030145,
-0.119680,
0.065628,
0.001677,
-0.048371,
0.048898,
-0.102650,
0.042383,
-0.181800,
0.099809,
-0.112630,
0.005899,
0.023941,
0.084538,
-0.041440,
-0.014557,
-0.027320,
-0.028465,
-0.154440,
-0.112230,
-0.060767,
0.161380,
0.019522,
-0.005200,
-0.159940,
-0.005204,
-0.034803,
-0.053986,
-0.151510,
0.013156,
-0.076298,
-0.089442,
0.024737,
-0.090593,
0.081802,
-0.139900,
-0.003025,
0.134080,
0.041935,
-0.059044,
-0.099626,
0.037419,
-0.119390,
-0.096736,
-0.025247,
-0.078844,
-0.011288,
0.018207,
-0.079819,
0.026102,
0.006219,
0.142720,
-0.144440,
0.166170,
0.001899,
0.139670,
-0.003926,
-0.003039,
-0.175100,
-0.059696,
-0.047902,
0.100910,
0.095727,
-0.006126,
-0.057543,
0.026878,
0.122440,
-0.077908,
-0.060920,
0.003790,
0.085220,
0.134060,
-0.044572,
0.007407,
-0.070882,
0.013041,
-0.103670,
0.064258,
-0.016628,
-0.044024,
0.066191,
-0.045593,
0.042565,
-0.005882,
0.075473,
0.024083,
-0.094524,
0.082589,
0.098444,
0.020616,
-0.023002,
0.019279,
0.058813,
-0.098696,
0.045875,
0.062844,
-0.101360,
-0.039902,
0.035954,
-0.003745,
0.008537,
-0.020396,
0.015050,
-0.114610,
0.019713,
0.052769,
0.014910,
0.060952,
-0.016347,
-0.099370,
0.011602,
0.138980,
-0.001607,
0.025760,
0.014614,
-0.004023,
0.068147,
-0.026272,
-0.029485,
-0.026459,
-0.054055,
-0.043060,
-0.073506,
0.021889,
-0.021414,
0.013536,
0.068556,
-0.085585,
-0.010874,
0.009342,
-0.046349,
0.087399,
-0.005397,
-0.011455,
-0.000217,
0.041984,
0.018622,
-0.120840,
0.057568,
0.073073,
-0.002746,
-0.049401,
0.054364,
0.070344,
0.156760,
0.053483,
-0.043248,
-0.055590,
-0.164540,
0.079267,
0.026704,
-0.011175,
0.167910,
-0.001859,
-0.035328,
0.050958,
-0.032604,
0.036098,
0.050970,
-0.069837,
0.012791,
0.058772,
0.088230,
0.047162,
-0.036373,
0.047979,
0.065126,
-0.118900,
0.021788,
0.218650,
-0.079454,
0.045524,
0.054475,
-0.062975,
0.021601,
0.046740,
-0.044524,
0.036187,
0.128670,
0.117630,
-0.019628,
0.275850,
0.024793,
-0.062178,
0.081855,
0.083282,
0.019513,
-0.041954,
0.013636,
-0.071077,
0.102440,
-0.092760,
-0.059254,
0.082150,
-0.079814,
0.067830,
-0.073051,
-0.062721,
0.106910,
0.030954,
0.111940,
-0.146230,
-0.101110,
0.012645,
0.092175,
-0.072609,
-0.026369,
-0.126330,
-0.047582,
0.060855,
-0.002655,
0.052923,
0.012149,
-0.204450,
-0.004923,
-0.052771,
-0.239100,
-0.122250,
-0.040884,
-0.085609,
-0.047388,
0.072591,
0.086742,
-0.137990,
0.146210,
0.032039,
-0.059548,
-0.044879,
-0.019790,
-0.179780,
-0.048883,
0.047725,
0.139310,
0.148710,
0.079604,
0.134960,
0.034563,
0.047780,
-0.009728,
0.012073,
-0.049464,
-0.057593,
0.027873,
-0.070713,
-0.035902,
-0.019954,
0.030372,
0.065657,
-0.045352,
-0.092798,
-0.149440,
0.191830,
0.046253,
-0.069232,
0.052552,
-0.084468,
-0.000615,
-0.057503,
0.147500,
0.066028,
-0.369850,
-0.101940,
0.065790,
-0.040257,
-0.023459,
-0.035664,
-0.104570,
0.118660,
0.124120,
-0.037030,
-0.004252,
-0.076751,
0.044360,
-0.007218,
-0.028283,
0.040194,
-0.087972,
0.032143,
0.002485,
-0.030130,
-0.023265,
-0.028870,
-0.029644,
0.075267,
-0.041030,
-0.000793,
0.042927,
-0.054371,
0.034988,
0.165270,
0.050735,
0.153390,
-0.195500,
0.143970,
-0.039075,
0.081755,
0.000983,
-0.183220,
-0.021956,
-0.058255,
-0.090506,
0.077799,
-0.357270,
0.003161,
0.026817,
0.014649,
-0.043954,
-0.064203,
0.023557,
-0.073835,
0.119230,
-0.279630,
0.044503,
0.009298,
0.015820,
-0.015886,
-0.115110,
-0.012332,
0.001107,
0.076971,
-0.254480,
0.215730,
-0.213140,
-0.049217,
-0.174720,
-0.033881,
0.021325,
0.096394,
-0.123510,
0.021286,
0.050695,
0.062792,
0.050294,
0.049213,
-0.038156,
-0.049267,
0.183010,
0.154310,
-0.086968,
-0.074954,
-0.065740,
-0.014378,
0.036447,
0.140500,
0.082003,
-0.087884,
-0.039080,
-0.013475,
0.076531,
0.073370,
-0.039416,
0.019933,
-0.179680,
0.141610,
-0.106630,
0.075659,
0.050352,
-0.051538,
0.145290,
-0.052980,
-0.077451,
0.064182,
-0.022198,
-0.027922,
-0.056396,
-0.029209,
-0.088441,
0.037550,
0.014273,
-0.047482,
0.064905,
-0.018751,
-0.079115,
-0.028186,
-0.045839,
-0.077079,
-0.024030,
0.079958,
-0.034302,
0.156710,
-0.074745,
-0.042544,
0.142810,
0.048663,
0.027176,
0.001981,
-0.052771,
-0.204630,
0.166650,
-0.065303,
0.020151,
-0.086555,
-0.119140,
0.063657,
0.113300,
-0.030492,
-0.008831,
-0.092468,
0.110710,
-0.063493,
0.037511,
-0.054227,
-0.170710,
-0.050614,
0.004366,
-0.012733,
0.012696,
-0.046864,
0.089320,
-0.078066,
0.064075,
-0.037596,
0.028494,
-0.070848,
-0.020246,
-0.130850,
-0.035967,
0.084430,
-0.050472,
-0.029303,
-0.021892,
-0.220040,
-0.070022,
0.040670,
0.003798,
-0.047534,
-0.017674,
0.076164,
-0.039374,
0.000463,
0.015942,
0.167920,
0.016085,
-0.145120,
-0.006162,
-0.025721,
-0.054372,
-0.013518,
0.040293,
0.026755,
0.056710,
0.076342,
0.064983,
-0.028042,
-0.113060,
0.083618,
0.081442,
-0.089995,
0.065340,
0.017379,
-0.030694,
0.073704,
0.001495,
-0.074282,
0.050020,
-0.005248,
-0.051105,
0.045342,
-0.086853,
-0.068470,
0.042847,
-0.058821,
-0.055576,
0.014152,
0.038436,
0.060913,
0.056001,
-0.133480,
0.031961,
0.103220,
-0.059632,
-0.076563,
-0.040805,
0.069212,
-0.078397,
-0.019003,
0.012936,
-0.151810,
-0.124950,
0.057548,
-0.067875,
-0.095985,
-0.068741,
-0.060781,
-0.082184,
-0.065205,
-0.095681,
0.078804,
-0.035939,
-0.054636,
-0.038872,
-0.119730,
-0.011532,
-0.056347,
0.008951,
0.051810,
0.060953,
-0.076867,
0.039573,
0.047449,
0.010253,
-0.052108,
-0.182370,
-0.074498,
-0.043884,
-0.030187,
-0.115180,
-0.011018,
-0.134060,
0.069423,
-0.184710,
0.050751,
0.045559,
-0.031409,
-0.034107,
0.039927,
0.046383,
-0.139890,
-0.018209,
-0.008726,
-0.084453,
0.094693,
-0.105520,
0.037328,
-0.001137,
-0.002729,
0.017870,
-0.116670,
-0.096564,
-0.058459,
-0.061970,
-0.067603,
-0.081943,
-0.093505,
0.075798,
-0.064413,
-0.093849,
0.020292,
-0.041162,
-0.075502,
-0.086354,
-0.034109,
-0.022248,
-0.079111,
0.006946,
-0.023825,
-0.027953,
-0.001634,
0.078273,
-0.030086,
0.016692,
0.011965,
-0.020334,
0.027677,
-0.013118,
-0.039764,
-0.049052,
-0.159270,
-0.079526,
0.018067,
-0.005813,
-0.108210,
-0.005756,
-0.048077,
0.007536,
0.063948,
-0.047637,
-0.000663,
0.072889,
0.021381,
0.061481,
-0.072671,
-0.078534,
-0.017494,
0.019277,
0.081747,
0.062988,
-0.068285,
0.018531,
-0.088468,
0.059922,
0.003536,
-0.059570,
-0.026946,
-0.102660,
-0.040128,
-0.019000,
-0.011025,
-0.094359,
-0.100970,
0.074833,
-0.085250,
-0.036265,
-0.033004,
0.007342,
0.014219,
-0.077733,
-0.148040,
-0.070820,
0.008734,
-0.046264,
0.028139,
-0.075412,
0.069910,
-0.045332,
0.033427,
-0.111900,
0.085162,
0.041818,
0.035285,
-0.131650,
0.002191,
0.054056,
-0.034718,
-0.041002,
0.027205,
-0.045966,
-0.125050,
-0.014870,
0.044589,
-0.081985,
-0.071377,
-0.066902,
0.015991,
0.077304,
0.087051,
0.019066,
0.001046,
-0.102510,
0.087673,
-0.032984,
-0.036608,
-0.083949,
0.083867,
0.022239,
-0.005007,
-0.058893,
0.024619,
-0.010264,
0.021582,
0.080573,
-0.013401,
-0.059770,
0.045301,
0.016074,
0.001899,
0.022853,
-0.092713,
-0.030029,
0.029105,
-0.098910,
-0.034977,
-0.043768,
0.018452,
0.060747,
0.036689,
-0.115720,
0.003476,
0.016984,
0.024347,
-0.064994,
-0.086196,
-0.089088,
-0.029793,
-0.077429,
0.055087,
-0.101260,
0.047186,
-0.072145,
-0.054029,
-0.084178,
-0.116240,
0.013463,
-0.118590,
-0.047147,
0.048248,
0.082814,
-0.073033,
-0.021397,
-0.066568,
-0.014064,
-0.056736,
-0.071209,
0.075557,
-0.051105,
0.033448,
-0.065076,
-0.001879,
-0.078666,
-0.020951,
-0.033546,
-0.058016,
0.097846,
0.052252,
-0.030434,
-0.054312,
0.232390,
-0.033579,
-0.070940,
0.020484,
-0.041073,
-0.164490,
-0.042752,
0.047415,
0.047172,
0.016727,
0.036412,
0.058885,
0.069649,
-0.153650,
0.037392,
-0.019217,
0.067393,
-0.179210,
-0.046876,
-0.004640,
-0.059879,
0.161810,
0.055952,
-0.028510,
0.038900,
-0.098175,
0.009817,
0.069423,
0.030494,
-0.023997,
0.133800,
0.000473,
-0.112570,
0.093388,
0.133760,
0.072421,
0.002740,
0.028398,
0.077677,
-0.080157,
-0.047381,
-0.045808,
-0.186200,
-0.116410,
-0.065728,
-0.073135,
-0.047331,
-0.079910,
-0.083227,
-0.032654,
0.160920,
0.012605,
0.093895,
0.007141,
-0.065350,
0.055243,
-0.154750,
0.088427,
-0.033642,
-0.199290,
0.052841,
-0.085411,
0.061213,
0.078885,
0.079879,
0.042832,
0.085701,
-0.023066,
0.040541,
0.210140,
-0.002352,
-0.116760,
0.080131,
-0.053370,
0.054266,
0.134420,
0.111930,
0.068782,
0.049728,
0.209000,
-0.023481,
0.143460,
-0.172800,
0.035771,
0.061790,
0.006287,
-0.000329,
0.063427,
-0.086895,
-0.022750,
0.025491,
-0.067406,
0.078208,
0.070372,
0.044627,
-0.021374,
0.028079,
0.045138,
-0.141580,
0.043924,
0.015158,
-0.091544,
-0.064584,
0.109080,
-0.018817,
0.046107,
0.039824,
0.048694,
0.037340,
0.018642,
-0.113680,
0.316650,
-0.085486,
0.059459,
0.012947,
0.012031,
-0.034078,
0.019685,
0.080892,
-0.010669,
-0.015728,
-0.069734,
-0.081784,
0.014465,
0.050630,
-0.001015,
0.070596,
0.057422,
-0.009092,
-0.074240,
-0.061035,
-0.071859,
-0.086095,
-0.015888,
0.028694,
-0.088205,
-0.015655,
-0.016607,
0.070699,
0.029063,
-0.081296,
-0.073809,
0.006404,
-0.057649,
-0.025541,
-0.089072,
-0.088193,
-0.066855,
0.073174,
-0.060699,
-0.048807,
-0.053974,
-0.058562,
-0.025147,
0.015279,
0.034221,
0.021869,
0.055230,
-0.068554,
0.006584,
0.035451,
0.014940,
-0.047712,
-0.068849,
0.030906,
-0.029118,
-0.055571,
0.065477,
-0.053249,
-0.038947,
-0.040126,
-0.000925,
-0.009463,
0.008652,
-0.058349,
-0.064967,
0.048688,
-0.061277,
-0.044558,
-0.075005,
0.031511,
-0.021988,
0.020365,
-0.087346,
0.040540,
-0.019907,
-0.036872,
-0.048259,
0.002011,
-0.115670,
0.028277,
0.034027,
-0.003310,
0.010851,
-0.108350,
0.035870,
-0.061626,
0.066365,
0.011402,
-0.010891,
-0.061600,
-0.118940,
-0.072952,
-0.060921,
0.047102,
0.021625,
0.023577,
-0.070939,
0.073735,
-0.021093,
-0.115020,
-0.050688,
0.083195,
-0.044367,
0.047752,
-0.119490,
0.064062,
-0.012249,
-0.014632,
-0.078792,
-0.083112,
0.003081,
-0.059914,
-0.120610,
-0.049580,
-0.082118,
-0.004602,
0.067758,
-0.021625,
-0.073242,
-0.021045,
-0.010386,
-0.020716,
0.014728,
0.084942,
-0.072738,
0.039672,
-0.098578,
-0.037375,
0.074906,
-0.139120,
0.027255,
0.086422,
-0.086145,
0.002237,
0.014899,
-0.065872,
-0.088658,
-0.008419,
-0.071007,
-0.091813,
-0.122850,
0.007648,
0.017816,
0.070553,
0.049688,
0.083092,
0.163880,
0.069182,
-0.030252,
-0.002962,
-0.056565,
0.034498,
-0.046582,
0.066299,
-0.052930,
-0.065216,
0.011761,
0.176480,
-0.074719,
0.081754,
0.088603,
0.120950,
0.022388,
-0.065570,
0.122660,
0.030404,
-0.025325,
-0.047540,
-0.015277,
0.062371,
0.017796,
0.103680,
0.042978,
-0.023861,
-0.040065,
0.121790,
0.063638,
-0.034093,
-0.021351,
0.040462,
-0.136480,
0.028627,
0.025357,
0.191960,
0.051547,
0.175750,
-0.071679,
0.057831,
0.150820,
-0.007830,
-0.105450,
0.043061,
-0.015934,
0.067173,
0.061145,
0.157310,
-0.006668,
0.021032,
0.114580,
0.055322,
-0.031472,
-0.030915,
0.098544,
-0.053894,
-0.066814,
0.046266,
0.005235,
0.060899,
0.019429,
-0.012111,
0.121790,
0.063818,
-0.026272,
-0.012255,
-0.078723,
-0.190460,
0.092531,
-0.023329,
0.050769,
-0.067296,
0.085850,
0.030147,
0.039378,
-0.022290,
0.139130,
-0.061629,
-0.158360,
-0.178880,
0.000953,
-0.019746,
0.104040,
0.073532,
0.208520,
-0.047577,
-0.077163,
-0.265340,
0.012465,
-0.188040,
0.028672,
-0.006061,
-0.175430,
-0.293860,
0.089090,
-0.044376,
0.070925,
-0.033472,
-0.040856,
0.037706,
0.069568,
-0.071839,
0.001549,
0.017948,
0.041076,
-0.034949,
-0.051208,
0.050838,
-0.047642,
-0.038215,
-0.035721,
0.021915,
-0.064639,
0.052567,
-0.065991,
0.046450,
-0.096549,
-0.047743,
-0.035050,
-0.032114,
-0.037678,
-0.036716,
-0.019909,
-0.036039,
-0.050168,
0.006641,
-0.072361,
-0.036022,
-0.067660,
-0.057467,
-0.083858,
-0.120680,
0.005115,
-0.061618,
-0.089925,
-0.100150,
0.020223,
0.036276,
-0.054903,
0.033610,
-0.091121,
-0.028173,
-0.066641,
-0.090775,
0.034892,
-0.005113,
-0.043444,
-0.042265,
-0.009472,
0.057967,
-0.043723,
0.001814,
-0.067968,
0.049947,
0.083101,
-0.041230,
-0.081883,
0.008929,
0.006611,
0.021983,
-0.084437,
0.014668,
0.024013,
0.091114,
0.066886,
0.076917,
0.073056,
-0.022876,
-0.012974,
-0.002538,
0.008917,
-0.049785,
-0.073655,
-0.025630,
-0.065473,
-0.123140,
-0.019569,
-0.075532,
-0.015764,
0.063761,
-0.071768,
-0.016329,
-0.101560,
-0.011964,
-0.022301,
-0.041609,
-0.018336,
0.031085,
-0.031889,
0.023478,
0.004155,
0.020680,
-0.064617,
-0.004852,
0.005483,
-0.028545,
0.023247,
0.029718,
-0.059072,
-0.059198,
0.000816,
-0.060168,
-0.102280,
0.022354,
-0.050893,
-0.076699,
-0.106450,
-0.039008,
0.021714,
-0.095459,
-0.004475,
-0.001889,
0.025888,
-0.087972,
0.091781,
0.040409,
0.076751,
0.050515,
-0.226480,
-0.011974,
0.075874,
-0.098093,
-0.041105,
-0.007607,
-0.015464,
0.007472,
0.053659,
0.033854,
0.005286,
-0.043878,
0.006988,
-0.054636,
0.152300,
0.017083,
-0.123080,
-0.001287,
-0.064798,
-0.078952,
-0.069102,
0.068545,
-0.077188,
-0.008895,
-0.200570,
0.017925,
-0.033119,
-0.038538,
0.065764,
-0.042797,
0.095323,
-0.234180,
0.036033,
-0.135460,
0.026618,
-0.115360,
-0.017912,
-0.185450,
-0.124350,
-0.040423,
-0.021319,
-0.003782,
-0.052199,
-0.067192,
-0.015790,
0.031613,
-0.042660,
0.137810,
-0.092816,
0.121830,
0.067328,
-0.277960,
-0.015153,
-0.109390,
-0.057182,
-0.094371,
0.090745,
-0.036804,
-0.052462,
-0.132730,
-0.088949,
-0.038523,
0.088455,
-0.074320,
0.057660,
0.006221,
-0.006422,
-0.061128,
-0.064819,
-0.112270,
-0.054279,
-0.013215,
-0.110480,
-0.084341,
-0.223000,
-0.074365,
-0.079185,
0.064866,
0.025256,
0.028361,
0.021925,
-0.040045,
0.008211,
0.044402,
0.015407,
0.018302,
0.005621,
0.068314,
0.205160,
0.166850,
0.035826,
0.042428,
-0.078135,
0.033948,
-0.064982,
-0.032009,
-0.028169,
0.011786,
0.074582,
-0.025560,
-0.136490,
-0.050071,
-0.070561,
-0.093141,
0.007650,
-0.128060,
-0.122160,
0.099048,
-0.045390,
-0.136680,
0.041809,
0.177300,
-0.085851,
0.099980,
-0.239900,
0.055697,
-0.048509,
-0.053660,
-0.061663,
0.002145,
0.091354,
0.035675,
-0.049464,
-0.201800,
-0.150480,
0.128990,
0.076903,
-0.046237,
-0.134240,
-0.012631,
-0.030939,
0.133600,
0.020721,
0.055780,
0.019698,
-0.096181,
0.026638,
0.070468,
-0.008165,
0.011558,
0.066386,
-0.021571,
0.041798,
0.105270,
-0.014997,
-0.091511,
-0.019598,
0.075566,
-0.126530,
-0.070034,
-0.031352,
-0.096611,
0.074157,
0.077373,
0.023030,
-0.188410,
0.087987,
-0.144080,
0.136780,
0.050034,
0.045801,
0.071410,
0.043530,
0.010774,
-0.019468,
-0.111430,
-0.026389,
-0.212170,
-0.010517,
0.086119,
0.044207,
-0.105910,
0.031841,
-0.081606,
0.035901,
0.032390,
-0.050525,
-0.083596,
-0.023974,
0.065116,
-0.005881,
0.057590,
-0.088385,
-0.094676,
0.085735,
-0.030223,
0.047540,
-0.039982,
-0.032166,
0.015319,
0.065289,
0.048746,
0.049919,
0.033757,
0.087958,
0.046051,
0.201040,
0.128040,
0.177060,
-0.030709,
0.171150,
0.022048,
0.088065,
-0.058778,
0.024386,
-0.031172,
-0.056442,
-0.006603,
0.115040,
-0.090770,
-0.006090,
-0.049408,
0.002844,
0.092529,
-0.028332,
0.006089,
0.077206,
0.015096,
-0.014094,
0.042296,
-0.061939,
-0.049884,
-0.056586,
0.084673,
0.019547,
0.007340,
0.044827,
-0.154910,
0.107890,
-0.162260,
-0.092153,
-0.019817,
0.041751,
0.097160,
0.123220,
-0.056281,
0.066823,
-0.010710,
-0.006976,
0.057236,
0.078521,
0.000278,
-0.015764,
0.201570,
0.040134,
-0.013977,
0.029016,
0.013639,
-0.203010,
-0.057098,
-0.018917,
-0.012811,
0.094868,
-0.064917,
-0.076762,
0.092986,
-0.061488,
0.002598,
0.024183,
-0.005725,
0.246370,
0.044430,
0.065736,
0.104480,
0.063096,
0.197730,
-0.037851,
-0.004358,
0.123900,
-0.067205,
0.001507,
0.080385,
0.055923,
-0.031361,
-0.089904,
0.013432,
-0.063224,
0.153300,
-0.017739,
0.057624,
0.028373,
-0.071177,
0.078385,
-0.103800,
0.030561,
0.246080,
0.068063,
0.144150,
0.020907,
-0.055863,
-0.126810,
0.017942,
-0.003299,
0.233780,
-0.001494,
-0.034965,
0.079274,
-0.039562,
-0.001729,
-0.030001,
0.081851,
0.080268,
0.059893,
0.061890,
-0.026196,
0.007282,
0.086936,
0.019357,
0.052689,
0.111770,
-0.023620,
-0.044549,
0.175150,
-0.077895,
-0.256510,
-0.042627,
0.214810,
-0.050920,
-0.062022,
-0.035059,
0.019954,
0.059862,
0.107770,
-0.018415,
0.028381,
-0.270320,
-0.023962,
-0.070800,
-0.001271,
-0.061929,
-0.039456,
-0.058676,
-0.059812,
-0.124580,
0.070640,
-0.013690,
0.004379,
0.006694,
0.114530,
-0.088691,
0.119250,
0.010829,
-0.077032,
-0.040312,
0.037729,
0.024362,
0.043405,
0.093514,
-0.068623,
0.136980,
0.073282,
0.076048,
-0.083191,
-0.098759,
0.108350,
-0.060263,
-0.098092,
0.080767,
-0.082733,
-0.060637,
0.166150,
-0.071629,
-0.106370,
0.141550,
-0.044684,
0.135080,
0.080521,
-0.014317,
-0.042260,
-0.041282,
-0.033088,
-0.031491,
0.029511,
0.019973,
-0.052368,
-0.113190,
-0.153670,
0.036869,
0.038929,
0.111230,
0.141000,
-0.046534,
-0.088447,
0.067376,
-0.081218,
0.127150,
0.001428,
0.083919,
0.122350,
-0.021880,
-0.002182,
-0.117840,
0.009364,
-0.060742,
0.003732,
-0.117250,
0.060209,
0.123720,
-0.049218,
0.010460,
-0.037214,
-0.065794,
-0.049830,
0.039068,
0.018782,
0.130580,
0.111140,
-0.006829,
0.176760,
0.001545,
-0.122510,
0.052883,
0.072811,
0.207440,
-0.026631,
-0.023133,
-0.003988,
-0.067024,
-0.044348,
-0.037240,
-0.026953,
-0.019085,
-0.120230,
0.022717,
0.211960,
-0.078812,
-0.009139,
-0.006693,
-0.024500,
0.054447,
-0.012939,
-0.067424,
-0.028784,
-0.065779,
-0.108050,
-0.013060,
0.066561,
-0.017866,
0.012075,
-0.005076,
-0.063628,
-0.073943,
0.141370,
-0.129430,
-0.112650,
-0.132160,
-0.031878,
-0.092881,
-0.002340,
0.047527,
0.044144,
0.084044,
0.007493,
-0.002788,
0.024878,
0.035142,
-0.051000,
-0.032649,
-0.230530,
-0.040545,
0.200440,
0.156560,
0.079861,
0.006964,
0.084353,
-0.018646,
-0.112620,
0.030061,
0.077661,
0.122000,
0.069521,
0.186470,
0.064620,
-0.188990,
0.045951,
-0.029633,
0.047955,
-0.115680,
-0.020726,
-0.003939,
-0.015364,
0.033319,
0.075842,
0.132440,
0.110080,
0.013001,
0.059002,
0.004017,
0.106710,
-0.076772,
0.001977,
-0.009297,
0.085572,
-0.020732,
0.028980,
-0.059992,
0.006620,
0.087558,
-0.008705,
-0.136630,
-0.181220,
0.047158,
-0.041953,
-0.005078,
0.025007,
-0.109070,
-0.024967,
-0.012162,
0.036493,
0.027358,
0.121410,
0.137750,
-0.038473,
-0.048085,
0.029345,
0.112390,
0.016667,
0.209520,
-0.021909,
-0.021627,
0.028789,
-0.039132,
0.066094,
0.045761,
-0.148140,
-0.118130,
0.074676,
-0.003273,
0.135470,
-0.067482,
0.034690,
-0.018551,
-0.056588,
-0.035230,
0.111970,
-0.063250,
0.022329,
-0.003983,
0.013336,
0.000641,
-0.004610,
-0.097420,
0.014860,
-0.070015,
0.022463,
0.069537,
-0.030378,
-0.011462,
-0.012341,
0.051730,
-0.021144,
0.075525,
-0.157380,
0.041876,
0.202620,
0.086639,
-0.020993,
-0.104760,
-0.036976,
-0.065783,
0.018999,
0.079008,
-0.158910,
0.041897,
0.085273,
0.188650,
0.086372,
0.022192,
-0.083132,
-0.007182,
-0.023635,
0.020402,
0.025263,
0.075261,
-0.049570,
-0.038384,
-0.027370,
0.095093,
0.019400,
0.056516,
0.157970,
0.091068,
-0.080980,
0.123830,
-0.127130,
0.070618,
-0.174290,
-0.111620,
0.222870,
0.066935,
-0.054819,
0.152510,
0.062238,
0.010055,
0.111260,
0.087235,
-0.016997,
-0.006623,
0.050749,
0.066184,
0.133940,
-0.073150,
-0.070072,
0.098453,
0.018187,
-0.052073,
0.043033,
-0.011967,
-0.041934,
0.011408,
0.046438,
0.125770,
0.019559,
0.020775,
0.070056,
-0.037850,
-0.166400,
-0.052517,
0.033985,
-0.152080,
-0.011653,
0.110360,
0.047342,
0.017793,
-0.195380,
0.175100,
0.074142,
-0.081020,
0.032948,
-0.065477,
0.077067,
0.159260,
0.000293,
-0.029784,
0.011186,
-0.121210,
-0.245070,
0.233190,
0.115090,
0.049145,
0.014437,
-0.084738,
0.076913,
-0.050884,
-0.071275,
-0.083212,
0.058790,
0.058772,
0.059996,
0.025114,
-0.036423,
0.026094,
0.009362,
0.126180,
0.017447,
0.183950,
0.070230,
0.041688,
-0.049174,
0.095189,
0.075823,
-0.120320,
-0.218730,
-0.071338,
-0.018401,
-0.039073,
-0.020416,
0.050047,
-0.032593,
-0.021275,
0.061749,
-0.033717,
-0.033172,
0.069523,
-0.070005,
0.024779,
0.054524,
-0.014576,
-0.219810,
0.002535,
0.197870,
0.023423,
0.129130,
-0.012879,
0.089574,
-0.079604,
-0.045525,
-0.020304,
0.137730,
-0.037391,
0.078545,
0.067067,
0.025445,
0.085694,
0.001424,
-0.088721,
0.072579,
0.033741,
-0.165650,
-0.002368,
0.012037,
0.047550,
-0.030383,
0.024266,
-0.108200,
0.095434,
0.142170,
-0.175250,
0.186730,
-0.032318,
0.006234,
0.014950,
0.027284,
-0.039369,
0.098001,
-0.038039,
0.068272,
0.066883,
-0.026355,
-0.018217,
-0.150110,
0.010891,
0.078408,
-0.083875,
-0.006006,
-0.094161,
0.062399,
-0.082938,
-0.285950,
-0.059750,
-0.026776,
-0.247210,
-0.017444,
0.001321,
0.164860,
-0.008340,
-0.102570,
0.099054,
0.087858,
-0.044872,
-0.047956,
-0.010042,
-0.006052,
-0.027794,
-0.031072,
0.015807,
-0.052577,
-0.078090,
-0.080940,
0.063766,
-0.073315,
-0.131140,
0.066633,
-0.047786,
0.004972,
0.016725,
-0.050144,
0.015283,
-0.102860,
0.026273,
-0.059044,
0.063856,
-0.096132,
-0.043626,
0.033203,
0.150310,
-0.070351,
0.030216,
-0.031999,
-0.170070,
-0.079393,
0.088499,
-0.041426,
0.055419,
-0.025350,
-0.106240,
0.042246,
-0.186370,
-0.071602,
-0.033263,
0.073784,
0.063838,
-0.016414,
0.000656,
0.045809,
0.081261,
-0.048382,
-0.056939,
0.029426,
-0.020550,
-0.022534,
-0.003706,
-0.104850,
0.001988,
0.026442,
-0.006923,
0.023864,
-0.142320,
0.013753,
-0.161370,
-0.146720,
-0.095839,
-0.025269,
0.091162,
-0.077202,
0.078675,
0.032306,
0.024728,
0.148050,
0.089899,
-0.026469,
-0.064925,
-0.029008,
0.052052,
-0.010762,
0.001063,
0.015306,
0.068430,
0.119880,
-0.053876,
0.061077,
-0.100000,
0.063017,
-0.030879,
-0.116940,
-0.057051,
-0.104180,
0.140970,
-0.168000,
-0.007782,
-0.094436,
0.246550,
0.057977,
-0.014494,
-0.061908,
-0.012791,
0.093590,
0.033956,
-0.026944,
-0.042657,
-0.040677,
0.078010,
-0.039070,
0.038080,
0.002020,
0.209440,
0.054799,
0.042271,
0.099055,
0.026354,
0.069845,
0.008795,
0.092287,
0.060524,
0.029326,
0.129560,
0.106520,
0.080363,
-0.059586,
0.040765,
0.031852,
-0.033745,
-0.018893,
0.055839,
0.214530,
-0.068692,
-0.087889,
0.078730,
0.008937,
0.007474,
-0.044400,
0.029702,
0.079809,
-0.196960,
-0.059095,
0.059188,
0.080528,
-0.111300,
0.011938,
0.008896,
-0.008906,
0.058314,
-0.021504,
0.051027,
-0.007467,
0.058051,
-0.074185,
0.095225,
0.252880,
-0.016494,
-0.015443,
-0.095854,
-0.028170,
0.050488,
0.162440,
0.094168,
-0.062435,
-0.018356,
-0.059160,
-0.017768,
-0.036226,
0.026861,
0.129400,
-0.026663,
-0.020592,
-0.068236,
0.002654,
-0.060253,
0.043424,
0.028413,
-0.053668,
-0.000636,
-0.036171,
0.021099,
0.016112,
-0.081550,
-0.113410,
-0.018056,
0.183940,
-0.102260,
-0.063594,
-0.007246,
0.097253,
-0.208550,
0.136530,
0.010175,
-0.057217,
0.001985,
-0.027695,
0.006826,
0.044296,
0.050189,
-0.010514,
-0.093837,
0.077394,
-0.040178,
0.070871,
-0.033123,
0.065452,
-0.036570,
0.124220,
0.178000,
-0.073481,
-0.017518,
0.012679,
-0.126270,
-0.041321,
-0.081642,
-0.059388,
-0.128340,
-0.051139,
-0.037442,
-0.071869,
0.067571,
0.148740,
0.140830,
0.002959,
-0.037338,
-0.050420,
-0.019261,
0.145570,
-0.024359,
0.028131,
-0.202380,
-0.077986,
-0.236960,
-0.000602,
-0.031052,
0.034023,
-0.095617,
-0.029498,
-0.049681,
0.030888,
