-0.049354,
-0.044658,
0.039684,
0.066128,
0.104180,
-0.081754,
-0.135540,
-0.083877,
0.069753,
0.096816,
-0.161430,
0.002573,
-0.118850,
-0.232250,
-0.018595,
-0.050113,
-0.057539,
-0.029185,
-0.245180,
-0.168670,
-0.074761,
-0.063205,
0.022821,
-0.049861,
0.123020,
-0.377610,
-0.008107,
0.039509,
0.037094,
0.107840,
0.054576,
-0.062727,
-0.104320,
0.002971,
0.086259,
-0.039757,
-0.183370,
0.032392,
-0.266590,
0.116480,
-0.080598,
-0.185610,
-0.043115,
-0.042468,
-0.145660,
0.121070,
-0.116060,
-0.030665,
0.120400,
-0.065076,
-0.235900,
0.100480,
-0.020004,
0.017135,
-0.094496,
-0.190820,
-0.079747,
-0.094522,
0.004584,
0.053520,
0.014260,
0.089653,
0.013476,
0.163890,
-0.109640,
0.038325,
-0.020212,
0.170340,
-0.000198,
0.059372,
0.067753,
-0.122640,
0.112930,
-0.082013,
-0.151100,
-0.135920,
0.081154,
-0.204810,
-0.013617,
-0.131870,
0.031786,
-0.116360,
-0.026129,
-0.050700,
-0.004713,
-0.028030,
-0.087371,
-0.192700,
0.135750,
-0.204410,
0.089343,
-0.220340,
0.093017,
0.142830,
-0.209560,
0.007598,
0.165380,
0.118280,
0.007767,
-0.176780,
-0.122640,
-0.196350,
-0.190970,
-0.042574,
-0.101150,
-0.081267,
0.074100,
-0.147860,
-0.105210,
-0.105080,
0.084375,
0.082470,
0.034315,
-0.230820,
-0.024613,
-0.274580,
-0.011203,
-0.134310,
-0.135380,
-0.030286,
-0.095233,
-0.006463,
0.028048,
0.107720,
0.120310,
-0.224320,
-0.053521,
0.017259,
-0.118180,
-0.153440,
0.123400,
-0.010995,
0.034496,
-0.016053,
-0.184960,
-0.174190,
0.058287,
0.136970,
-0.367850,
-0.152300,
-0.065319,
-0.270700,
-0.065857,
-0.061399,
0.205350,
0.101820,
-0.221730,
-0.059620,
0.079839,
0.109650,
0.035887,
-0.134450,
-0.079333,
-0.093558,
-0.036373,
0.213870,
0.000821,
-0.263440,
0.025276,
0.001561,
-0.189270,
-0.131080,
0.078979,
-0.176270,
-0.052423,
0.064104,
-0.142730,
0.005877,
0.005083,
-0.152350,
-0.093684,
0.213640,
-0.100950,
0.020622,
-0.087772,
-0.203880,
0.064277,
-0.080416,
0.060776,
-0.276680,
-0.162450,
0.024512,
-0.172870,
0.075702,
0.000699,
-0.078529,
0.104340,
0.037490,
-0.003166,
-0.096445,
-0.050186,
0.052785,
0.017082,
0.175670,
-0.109460,
-0.068122,
-0.007437,
0.010834,
0.125400,
-0.017442,
-0.079274,
0.163410,
0.007114,
0.080256,
-0.208330,
-0.006060,
0.070673,
-0.028460,
0.067914,
0.203160,
-0.020153,
0.094216,
-0.042596,
0.073139,
0.135030,
0.215690,
-0.082139,
0.118520,
0.014021,
-0.069261,
-0.061106,
0.081626,
0.171360,
-0.030889,
0.073630,
-0.087566,
-0.062083,
0.126640,
-0.162980,
0.116050,
0.121610,
0.088967,
-0.008764,
0.056025,
-0.103980,
-0.113640,
-0.025709,
0.071230,
0.016423,
-0.003088,
0.013811,
0.108760,
0.111900,
-0.126470,
0.039873,
-0.047565,
-0.192470,
-0.132620,
-0.088764,
-0.151250,
-0.140900,
-0.031127,
0.056979,
0.069412,
-0.011487,
-0.139630,
-0.091524,
-0.102440,
0.119860,
-0.022446,
-0.150270,
0.013153,
-0.020225,
-0.030973,
-0.110190,
-0.061628,
0.028427,
0.065247,
0.057145,
0.142200,
0.003104,
0.029508,
0.085665,
0.016758,
0.019182,
-0.046582,
-0.081729,
0.175710,
-0.150810,
-0.223030,
0.110050,
-0.064339,
-0.007736,
-0.135260,
0.000347,
0.017034,
0.156810,
-0.113410,
0.126010,
-0.020832,
-0.047079,
0.042799,
0.057863,
0.074505,
0.011760,
-0.073943,
0.139870,
0.037972,
-0.015846,
-0.069244,
-0.144870,
-0.011411,
-0.047686,
-0.141810,
0.057841,
0.051563,
0.086282,
-0.067226,
-0.028072,
0.080410,
-0.215570,
0.119780,
-0.153850,
-0.191060,
0.007529,
-0.029537,
0.043975,
-0.041937,
-0.091867,
0.059201,
-0.046841,
-0.037007,
0.005166,
0.027186,
-0.077711,
-0.061101,
-0.078273,
0.140700,
0.118070,
-0.129480,
-0.214580,
0.103470,
-0.033614,
-0.031632,
-0.120870,
0.153440,
0.047801,
0.094527,
-0.136780,
0.050736,
-0.108440,
-0.147090,
0.088798,
-0.129620,
-0.027809,
-0.089778,
0.086507,
-0.010998,
-0.107770,
-0.071146,
0.067226,
-0.022614,
-0.040994,
0.088750,
0.009911,
-0.139180,
-0.001862,
0.053500,
-0.145560,
-0.266130,
0.006359,
0.086984,
0.082978,
-0.101890,
0.050284,
0.202210,
0.001040,
-0.246090,
-0.022370,
-0.046498,
-0.121820,
-0.031922,
-0.091527,
0.008816,
0.004068,
-0.258490,
-0.061877,
-0.131850,
0.044753,
0.050614,
0.090965,
-0.140650,
-0.305090,
-0.070874,
0.160470,
0.174190,
-0.003418,
0.012555,
-0.149870,
-0.124010,
0.095096,
-0.011340,
-0.090210,
-0.012732,
-0.015357,
0.046609,
0.162730,
0.037693,
0.109750,
-0.216190,
-0.120250,
-0.047645,
-0.033499,
-0.006140,
-0.041187,
-0.249580,
0.077158,
0.165020,
-0.177430,
0.065534,
0.068406,
0.112650,
-0.025896,
0.218030,
-0.128720,
0.209280,
-0.089382,
-0.120910,
-0.019282,
-0.121190,
-0.111310,
0.107120,
0.059566,
-0.119710,
0.005861,
-0.225800,
0.091045,
-0.171790,
-0.135310,
-0.062615,
-0.049245,
-0.128570,
-0.172190,
-0.014857,
-0.214070,
0.139290,
0.077700,
0.086469,
-0.013088,
0.137340,
0.052545,
-0.060947,
0.118160,
0.024557,
0.011591,
-0.085441,
0.006611,
-0.147390,
-0.058861,
-0.033320,
0.077786,
-0.107010,
-0.043687,
-0.054683,
-0.140300,
-0.046338,
0.183410,
-0.080076,
0.120670,
-0.124580,
-0.025854,
-0.053666,
-0.071261,
0.026580,
0.118070,
-0.108460,
0.076633,
-0.109160,
-0.183000,
-0.070974,
0.062546,
-0.076317,
-0.052389,
-0.069904,
0.116010,
0.205950,
-0.204140,
0.004404,
0.017592,
-0.010381,
0.044556,
-0.166570,
0.134410,
0.034137,
0.023396,
-0.116430,
-0.003505,
-0.078614,
-0.026301,
0.089870,
0.033423,
-0.020894,
-0.112270,
0.049753,
-0.060057,
-0.016309,
0.010662,
-0.053291,
-0.115540,
0.050039,
-0.069911,
-0.171900,
-0.019331,
0.133250,
-0.116060,
0.037967,
-0.135520,
-0.017791,
-0.164130,
-0.229250,
-0.173330,
0.010159,
-0.117190,
-0.207310,
0.098110,
-0.121530,
-0.084489,
0.110540,
-0.027388,
0.089912,
-0.125890,
0.094412,
0.109250,
0.197920,
0.072696,
-0.033907,
0.095237,
-0.017182,
-0.263530,
0.019484,
-0.199640,
-0.149940,
0.242790,
-0.139030,
-0.316690,
-0.254660,
-0.051634,
-0.055122,
-0.105320,
0.001223,
0.074118,
-0.077586,
0.146360,
0.092405,
-0.128050,
0.087474,
0.044590,
-0.014181,
-0.174840,
0.025522,
-0.106830,
0.121960,
-0.123070,
-0.165660,
-0.013577,
-0.075065,
-0.017060,
0.122150,
-0.038379,
-0.118920,
-0.120270,
-0.172380,
-0.237690,
-0.077983,
0.163910,
-0.029821,
-0.060246,
0.046776,
-0.102910,
-0.063500,
-0.059406,
0.062179,
0.048950,
-0.181870,
-0.021711,
-0.182830,
-0.080356,
0.146000,
0.155810,
0.100370,
0.111880,
0.091750,
-0.004524,
-0.107210,
-0.074642,
-0.042651,
-0.169480,
-0.134730,
-0.084872,
0.053907,
0.074842,
-0.167260,
-0.162110,
0.088510,
-0.185800,
-0.091234,
-0.140070,
0.133810,
0.094924,
-0.052230,
-0.085944,
-0.155570,
-0.190370,
-0.005333,
0.063886,
0.112250,
0.001180,
-0.199110,
-0.093487,
0.002526,
-0.182840,
-0.146070,
0.061803,
-0.066011,
0.099035,
0.095097,
-0.299750,
0.123230,
0.033969,
-0.214150,
-0.236600,
-0.073607,
-0.121590,
-0.136290,
-0.014280,
0.045408,
-0.065609,
-0.129230,
-0.135860,
0.057588,
-0.042554,
0.031550,
0.039373,
-0.121040,
0.054517,
-0.079804,
-0.229050,
0.128070,
0.028408,
0.004293,
0.170440,
-0.158660,
-0.045074,
0.158480,
0.020014,
-0.081168,
0.199840,
-0.184010,
-0.076557,
-0.124130,
-0.146230,
-0.212460,
0.120050,
-0.093265,
0.005719,
0.062251,
0.039962,
0.015178,
-0.051760,
-0.029315,
-0.133680,
0.097119,
-0.011526,
-0.016951,
0.066651,
-0.092847,
-0.194980,
-0.057876,
-0.015771,
0.019169,
0.011308,
0.066698,
-0.081461,
-0.290660,
0.193730,
-0.034562,
-0.009047,
-0.222290,
0.000633,
0.023777,
0.108110,
0.110420,
-0.139810,
0.025209,
0.046339,
-0.005240,
0.174360,
-0.200500,
-0.036457,
-0.218820,
0.323940,
-0.282570,
0.042966,
-0.118190,
-0.186070,
0.132620,
-0.104970,
-0.162690,
0.119590,
-0.209650,
-0.073151,
-0.105250,
-0.114580,
0.122100,
-0.087986,
-0.016087,
-0.084429,
-0.019280,
0.204850,
-0.010139,
-0.245240,
0.095200,
-0.325580,
-0.070665,
-0.076676,
-0.126350,
-0.056243,
0.140250,
0.027968,
0.119420,
0.096764,
-0.226520,
-0.322220,
0.149950,
-0.072142,
0.003118,
-0.169790,
0.107930,
0.101080,
0.215300,
0.050397,
0.042958,
-0.035878,
-0.024295,
0.029555,
-0.250620,
-0.113880,
0.089745,
-0.059382,
-0.261660,
-0.030908,
0.042674,
0.018364,
-0.240550,
-0.080123,
-0.203980,
-0.200730,
0.052406,
-0.065475,
-0.040520,
-0.006387,
-0.104870,
0.092241,
-0.037933,
0.024193,
-0.179970,
0.063623,
-0.097323,
-0.115720,
-0.051205,
0.106950,
-0.251260,
-0.054694,
-0.187300,
0.050070,
0.075319,
-0.175540,
0.074055,
0.087106,
0.083503,
0.096878,
-0.206380,
-0.051951,
-0.054918,
-0.038445,
0.077883,
-0.088481,
-0.080126,
0.177030,
-0.094446,
-0.213930,
0.012146,
-0.069147,
0.045483,
-0.137990,
-0.210270,
-0.137900,
0.010820,
0.112100,
0.057018,
-0.032130,
-0.001362,
-0.162960,
-0.071656,
0.128060,
0.110380,
-0.022836,
-0.164980,
0.025752,
0.005537,
0.026377,
-0.103870,
-0.148670,
-0.201370,
0.080307,
-0.025232,
-0.002733,
-0.162360,
-0.101900,
0.065386,
-0.117520,
-0.115590,
0.113410,
0.105760,
0.171450,
-0.254630,
-0.171290,
-0.096161,
-0.231360,
-0.015058,
0.091802,
0.006052,
-0.026457,
0.095044,
-0.049587,
0.025178,
0.045620,
0.037996,
-0.022856,
0.008596,
-0.251190,
-0.205470,
-0.304700,
-0.256080,
0.046451,
-0.221420,
-0.033455,
0.032275,
-0.093663,
0.133800,
